{"model_name": "Sequential", "layers_count": 6, "input_dims": [28, 28], "loss_func": "CrossEntropyLoss", "layers": [{"layer_name": "flatten0 (Flatten)", "layer_type": "Flatten", "layer_args": {}, "layer_params": {}}, {"layer_name": "linear0 (Linear)", "layer_type": "Linear", "layer_args": {"out_dims": 40, "in_dims": 784, "activation": null}, "layer_params": {"W": [[0.0007151865715256455, 0.06134697648612044, -0.07445306540467907, 0.02029296808189023, 0.027466448388449215, -0.07043761742348431, -0.023536617978541143, 0.06622418576405, 0.07862220451695807, 0.012696189965649557, -0.14157568949295413, 0.029303306241765862, 0.03319347979421624, 0.02375305311007091, -0.007831926845551604, -0.006211906089918775, 0.02026585578867338, 0.028676185597577945, -0.015874582937684508, -0.040109393940000265, 0.052419926958271225, -0.01597588219332787, -0.06820310306653568, -0.010837021535603248, 0.038677606669215485, -0.03512531984182425, 0.04089548150500288, 0.0416730331967507, -0.0007480728178925872, -0.010234358290795768, 0.0055628331910534574, 0.0031162541001399785, -0.04058633933848839, -0.07695773727981663, 0.038304516514597146, -0.05233188824629805, -0.03541602160641987, -0.051845570707327204, 0.015076452959431448, 0.05422764971872989], [0.07457927265157988, 0.026751040085444024, 0.08367098613351247, 0.0007970849003018787, -0.09661149059491922, 0.07533831124367239, -0.08335299914183808, 0.020893752506554928, -0.00038992194379101024, -0.06208812067061006, -0.030482268022079685, -0.07391046522034699, 0.025046892471192666, 0.013663621308438113, 0.0484840367938138, 0.033313196195934466, 0.025236770347653703, -0.05056467610922044, 0.01557188816751245, -0.020825307320900988, 0.011455613701562983, -0.06672193477267896, -0.05755016749104585, 0.03898235803249037, -0.01168570351516607, -0.026793631264285044, -0.043569581163553535, 0.07394069998221384, 0.012149054469761692, 0.027876930476306433, -0.0219957644661389, -0.009119118867397503, -0.10773922549584794, 0.029984120263664395, -0.03823225263386041, -0.12148222046613086, 0.02843047130454922, 0.012517074712551741, 0.06538994108970826, 0.008235601401563966], [0.02288411681550988, 0.05984551483333703, 0.031966001790173774, -0.07193697626706434, -0.0753230015983956, -0.03265496783636055, 0.08129871887906423, 0.017205512052757495, 0.032851665485802976, 0.026418871537803163, 0.029716243583361734, 0.010347553358741166, -0.14306947692492708, 0.046522798568745964, -0.04122700605386984, 0.13116547795643976, 0.02163743482521947, -0.05370293723239608, -0.057331503628774254, 0.009402169558066198, 0.01142167345424724, 0.02160855481891197, 0.06446959099771254, 0.010574903153584161, 0.02730003200000645, 0.05443164927299522, -0.029472146687210647, 0.009198336530036537, -0.05502645469596358, 0.06568703287432032, 0.014549847069457483, -0.025873315239506946, 0.019329873422972016, -0.019441220105509145, 0.12785676564006473, -0.02127028081249512, -0.011667825194634772, -0.04584022318282243, 0.030807995703819008, -0.027023256342386906], [0.041833820917931, -0.07615408078111327, 0.057661523172227565, 0.04705656586881079, -0.04263890309669464, -0.06751563194988282, -0.04642421304857334, -0.026617863046404303, -0.09531836928948889, 0.024428818682993392, -0.02105282951500689, -0.06771502655809944, 0.07135131937185138, -0.07095892822373988, 0.029670706063603027, -0.008118987746014836, 0.018136456445013972, -0.02551862937618293, 0.06333081757216524, 0.10283347892714859, -0.04227629671773887, 0.06626785402108155, -0.09479873804257931, 0.10261713588862877, -0.02864016038309553, 0.03974372953465119, 0.05329376179934022, -0.010262339024974683, -0.05298993227270737, 0.012635049695177016, -0.0269718520465161, -0.026105869084719967, -0.0029749294387082037, -0.0697759652532018, 0.012529809780299361, -0.04086894479308067, 0.11745000168197457, 0.024962240167921205, -0.005222043933243273, 0.03524052752018653], [-0.06457696352562055, -0.03077601787094248, 0.10759967494338286, 0.004060490105335068, -0.08674023491002758, 0.08427754367208963, 0.025283002904965265, 0.017511807404662648, -0.03635313095025271, 0.07333704961733466, 0.07545145668025625, -0.005800015239128318, -0.04558458448072419, 0.030841867387966036, -0.026718230576418967, -0.004398030930658534, 0.012671667137944645, 0.004965196635518696, 0.0276847260217264, 0.06261321954525563, -0.04759154974211404, 0.06811622436981594, -0.010252592424815776, 0.09449401311781638, 0.0038177490052880617, 0.019200679876318124, 0.00611949917155917, -0.002184543551646796, -0.007215083877585168, 0.06125236484163594, -0.12990608135691625, -0.0799069659366936, 0.013670811128911347, -0.0013604132584248473, 0.06390388973908462, 0.01987179248996923, -0.000398416865487163, -0.06870249152755746, -0.03107845928775432, -0.0728953152783049], [-0.029143123160548064, 0.07783313127376457, -0.0322275795612096, -0.04544513005196171, -0.0738655308750801, 0.033426355405052864, 0.02275011910965043, 0.047175998945743244, -0.03461915792290842, 0.00777260340191918, 0.14017030453135146, -0.03821713023459435, -0.026790178562893136, 0.013203726165192737, 0.04222253389305889, -0.020223922987670347, 0.01791722258978884, 0.02773640317059203, -0.08392943853078863, -0.022473395274782162, -0.016131771629027607, 0.051737707919339036, 0.05298703285515219, 0.00822028152057441, -0.06676711028391863, -0.03552656417775947, -0.04656620802155016, 0.007406613868766533, 0.09480951715403259, 0.08496562385034853, 0.09301984608445622, -0.0140001564695887, 0.0186977916982756, -0.09308635697252969, 0.050218167126477885, -0.04972734182403269, 0.03365603729080958, -0.03266958704396327, -0.04524469758196079, 0.022884086446704737], [-0.07144678517905365, -0.013386804395693966, -0.04960578069029866, -0.10080204631799523, 0.07282141006867857, -0.048820360433101805, -0.004624683738235143, -0.060700919887456455, 0.00079918414669055, -0.017779947373995658, -0.04471794532303031, 0.038154420359780734, -0.04810261296901406, -0.02084380975747389, -0.027364701587809452, -0.03745453435170883, 0.052992471826938156, -0.018321967705382733, 0.09812098535690895, -0.0492838614052822, 0.04872021688537219, -0.06523657340192897, 0.055619708894105495, 0.003522990003546855, 0.05590665568391252, 0.10419140561384471, -0.01447925963044429, 0.05757170093953917, 0.05664121659115341, 0.03712747501277252, 0.04902327183998818, -0.08945382173703101, -0.029794509007603272, 0.007053514322209954, -0.04703280063961448, -0.006099407126792043, -0.0365840311567682, 0.01022221526793462, 0.026393082019659668, 0.0381375026096706], [-0.017406288277679708, -0.0330518732182695, 0.0557819632720841, 0.010063847502358655, -0.01675584027507423, 0.034414337619767955, 0.019701241126387412, -0.06441838119034157, -0.028422112560924966, -0.13333616158736397, -0.0266437963859421, 0.0007542621122777902, -0.0041684162047059825, -0.043927461372175174, -0.056958480415427344, 0.010982378065042106, -0.06129806540452147, 0.02739084499957138, -0.006935125170804872, 0.03027010897774536, -0.02288335400563276, -0.014114955167139362, 0.026830807806061382, 0.006516940842205209, -0.03899804227619194, 0.001737506573088146, -0.041380958206643524, -0.055159151829941216, -0.036141587111148496, -0.07668842310871259, 0.058128698275856934, -0.15851004474072922, -0.010162352478114253, 0.059643839304479036, 0.10150058537200286, -0.020831190056505928, -0.027678748912970366, 0.0735798690757845, -0.09347025621911076, 0.028570734760161122], [-0.07984364163237802, 0.10898420397130339, 0.1123544676522631, 0.016578236940892173, 0.019705072723179583, 0.07392211789358266, -0.05222304597798968, -0.12820756380003795, 0.02400649663701817, 0.025732475679823053, 0.03267306404946719, 0.022492114438120114, -0.015597533883710067, -0.019757640004930747, -0.04356668847100768, 0.03002342999505434, 0.06062123040982733, -0.05987893080536583, -0.009551655897984294, 0.02748559689771985, 0.004339286187753858, -0.007401943796463859, -0.015940427983608743, -0.06638505091788215, 0.010437892999928268, 0.06145406740893623, 0.0036056799947548233, 0.03507107957063366, 0.0025599766328823523, 0.004799303737230047, -0.04278623124383446, 0.02291975888440086, 0.027501846017258507, 0.03157372403622717, 0.03923905868541306, 0.03730997643279886, 0.0033153005308250182, 0.021184440887254515, -0.04090272022740927, -0.02707583425381956], [-0.041266265714288854, -0.0151531614552944, -0.04212398640081196, 0.039135261621265086, -0.033562398126659294, 0.0771883662712481, 0.08709043794243855, -0.06749006440286531, -0.04239477305504007, -0.005935531307503172, -0.07811922063205629, 0.03237400754822162, -0.026191078548903273, -0.03284506782404371, -0.022206325872208877, -0.05863542717656187, -0.041271225567312955, -0.09808983900031165, 0.08247694547821155, -0.012888473768321428, 0.0650647084247926, -0.06542980086459918, 0.03086230289065994, 0.06530120030609676, -0.00903935772297641, -0.04765160123528594, 0.0006443181476141017, 0.050833954141386514, 0.007869425370873871, 0.07333645688831343, -0.011753094532960608, -0.03888406717208265, -0.09797681474232227, 0.21560049668123424, 0.10570352491102665, 0.00761264232813388, 0.039719694741547976, 0.10381611357412886, -0.08537183853299844, -0.053905347557211436], [-0.03791593096695703, 0.03787929664437926, 0.025352760506418034, -0.05654165627868546, -0.01999779543488374, 0.011356705661193522, -0.006327811802193627, 0.01477241176076691, 0.002104832174416979, 0.07663908138650022, -0.04301299552691618, 0.02025384575517929, 0.012247348298806141, 0.0008873308304479233, 0.03555738560971763, 0.00010821960689848453, 0.020496274826286447, -0.11851138083352153, 0.004295192296363905, -0.03963512693435226, -0.019290309363564843, -0.0017477545185163987, -0.1371426409597604, 0.012657016669033395, 0.058023553440650105, -0.02764371176425562, -0.0185938245127259, 0.07363549688963503, -0.0019628107380739003, 0.014962428337754907, 0.04235543914108415, -0.05845179201190433, 0.0035278029426174303, 0.03953443161966486, -0.03605017340938453, -0.026639390571777475, -0.054575245359754, -0.033433207738224495, 0.028249980000417913, 0.02591644934728451], [0.04032280732549858, 0.00010751342988773855, 0.08313758599966455, 0.10782216146279744, 0.012533418972602748, 0.10423773143890952, 0.01477470286629936, 0.05769375528234658, -0.05137687358608614, 0.0635040483507013, 0.04662910080452404, -0.07367651253188488, 0.021246916058784062, -0.003809382113265091, 0.0911444395587989, 0.10404392356775093, 0.008825879315245578, 0.007302710132323359, 0.04696417725224916, -0.07361082860444695, -0.06237331659821629, 0.008633494248864323, -0.042867149679626036, -0.001492672728106421, 0.06728575784131183, -0.021675666728326683, 0.10586791210839411, 0.08267278649540924, 0.025789580452955214, 0.034011264471924985, 0.023704529195226007, 0.04788314569701728, -0.059452476097892726, -0.018362232215060663, -0.019748455461580865, -0.04097338125141813, 0.03154204249885685, 0.06324719440448, 0.032558689349797304, -0.04633314338781471], [-0.006771233086767878, 0.04507930532578796, 0.023871839790427094, 0.05257284814332623, 0.027011734587297314, 0.028587042051215955, -0.009520501207282775, 0.0038689490120543306, 0.031537432985183106, -0.07596175746232353, 0.0486835251261511, 0.06759630239135464, 0.06716266078822401, -0.06087748867628519, -0.07780884284969242, 0.05611522388321298, 0.009900979336558669, 0.04880591264053118, -0.10759438282501298, -0.02033217136821634, -0.0006044017667860207, 0.020712812010232663, 0.05851842369398146, 0.08613169740505272, 0.02758601018345966, 0.027750730068134298, -0.018417898710969497, -0.07562173465399435, 0.052008616485731886, -0.06684933098976933, 0.022143056893216835, 0.04445335857540724, -0.004375346696377319, 0.008199392738673662, -0.045091052563678784, -0.026005878926637808, 0.014810404229300996, -0.012265506512534153, 0.08499508030540913, 0.0021243773089423346], [0.0026783359521598167, -0.0051848897415962035, 0.11869828017369967, 0.0484504804846186, 0.055816336532986746, 0.026659908340935616, -0.04875054563928184, -0.025932176980157935, -0.10020394047331227, 0.005286006188919237, 0.015276152565268129, -0.06829308800744749, -0.08648120467970376, -0.007335940837202435, -0.10755768671167479, -0.016712984561352395, 0.0017433221281295387, 0.008312037000840156, 0.02199226082547013, -0.02008350355892948, -0.028839333822569486, -0.004990651743909369, -0.035719610452860304, -0.018681502126031573, 0.03539047187499683, -0.012860413565688983, 0.09383884089155607, 0.014230385556338123, 0.028274578889848648, -0.05149694903364446, -0.061717041639946436, 0.027737826216371383, 0.016446540497783418, 0.012625737869597906, -0.11567350868001557, -0.04628340521691696, 0.01739985217793715, 0.00981358145961473, 0.048472129827100106, 0.010914195155473858], [0.07113653770243193, 0.017988938460657238, -0.032377764381309605, -0.0024775702175213942, -0.06182023159920259, -0.010934471544776829, 0.014644085182986441, 0.018266881725161742, 0.05281070307920232, 0.005054795041600748, 0.030749109236476037, 0.032680857662185966, -0.00775386091929236, 0.033856846283863255, -0.03841522181280054, -0.018543698072591083, 0.005565168435919655, -0.013957050618146553, -0.06064381357433863, 0.06414843627153567, 0.008767437510572072, -0.07673620717876196, -0.05664034733622354, -0.0027446555312372572, -0.05109524435617096, -0.01692267666015468, -0.05524699111667249, 0.11581054877639958, -0.007399863659794524, -0.02134509671684403, 0.05848788241740591, 0.00871009990249615, 0.02207218208912788, 0.05248467209336109, -0.045578571000537284, 0.043685950664860154, -0.0751673535712812, -0.0016305561675966013, -0.019200454255464253, 0.020896508001531144], [0.03486038595370078, 0.0747249996333788, -0.003145577736699862, 0.004544596350263717, -0.04635738824089908, -0.011275786990107301, 0.0133608876926315, 0.06582604430826237, 0.06048371107356142, 0.03575900352449127, -0.01163318413080516, 0.05329489140190318, -0.03188351728184034, 0.07273010754575403, 0.006170699123215376, 0.0491503351473342, -0.007760443949831205, -0.0005967478267920566, -0.03946295923361087, -0.045881861889853916, 0.08694475454643304, -0.03586397348778156, -0.01854523852567187, 0.007638941626485863, 0.03821586322944998, 0.06087261435245623, -0.028462883128057195, -0.04491596163146145, 0.06166835782696136, 0.011944686098318686, -0.06886692508911885, -0.01608944889253339, -0.010792720382085277, -0.018094807312793226, -0.004338733353188243, -0.07887235515627888, 0.0332595015787746, -0.048346991378413764, 0.038914945125845334, 0.0028844119424040254], [0.038468884224573514, -0.046076277099570496, 0.05758949817793993, -0.038065964996936534, -0.006975464779873192, -0.0956644134987034, -0.07898667612760628, -0.05765924185176318, 0.02808160198202459, 0.03844288258505469, 0.04545914580307909, -0.010777101305531629, -0.10392799886625259, 0.031176641538693012, 0.0550169547540166, -0.03692261442337231, 0.03669281743136805, 0.025745913574298437, 0.0375702688647735, 0.07209138170463791, 0.06273305036453987, 0.028258158231123, 0.027385793043284673, -0.098676652964269, -0.09628491335951801, -0.09195785160066598, -0.002923637494499805, -0.03131822045861255, 0.13526620557590013, -0.004195023374917022, 0.0604767291719937, 0.0024596421629018653, -0.10711853445520522, 0.007612846952732894, 0.12900873218741665, -0.030501849587967752, 0.010793317398074685, 0.07953467534013382, -0.054020538758786284, 0.004146762816162263], [0.0407068200738153, -0.04007907626116438, -0.027925770989274713, -0.06803816267812303, 0.00286753450506863, 0.016656182038661146, -0.011220216429358764, 0.10498504421517675, 0.060332647107460564, -0.028426964154384858, 0.026098355952135745, 0.07523107065500344, -0.049408360552222766, 0.05077055391048406, 0.05049431663381555, -0.009353746088935312, 0.042851364428102154, 0.018207483426142864, -0.004303788229662242, -0.053994232572199215, 0.05244775821798433, -0.057736608280853384, 0.04031579928136121, -0.03569313856477831, 0.0371461984489962, 0.07360454637859687, -0.0060807030708579565, -0.04619282735823773, 0.06064066623640769, 0.024125100438224058, 0.04861280045873379, -0.03578115108513848, -0.037553769945045695, 0.1007515598982934, -0.0040603311882907375, 0.026821696725605634, 0.03955335710004305, 0.04746731922647552, 0.07195269201013016, -0.03206503940742454], [0.0038407176471332224, -0.043019301485335, 0.016887994130498633, 0.0003029899361333639, 0.03993478115359308, 0.0029099198421027933, -0.07554879782907743, 0.04623618991576656, 0.0485734615940718, 0.025739293364245387, 0.04330821074032285, -0.03378513236458114, -0.006350054444432195, 0.021672212631241007, -0.07452000952983893, -0.02229188238067383, -0.012273841235195593, 0.02789371609678188, 0.06297059112074926, -0.04612892107840618, 0.0010410896296104445, -0.017574979475493763, -0.0315737105466336, 0.016113171157718972, -0.020240264497450568, 0.01738900287500776, -0.06558571757827507, 0.037607710970291974, 0.004691324870177358, -0.05844773510741431, 0.05669548031149468, -0.01868228830219982, -0.003236719387591291, 0.03098265875238756, -0.04101821022528414, -0.019289443839845426, -0.07405014866064188, 0.047804471070811524, -0.01645782792622407, 0.04962185518116785], [-0.025124316327183083, 0.073978902819571, 0.04318434266397574, -0.004695291413905637, -0.09912750398942533, 0.012084353114128305, 0.037201067148453774, 0.023983835116806743, -0.02003006568946208, 0.03921173606730537, -0.038926980601327286, -0.052838399372154364, 0.01607705130579075, -0.0022474973703653553, 0.03277077136434728, 0.09240030982773631, 0.0029265164008833405, -0.05073260814495443, 0.004383696744213809, 0.06866856601204319, 0.0028628809838791543, 0.06851876874352193, -0.008250057665239443, 0.007401676480933326, 0.0074464338615981025, 0.01911278682031717, -0.03769358790213853, 0.024747168549349732, -0.012648533543602966, -0.011936299429607717, 0.025168815993695772, 0.05352800512794346, 0.023015018229592774, -0.07753284524463619, 0.018386266232315377, 0.0306304490476149, 0.05643386725160601, -0.024452688597529165, -0.04237579523762844, -0.0210446500862778], [-0.03896588118340559, -5.9038890285158264e-05, 0.034528723827709225, 0.06742747256866, 0.03049619236665661, 0.06748156293672684, -0.0011862552651770227, -0.044198565147623096, -0.028130725969354207, 0.00888173558144678, -0.05349536784891118, -0.03866655836709243, -0.043491505341477985, -0.017410059426600028, 0.08229143310627755, -0.03941383763048133, 0.07138896436329645, 0.010581182457636685, -0.08593747495800641, -0.08289570907620679, -0.019136887423588524, 0.010392575603457563, -0.040385840460610944, 0.0009615428314960243, 0.04506591130276958, 0.008193772312752576, 0.05797896402981426, -0.056573924374033094, 0.08651672925817205, 0.006619861626483698, 0.021897213552364854, 0.044560896859207805, -0.050311843917607686, 0.021986257917677207, 0.03728155590138525, -0.01157559560983483, 0.020086183469186763, -0.034326857140639155, -0.06139151769955841, -0.03478092342844957], [-0.07748910179586152, 0.02578669198485221, 0.010216802975006049, 0.010859918778977379, 0.038198185379318954, -0.07910684051889479, -0.030456192028910572, 0.08018561447992105, 0.066840788218848, -0.01803448490000629, -0.04051056061988117, -0.022386901630815186, 0.006225438554078011, -0.023023465842253503, 0.08075107797808713, 0.02466396410089227, -0.01905614690934457, 0.031989456918607946, -0.07253734783359844, 0.03698240595339301, 0.10904247467828596, 0.04182968715782206, 0.060392001266324394, -0.012428410250529598, 0.0659594710072359, -0.05780575518404272, 0.06936949992879274, -0.058828418130017414, 0.01277492548472338, -0.028954759930002634, 0.005574029683757772, 0.008962419310776123, 0.0751085321171133, 0.014940139772813098, -0.035476309553688565, 0.07396159551845247, -0.11838314275381154, 0.04923077603942796, 0.0728108804046798, 0.02279815169335693], [-0.03709324700312152, -0.016205999017903892, 0.03720189875348391, -0.12825015346229368, -0.05655681203700141, -0.03305479391108457, 0.022154609920770476, 0.0008369921412338572, 0.00019960691005099538, -0.10400797036035035, -0.0633853186005115, 0.021515832972748554, -0.050094222730708966, 0.0037390507052090906, -0.018588352922984528, 0.02230736545189142, 0.029810863559771708, -0.00012804638797350373, 0.03626829679400606, 0.0020043747015145033, 0.021266955506147985, -0.0032774519365464, 0.03565805314083121, -0.034964057193073425, 0.12179194315663186, -0.020669221024976314, -0.00012883052796078755, 0.07995121732936478, 0.05118226019242745, 0.005904060243720637, 0.014470414973940929, -0.03679848838364487, 0.0396609321746192, -0.066992497753451, -0.02248164364867449, 0.11151519118974242, -0.01750228742365575, -0.036712025918560286, 0.03230301269277578, -0.06342144438747561], [0.029012787665978167, 0.0006019363956742452, 0.0069375741153389426, -0.03172332019753032, 0.018544140342568186, -0.04944179515044773, 0.026264912000470778, 0.013788480195602693, 0.009106216084796415, 0.0495753283615519, 0.03858722601929322, -0.030093340124348077, -0.08936210848804373, 0.02705564797572871, 0.05068047239728808, 0.06410492518365081, 0.023438143308789437, -0.024035098661052145, -0.028340075667459625, -0.05027515508364019, -0.05869302292876505, 0.04157190209341292, -0.01802423033471988, 0.003877746498427685, -0.04065760941536655, -0.09573087788354956, 0.014834712591361559, -0.017569131379031416, -0.00763514585969274, 0.005754228918409957, 0.056630592598445585, -0.019754889606823613, 0.08180770281501541, 0.0069054023164745685, -0.03270866617975952, 0.04299187370991798, -0.0688095604177546, 0.06192488479854352, 0.019818467373464894, 0.014726239103095921], [0.004248430040108295, -0.05606984225434859, -0.03375012289139823, 0.07023153018813942, 0.005647727738554175, 0.00735392080225518, -0.07245071888262085, -0.13704381684917163, -0.02304240194828398, 0.02602342007938745, 0.11631620167006285, 0.07527721896000734, 0.024570234215668577, -0.004320568385262743, -0.02683448345706475, -0.047038032486744825, 0.07425763067985211, 0.07617217369469094, -0.03336018713637541, 0.02113651715496021, 0.09996440686004865, 0.10204128581564681, 0.005530323851950269, -0.07705205528277458, -0.10052262124351277, 0.03337663142697619, 0.030288382287295166, 0.0264201562567885, -0.027855518437632322, 0.021804260052844235, 0.08071030974549086, 0.07604755877838892, -0.016015374848475226, 0.06652176844108064, 0.057154797266411, -0.007999280667631918, 0.08731763120966736, -0.03915146561405554, 0.0034257780479700567, -0.046045526634723506], [-0.06113648949216126, -0.0025855456030899225, -0.04462458994512209, 0.04696237308005175, 0.07082024099696288, -0.014282715978836178, -0.04955444880847299, -0.0494040727856034, 0.12364317239666774, -0.024946971919441622, -0.173248789181895, 0.030826990769188208, 0.03329939508090335, -0.03506725742329155, -0.04462299519327532, 0.016814499821269594, -0.00017629908424126743, -0.007941950581627558, -0.04858600164845087, 0.023602618799463845, -0.009607773812039115, 0.017407399237739023, 0.013290416428573084, -0.0313894589149055, -0.03682005736956958, -0.026051186623930574, 0.02666057037965076, 0.0030670384029054397, -0.03424750658125833, 0.09243948034286402, -0.06272368652978964, 0.051389520354139545, 0.013867742913453785, 0.003067167739012035, -0.014280369844709798, 0.03540012065782797, -0.009377851883308043, -0.06043327440420912, -0.04654502325862224, 0.06259699648014808], [-0.09479040750359019, 0.01630564246282671, -0.007065583815787597, 0.014575588725245982, -0.07251667640716394, -0.08805092455386117, 0.05430067217931682, 0.0317847882529866, 0.032369625493232704, -0.027505308185685945, 0.057779475383339204, 0.015977846066423253, -0.015171227598511316, -0.04041114095284931, -0.041363744805707564, -0.07851823523255896, 0.03576415798589303, 0.016306703509849703, -0.028631218183853793, -0.03556984295161796, -0.04588541650358312, 0.022932751597290683, -0.03343879781279473, 0.09577885343085772, 0.038609838994316435, 0.09954857661435523, -0.01589655401593851, -0.05877237667453746, -0.06240597417221741, 0.07952149225221854, 0.05499947531207928, 0.005302098754827223, -0.047762228400551124, -0.0363038591141897, -0.06420189249057737, 0.06836779431563024, 0.04434981929812873, -0.044329407138071736, 0.020078794399309027, 0.0633052457497819], [-0.010317568926838909, -0.08582269175733499, -0.1448924953351642, -0.05012252578119215, -0.04294033955004405, 0.018778617398584885, -0.055875274573192774, -0.04714636253514753, 0.11170681248085368, 0.08297225785709221, 0.05319614874797914, 0.12770837767548204, 0.058859462911163965, -0.04018662566459218, -0.07061842583034342, 0.021353862413230295, -0.0683813021601289, -0.0745163990539398, -0.05699770827284561, -0.038174014697203315, 0.022691675205365473, 0.06394258768435605, 0.00908044363910183, -0.0191971872888018, -0.0804989486192367, 0.03643319973997046, -0.04065234289628898, 0.06811005704849964, -0.09615056663353168, -0.005559937982203293, -0.07113384267335988, 0.07736375028942508, -0.02627187848250837, 0.011717200407632224, -0.035598072445936636, 0.037072305946734725, 0.04208514578144532, 0.02904065241667615, 0.015278097591710069, -0.013677732134883455], [-0.011365184956159475, 0.06412632187379777, 0.0022153262982035553, -0.03023228543881384, -0.03295112594243457, -0.03877505823940285, 0.06861759570123252, 0.1307148804403427, -0.02719825879269575, 0.08617420438610181, -0.02637809863526153, 0.02625779850499473, -0.008230700789998895, -0.005298360424404507, -0.09728336033547817, 0.073697703795281, -0.011793822997501782, 0.06993000066158034, 0.08551376404512977, -0.027735157412690933, 0.02119402779609941, 0.0407032697935827, -0.003948823695211032, -0.025953461352663264, 0.06731025799871479, 0.008045024298555742, 0.036478386419372955, -0.04442299647031384, 0.004887346376452567, -0.053269450374266364, -0.007614940303715468, -0.06451279359744334, -0.05257394071407417, 0.09931567208126589, -0.04608275286864844, -0.045797598262360635, -0.058167887777159234, 0.03518116885807632, -0.08148103014412968, 0.05036273737419866], [0.08511551776000519, -0.006330660318196683, 0.035259573708022844, 0.01140257199000297, 0.019303972745588087, 0.09283431580124521, -0.013503942271573251, 0.006845722972506012, 0.0333836641076266, 0.04783046788256769, -0.006034479359726199, -0.02636768646267869, 0.0039008151780693667, -0.009043186473609716, -0.05888177173635784, 0.02799786120275476, 0.03080426017537444, 0.0200546080024431, 0.01157026895443504, 0.004149629655556469, -0.015917588091714445, -0.050033230442202856, -0.02614398647139219, 0.007226645842635895, 0.02050636496663143, -0.029412591296488863, 0.04349824490509418, 0.03860869000384054, 0.048426188799607535, 0.011225675803687328, 0.04704334661703331, -0.08447414589488522, -0.094067576529288, 0.024979842888569213, -0.001981923022888466, -0.024519675472803596, -0.02046774592245717, 0.06314378167236838, -0.049660609730795634, -0.05578700090550418], [0.01790766590292483, 0.06821674778887402, 0.026418957182517633, 0.051464742480219164, 0.03210716508801789, 0.07879011643117279, 0.06891534576651373, 0.020244568042005074, -0.04960380751740491, 0.023271301241584646, -0.021568743889714675, 0.05604591500666893, -0.06236968669693889, 0.12990185775889684, -0.09376622216939007, 0.0755251491791936, 0.0631284406147663, 0.05830327723682429, 0.060941355578247376, 0.06431606749657401, 0.012253206904424177, 0.0373573847489354, 0.021064321682974917, 0.0669318633832202, -0.05775248240136653, 0.058506450560979285, 0.02539377404622744, -0.05228800526092934, -0.016523908303196364, -0.012269085539612229, 0.014971370962379167, 0.030616957113637922, 0.04002818692432482, -0.05982557570253862, -0.06066351941239916, -0.1404839613575627, 0.08620479411600264, 0.06611366140495992, 0.004900423948280763, -0.006552327189227913], [-0.06641737563193967, 0.019363179659232583, 0.002253195224740103, -0.14063842896369172, 0.11578235618946332, -0.02242628714874943, 0.02286181291182553, -0.035472868568366074, 0.04022057117924183, -0.09737090161036659, 0.030924030099149857, -0.057870912430164026, 0.026173187090273206, 0.0017824985752882782, -0.0032073872699256278, -0.04103087489054609, 0.003410156999040395, -0.03244506477019439, -0.05099536903094123, -0.03661028280389843, -0.0038502750282988865, 0.032919028095395195, 0.0154158600591381, -0.0938962950645345, 0.05060962308862733, -0.019524794331367303, 0.03680577247650274, 0.06695667427551029, 0.04655468265486321, 0.04787209077924805, 0.06439375276791741, -0.10789887682122809, -0.01141346955825003, -0.0429649661426069, -0.13071129977746707, -0.02474617336141629, -0.06437124395083184, 0.03180334129309106, 0.008254547304049413, 0.047445166253180016], [0.05451600107424009, -0.07827049195474352, -0.08838634754403696, 0.02911808334128677, -0.030975275572959864, -0.015403697666367757, -0.05922624190925409, -0.007614029504797863, -0.0692639043116728, -0.0740419015991071, -0.01926221410466223, 0.009000047015646481, -0.007130017236201365, -0.07087826130014208, -0.06786177866411375, -0.011293695055725198, -0.027708168750213546, -0.01770267039281857, 0.0370561304732063, -0.0005107484736199743, -0.02787582869024435, -0.012391579383953875, 0.046416799405096514, -0.038209814521980454, -0.005862712255039733, -0.0659207494862603, -0.030988822956816344, -0.04873565585048131, 0.09995453172849365, -0.009440842607622247, 0.0007758144665740449, 0.05486018647620779, -0.09437665763928454, 0.009331290335244111, 0.013344377613205014, -0.052399148804684846, 0.02665162018446299, 0.013505614125897094, -0.02655722584139201, -0.011415699616772692], [0.027790658165930217, -0.049833680602624594, -0.07259830388621431, -0.04239666052331224, -0.0027585418829402224, 0.06274045460498245, 0.08267560545282684, -0.007973331224482013, 0.023078388051278393, 0.01548204304460398, -0.024026656276048337, 0.05792873471114998, 0.040315093484482166, -0.021282986075996636, 0.006710540451276597, 0.036306589330094695, -0.09339396250644873, -0.08867897941954808, -0.08912150118528098, -0.04622609422002703, 0.05967569473938117, 0.03797964283825635, 0.03087790435163768, 0.07244201421407805, -0.12270190254202556, 0.044172529592773235, 0.07083534719315274, -0.10004498745621221, 0.006421065050992746, -0.012512616101899457, 0.04203619979084599, -0.029203367808927377, -0.20079804571890086, 0.025856095345339832, 0.046531298784833766, -0.016121414628300752, 0.0778161603854474, -0.05205888777772966, 0.05851122145904583, 0.019075090368039976], [0.024823896055748435, 0.049391428789090606, -0.03360000169335107, -0.02116751218911491, -0.0037020615923378224, 0.016567099281676195, 0.07158080455557027, 0.043430729184293144, -0.0044331946733737, 0.013180177162176924, 0.015668884902488356, -0.0645922200004842, -0.02039925412777171, 0.05237069964424979, 0.07354428335274917, 0.00539108804640374, -0.011940371459423118, 0.02748081345533734, 0.013898349803725608, -0.08307931775513139, -0.04317200672950379, -0.08734428060609976, 0.04586484262044093, 0.01856882816788631, 0.058069358740036006, -0.05340172310063114, -0.004393015066864782, -0.03678808754419632, 0.04179469885371581, -0.013382115193111152, -0.02683615621965395, 0.05900622657673159, 0.006200827021146786, -0.028760969320057356, -0.06299801211224279, -0.021305785825671254, -8.720934362145109e-05, -0.02597573677549741, 0.028548529983283225, 0.030801263343688656], [0.010682577322290563, 0.03418914167259284, -0.05497257596569895, 0.011512579029467103, -0.15622916633751643, 0.02047853906051048, -0.02800610160187578, 0.004918235975173942, 0.005142307873097075, -0.0569169670457112, 0.03185071644725496, 0.07038493371895055, 0.004097490236151698, -0.036613676830826794, -0.02730470316451943, 0.07016403899301803, 0.061784791980024956, -0.04189991882249734, 0.048183134402694436, 0.006058761168062663, 0.051735286045565064, 0.06408774703314986, 0.03760170168221192, -0.006035649811706474, -0.07912637830768561, 0.020874220263061582, -0.04000025702570025, 0.03689694474865472, -0.05143319278307819, -0.0565202053380275, -0.05482828974871554, -0.012740044238003168, 0.09809961944523103, 0.059921224529865244, 0.040204061603664264, -0.025263301850391526, 0.10880097488981726, -0.06532151857090128, 0.024179774447333116, -0.00026506904888241097], [0.02793739888615112, -0.04956725342014093, 0.03960997055593924, -0.08399646053936201, -0.03197345835350712, 0.03452649832269113, -0.009651512044970827, -0.01449582305597477, -0.013729370887154294, 0.08165686047057237, 0.06895553084848377, -0.05836456147471229, -0.043763608726413605, 0.03492905119568545, -0.07048567986891656, 0.08796604028206673, -0.057012092726287725, 0.009381282573745046, 0.031200002000948756, -0.042444263256255284, -0.023777839716961832, 0.06148532079894643, -0.040622013637591624, -0.013549852497666659, -0.037381968119591207, -0.07068950602916443, 0.05809445219118209, -0.04518943403230448, 0.10220044387078343, 0.04973339881820782, -0.07712284459968437, -0.1277899990846148, -0.045910399592721376, 0.05694726927384592, -0.02876174709446423, 0.03973327626707874, -0.156981444125441, -0.04901885882230988, -0.01142094232840765, 0.0583822926149289], [-0.014043646994519016, 0.018059162910020576, 0.03970180291835392, -0.03529345072914747, -0.04042715647302367, -0.10277332661137305, -0.037965390613610275, 0.043029081324005965, -0.008882085902200656, 0.040086658679813654, 0.007969899688706905, -0.0773389712715151, 0.05663106840664634, -0.05356371052932326, -0.02090884041868496, -0.02198787678591551, -0.040464922131663875, 0.03474994156707039, 0.011394726233859861, -0.011021456749445175, -0.048809400351728184, -0.0005602931812210787, 0.05049316148248018, 0.044410239917804344, -0.011416912818212442, 0.07921146538778588, -0.09437067804022, 0.11116278622989456, -0.09354719049338459, -0.05938262417555037, 0.03757915972007641, 0.009486724574661676, -0.020245532474732545, 0.04202683029314578, -0.05002437760207868, -0.02436649276056866, -0.015389051089419186, 0.02922900610463195, -0.07749408059889584, -0.004030300575692656], [0.0005130421354142469, -0.05818200630984847, 0.023204218593188646, 0.09190160579733607, 0.03740843717732746, 0.051179988701833344, -0.045455792746221024, 0.0352320749489318, 0.004335301747222381, -0.013702479251397653, -0.03318426412539465, -0.07360798027374947, 0.01880260627280292, 0.024785632999962212, 0.015772266282468764, -0.05637401425793382, -0.036035277761907986, 0.09425485800877324, -0.12550332722907798, -0.027388216142549663, 0.058891084636149615, 0.09179460139652511, 0.07633715290321903, 0.046770492113100436, -0.04735545984036542, 0.010031135087813713, 0.022428320247352206, -0.02500813938310421, -0.06864061638380085, -0.007185806849607764, -0.005720377680086893, 0.029539888854335276, -0.021922560749424967, -0.01461964999889777, 0.017340414679378736, 0.0633628256757489, 0.04711958609150544, 0.045126609747862305, -0.0657343111646499, -0.026125034469381952], [-0.1201044959339521, -0.04428542174078147, -0.03035146072492353, 0.06056718807261126, -0.00580545424644167, -0.004096697300938329, 0.10812712844326926, 0.016455320861156544, -0.08263637533223235, 0.017604785345640743, 0.051209196090293466, -0.06927646848622038, 0.03195065245237123, 0.00153069866298834, 0.06002494937806716, 0.06807020433088659, -0.018659004338776375, -0.05100734535167881, 0.03860197551388857, -0.024871631795672648, 0.03708394350768631, -0.07932497690094478, 0.0015467372080791614, -0.0007264058435586307, 0.05591475777020408, -0.0368845214576686, 0.04597933807112913, 0.035446816943378215, -0.035381868103004054, -0.11205912473303684, -0.1366535300446708, -0.030631936059547504, -0.10828932406770163, -0.020115674508641424, -0.03343431001383757, 0.02748518221374937, 0.04851702309759497, 0.028698431062671212, -0.04874467851760731, -0.005542417803725576], [-0.020273928285965272, 0.022586356992694505, 0.014632170398053701, 0.00446946350733103, 0.004844424056749571, -0.0642679568527167, -0.01977030637207067, -0.033601261449533903, 0.020131507064494545, -0.00046799329427697035, -0.04273089141782385, 0.041837758036751715, -0.0588804466278444, -0.11096856170103218, -0.0038444918638649854, 0.07897136029846902, 0.06314413194529951, 0.015436903741409746, 0.03906174750420774, -0.022257098375187287, 0.08633363791266387, -0.009803158771263977, 0.07609995146694945, -0.05976506307524318, 0.03260127395965252, -0.024737097464401166, 0.07304135151862802, -0.021462227342121578, 0.012444814565303445, 0.061014475872852594, -0.0917831889583922, -0.04410873141677157, 0.015479861634422089, 0.0017650615611610532, -0.0009864633277887288, -0.05954124197066369, -0.016603986958801942, 0.02495146820090094, 0.03596286612493298, 0.031452406539424396], [0.03323382430200791, 0.10308014466686971, 0.008558565653191644, 0.12209509530422646, -0.012674077718046167, 0.026603178032916237, 0.0263564039886148, 0.08818966549364238, -0.024178619519996853, 0.039748112586329154, -0.024786191804943167, -0.05253891980012378, 0.0464236205264036, -0.029237543259002765, 0.018535953365168202, -0.03576206285806164, 0.05791135868441242, -0.09083108504323135, -0.050830508326400355, 0.04084307085375065, -0.06902112388747336, 0.028020045691751, -0.030160201756709727, 0.016317602954855705, 0.07415205703218276, 0.026732384318522033, -0.0037166751687990377, -0.028658183668798548, -0.022255834223848758, 0.016532651552576848, -0.03156750285701046, -0.058512091017643195, 0.032453130369350165, -0.058758994912198194, -0.017243239981762845, 0.07564847912491096, -0.06813864638615588, 0.04583317226970417, -0.03577635134203522, 0.04879077052909615], [0.06956328563781919, 0.01864292216709663, 0.013498844439708817, 0.009860476734391386, 0.032732643579321194, -0.0018641163171914544, -0.014604733611253855, 0.08895984358095016, -0.07955286843197606, 0.03931873840951772, 0.001440939114336513, -0.08181438169920832, -0.0015801304259365448, -0.045811481152940065, -0.045826131918411686, -0.04645892663116825, 0.06642533646005228, -0.014709064097509194, -0.006813478337447245, -0.031072667760105484, 0.0009375239799771634, 0.07568399570076395, -0.05853771481346543, 0.022101332686420054, -0.02263442427898283, 0.06131463111221452, 0.008322709355724548, -0.027140083649998287, 0.048455393778873354, -0.016616306059228696, -0.06762510837432187, -0.015455016308251098, -0.00220632487770799, -0.028375227094441617, 0.01199998242119027, 0.0632459445495035, 0.017735418653191722, 0.010612950718085584, -0.0040424133217127406, 0.0015465054059262736], [0.07333501941010014, 0.04340942650383685, -0.05849136141513165, 0.05845788770747838, -0.05640540005100415, -0.02511715920776392, -0.022223624053789432, 0.013172992125197963, 0.03032277563930037, 0.055560482544104346, 0.025886948743668266, -0.07932800081677514, 0.09665431442433478, -0.10974420398914927, -0.016595803355715078, -0.03774312385143727, -0.03937002996701053, -0.002364083063999781, 0.0944220957101656, 0.024504064437292934, 0.05001027721749773, 0.005366766715032205, -0.13710751678586816, -0.00018251834607065258, 0.015622788096741638, 0.07593111919201756, 0.01174755587472735, -0.12773458648640099, -0.010246487407832752, 0.009061183472375963, -0.016651632918821952, -0.02999847904904879, -0.003766061510475475, 0.008015842451082824, -0.01734683739413725, -0.03598475688196734, -0.12764716129367928, -0.03171448801010907, -0.07221360760043284, 0.04296317719403541], [-0.008030676552289449, -0.06290193662795499, -0.06998497426366694, 0.0023897494149061472, -0.028536165402077297, -0.018450893400636766, 0.07028028640412846, -0.09190212445341785, -0.0649671072096476, 0.05239155618109063, 0.06271560688277443, 0.05909379944707015, -0.0449051588464283, -0.06461075629387147, -0.00547123354208486, 0.08092240611261799, -0.030895045814334485, -0.04664239411026516, -0.03324561623350612, -0.09909416213822478, 0.0015796265496233603, 0.023384473472412008, -0.021344132380645222, 0.07991517683472417, 0.013495063808966373, 0.017390639799009407, -0.01179721602862073, -0.03874599130889754, 0.016633866229706338, 0.11109731025723191, -0.02992761534802159, -0.0014251006501831394, 0.0678596930659206, 0.04346999724567547, -0.07448251143052541, -0.0318896407151337, -0.037737219417959426, -0.010671633952223473, 0.010176413067858861, 0.03122250061249695], [-0.05334196089131259, 0.003577455884986318, 0.09553070411436432, 0.04877605800512448, -0.08130587067443268, -0.06153163285914983, -0.003974600664088256, -0.02088131067717592, 0.06758386933351876, 0.027438834632670696, 0.04017705673590491, 0.016466730981814906, -0.005784633304679352, -0.006793239677629452, 0.05376964609452861, 0.07297020595230105, -0.03638361451761662, -0.007107286716454795, -0.007706886826527674, 0.11378886426798226, -0.028035830211494594, -0.0384595267287115, 0.017755966078673975, -0.01377473578669068, -0.0813451846493386, -0.06542312876650082, -0.03614634287509149, 0.039331392512230536, 0.029681696097066973, 0.01527371181223909, 0.03280870401562112, -0.027683969060182383, 0.014679280470318815, 0.021377609684330532, -0.05291954391017179, -0.004703145176298612, -0.048596500582885546, 0.008153596916276231, -0.06761135624554267, 0.03701566551584696], [0.03722031632896115, 0.0020910572983259923, -0.08693538563976326, 0.06547623026173817, -0.03554785318663115, -0.07380043980548429, 0.0043488144624942975, -0.0009142737367411059, -0.011920693520778928, -0.06973695713388646, 0.00941854295437326, 0.01667356380038023, -0.0008349123826843361, -0.06682938811413902, -0.050974782199157215, 0.018968057835352273, -0.005710081197437433, -0.003140692832992036, -0.030361892868190535, -0.015798697455952686, 0.010039614472822759, 0.06642536681017268, -0.016272872155531512, -0.06074974537355093, 0.020349766844295902, 0.00690323631291276, 0.06861680900619416, -0.05022690013902954, 0.0704991236536349, -0.004249680945714938, -0.13866655381937637, -0.06677486348531429, -0.07586742560846949, -0.025074828890950102, 0.0898665728911695, -0.09163278569077371, -0.027137662588705983, -0.040726151523724836, 0.018326037357746596, 0.06464628930129013], [0.058425568668993566, 0.04846519680319294, 0.013148645832291238, 0.00017229643441516598, -0.014068368146844838, 0.014326159020357263, -0.01465444691745847, -0.009529362939821366, -0.11207084704802202, -0.08272452242836954, -0.008160034324978294, 0.003176815870800719, 0.09385065925157977, -0.06367830150460518, -0.040570008458509194, 0.04707092948085728, -0.03577791606228208, -0.04072212493144666, 0.02079251696034343, -0.050877344237714825, -0.016723860323274754, -0.006143339004856604, -0.057152030682562874, 0.01647192990639026, 0.05126401834037553, -0.11037130781316919, 0.07644753817461412, -0.021205012278957512, 0.020751713456227634, -0.08204091359203329, -0.045767921429032445, 0.028078284206138993, 0.020673079429277392, 0.025208742575737884, -0.08617514397993262, 0.04522575198287602, -0.014097595233603244, 0.019719208220123727, -0.024800670520149618, 0.0077402108285519345], [0.016441618097229396, -0.08820117515073714, 0.021376941359516722, 0.012882752314902253, -0.1349232491021494, 0.033022978648761005, -0.024996854531757193, 0.05049579367812882, 0.004477387861839103, 0.0097743009447541, 0.12903600832604328, 0.034535206005084446, -0.004054740042199136, 0.01682426526045279, 0.046302458591436516, -0.06362819698487315, -0.04538908906973396, 0.012484808239148755, 0.01880923275557761, -0.01153288630973078, 0.03785991070733408, -0.014718560959447981, -0.026555351916969644, -0.02658680222269818, -0.06249034082871518, -0.016563864386468924, 0.012814608453753703, 0.06634246866696726, -0.07267703400798214, 0.006217750501407042, -0.05524481205396057, -0.033793914647308125, -0.06699191247251741, -0.03081477160055445, 0.015731582502868907, -0.04020711632947673, 0.0642561506614787, -0.051109315549779454, -0.048107701047157954, 0.05215387824906303], [-0.017292663867929645, 0.029413006050352516, -0.04546486267919146, -0.04140926681653695, 0.030823160628272495, -0.04458628614163945, 0.05892459083185694, -0.02535651096933699, 0.005261103637988277, 0.10567006691874056, -0.0886574788362057, 0.05291184354218639, 0.04706034795556825, -0.005991383627078708, 0.05116671315273277, -0.06468557666721225, -0.0417286871108272, 0.03884136138254604, -0.010881640854434424, -0.06968095821024432, -0.08649770913269028, 0.03252701848563846, 0.06340368209679761, -0.07725639343686147, -0.046938817904604684, -0.05208163041357535, -0.04580988210602622, 0.013377357336061288, -0.02135343515675139, -0.004747083553398815, -0.006669073330548877, -0.06551049959422736, 0.0974270382530601, 0.14431718205715838, 0.07448327327450241, -0.04517404385932359, 0.03528001011940721, -0.01417639987256287, -0.054730963280228376, 0.052265038465619924], [-0.019836616721256327, 0.0016783959782675508, -0.010345139983515486, -0.022270893032764395, -0.06009553284483527, -0.015325937640787555, -0.07579271578973035, 0.02142559897346632, -0.07286649106387554, -0.04939950521829888, -0.025318393999816197, -0.044520784509986186, 0.03900674526987151, 0.008012092861590344, 0.006559745790124137, 0.030168187969028596, 0.06744084604755202, 0.006888081119304885, -0.0013533713317288286, -0.07014336303073383, 0.005807171160278995, 0.013534926767111306, 0.008149105141363099, 0.05381036633799875, 0.029829942914258695, -0.12613077122734231, 0.051154840168560874, -0.10067533560953446, -0.034736333733963516, 0.014797541422931106, 0.08673461723341849, 0.058607872769141464, 0.016317495717047818, -0.028383657725507928, 0.047703259879408294, -0.07127924594640031, 0.0598965154424713, 0.002864443723738615, 0.06138314205686492, -0.01307276039572207], [0.03787510609839804, -0.003981905203378894, -0.054561959649234354, -0.006866796231720397, -0.004738431213851466, 0.025963229958186142, -0.04034423009249314, 0.026922763032332854, 0.037261273869824, 0.0561296898351488, -0.015020101882866826, -0.002524255016062663, -0.03130668225196347, -0.01087442275150826, -0.042032522375382894, 0.017029038403003353, 0.03827882841974651, -0.045309328230907685, 0.10956865276688657, 0.010575994261702555, 0.0249283791546821, 0.02029373541720426, -0.007734218140234738, 0.058134469282239545, -0.048345170023697835, -0.03797879196000926, -0.03668300268391015, 0.02475762011082569, -0.07226170390795811, -0.03835761512774323, -0.04139681247993629, 0.002547985821438248, -0.005104586692481373, 0.04098413908630422, -0.02564452426237817, 0.02619347420365968, -0.016471609992153146, -0.03656115756496918, 0.07817773424996538, 0.036237735991658686], [0.019144600199407946, 0.07377452847717143, 0.05633012889886121, 0.05155209537754261, -0.0015620496779486614, 0.004341569519838216, 0.09101169387406419, 0.014300252799241442, -0.046090448527208214, -0.017161882135433074, 0.07034465017209332, 0.016090055878267014, 0.020224663692910167, 0.06255326006054146, 0.08183018199024066, -0.09002976456630854, 0.06489675328801119, -0.020603660561636747, 0.023520329191869936, -0.03905930582835656, 0.06383584865218876, 0.046970311545222784, 0.11566011177722928, 0.06923899134913415, 0.03276960518738531, 0.024853570154088386, -0.052769958690782354, -0.0859697928581983, 0.046860793797422334, 0.04262098870714207, 0.02298543011748171, 0.021882209747457974, -0.055904028273108745, 0.017440913388001654, -0.07705316194990665, 0.03879084165200944, 0.07221624001079552, 0.12141693378543732, -0.06121298303127108, 0.02547312765335065], [-0.018422025365590018, -0.0661891300497408, 0.03884979516501748, 0.028330949415235358, -0.06807173096758559, -0.0680519990751926, -0.060401198768384394, 0.005140537564919231, -0.004676267330636458, 0.007956493872963748, -0.06150204699913615, -0.026137913318166766, 0.048927938365142185, 0.048029833923975244, -0.0380965682588773, -0.11084034414343018, 0.004288033944121677, -0.0007671865736802044, 0.09315845686467716, 0.00952289104472485, -0.01516471855216051, 0.0477592901462623, -0.0327841130304716, 0.014537507603482956, -0.05001969940718665, -0.023781430988918634, 0.03327077489329576, -0.012475955704461987, 0.04699933502849614, 0.012890439243590802, 0.03207216179764898, -0.016822435990257782, -0.11797186284458973, -0.007191209463455552, 0.01142964771755687, 0.014937022153831771, -0.047908703421024816, 0.0254895149990836, -0.0019206033144889812, -0.04907864573442349], [-0.041581381272887345, -0.02355157113438397, 0.025330216213186416, 0.023293472776274828, 0.03250710126621987, -0.055037758314895796, 0.04361397748579325, 0.043282115250505765, 0.061133657041761776, 0.017361499683074644, 0.03695361983822767, -0.054989983817684454, 0.036036180051292166, -2.8940255717523376e-05, -0.048397262876174546, -0.00632505448491356, -0.04087103424314241, 0.046287240187290905, -0.04949401755916131, -0.05312700365357332, 0.009785122801939281, 0.05764510112337845, 0.012694869927350444, 0.10184483151053142, 0.002182348231281472, 0.07606078178715925, 0.005370323804345335, -0.02594755690472297, -0.009400817982412022, 0.007546472766554214, -0.06957295131817327, 0.06665258884361687, -0.05458877421089008, -0.04098755277293928, -0.012649531554084444, -0.0003335003010739725, 0.0649340209911674, -0.0648568866310534, 0.1242407669382606, -0.02667176780622408], [0.014861911099818605, 0.017236478226132983, -0.008631613311078371, -0.03807030935054899, 0.08086166442045542, 0.10553265475984173, 0.03163883902384805, 0.020893132986514053, 0.008275804415022132, 0.008804206049442093, -0.0584691760276481, 0.0937422224459995, 0.0007418279748253644, 0.010393824148751458, 0.0261514647165978, 0.01994395304884461, 0.08293718121983792, 0.00012160437856557183, -0.011004960005966747, -0.04111359521221892, -0.05178841672542341, 0.0025558065107728197, -0.1121876549068681, 0.008309696335853775, 0.08626483531109143, -0.09513825468092008, -0.001321416936123827, 0.045796615149587314, -0.11488870786585027, -0.037652491943950706, 0.02884508974769808, 0.028876367615310376, 0.029098974820533002, -0.032783328066760535, -0.030152821703574764, 0.03948142400896809, 0.05426767494158642, -0.016382907953652596, -0.05767908501042857, -0.014656703266830266], [-0.015611333516518897, 0.037335610025214, 0.11471936770369354, -0.007874249174767726, 0.008280762181972375, 0.05705329500120624, -0.03423022296192828, -0.00872701270721626, 0.04818726453858621, 0.02071368883570854, -0.060292364106915124, 0.043708028466110424, 0.08143980589485013, 0.09257159664110988, -0.0814546053140708, 0.060738296032545554, 0.07229763517794105, -0.06123238321149629, -0.030799372319035043, -0.0115655024709924, -0.0289965906271968, -0.11427590072592411, -0.025213244586055318, -0.0045363294220946565, 0.0005300439875777531, -0.0018805255865617851, 0.007288529507801055, -0.014964094189590233, -0.012745409268303398, 0.009975661539231883, 0.07255727620216443, 0.030207083270709697, -0.09959555586894878, 0.012006156763316168, 0.004843200615345362, -0.009427798291489153, 0.06879813015676442, 0.06693173641163738, -0.09997788633545496, -0.04145186026523243], [0.015882340663553596, -0.007568232551133089, 0.06463622758589017, 0.007578291079905254, 0.024317043360777627, -0.027494535057975902, -0.011426656895107738, 0.07264291262131031, 0.08539997316718895, -0.071914687310327, -0.07520252360850509, -0.061700072900239475, -0.003898561987431295, -0.10248779209501532, -0.006035392205434859, 0.08295852944351415, 0.030226633387195466, -0.037283588875835716, 0.022186080077400177, -0.004851280905787621, 0.027835662355386346, 0.039378871643222735, -0.047823465082641035, 0.062217493693151396, -0.11529772747480013, -0.020275067015717334, 0.02550587858157432, -0.03290070838402244, -0.025082942625721003, 0.00664061874747305, -0.045873889682920145, 0.05026148344744229, 0.035852879425837446, -0.035793977254644074, -0.012116026782470384, -0.011033051344625478, -0.004375284033961245, -0.0433843527823766, -0.019865174189502326, 0.010463798910147107], [0.03671265948570533, 0.0637220195953109, 0.0051803130390863945, 0.008583899600864807, -0.02920614427435287, -0.06562548888300154, -0.021745654382541776, -0.02686840825553772, -0.013370902845188071, 0.011830595908794272, 0.03720983052273921, 0.023742061958613673, -0.0027398598526403796, 0.0463112226512259, 0.05112353830305397, -0.03353194469212174, 0.09611032774949457, 0.0526215809338586, 0.08461425987584249, -0.06285833202077934, 0.005592006725918835, -0.024764139972301303, -0.02186058453963089, 0.10861983165423866, -0.005110283323961959, 0.0046524394912480825, 0.0644133533913512, -0.0133683269304389, -0.00018535452338746348, -0.04509639587768182, 0.08591666050212352, -0.007692109633471761, 0.0022301167057818608, -0.03329567662833365, -0.029236660829260103, -0.009086953876324815, -0.03687310687344537, -0.11599518010364274, 0.043409505923007095, 0.03213054625759682], [0.0109371380806, -0.012106857481820976, -0.08060252643406286, -0.07890459460473787, 0.051011967013748924, -0.02223611429356325, -0.00775289705181578, 0.04055394557637924, -0.0026799789655361683, -0.05730984794304618, -0.08860738544463026, -0.007881680332533695, 0.06259714439554914, -0.00016279373031686094, -0.08455849881749995, 0.045922726185250645, -0.0038384211654749747, 0.033947531889844076, -0.01899522035558241, 0.0053084876731059015, 0.00012312545031607823, -0.04487926400141503, -0.03886505886787477, 0.05702955116142087, -0.0035919443951861257, -0.011402128930900056, -0.03771659362797372, -0.03099385120275347, 0.0714225800072218, 0.0014068145121705275, 0.09950686270707375, 0.01194744504254621, -0.08105007500300064, 0.0457071691529615, -0.03773017556040471, -0.11685704750183933, -0.01215289132530524, -0.007337905634873186, 0.009459625096038876, -0.000302994891660066], [0.004248167504019842, 0.09017255719778601, -0.006690941984309942, 0.04385883710539716, -0.08002151249616517, 0.09774252875424894, -0.01117927258731043, -0.011940747473083308, -0.013649279991204981, 0.04070665671228759, -0.024439173216705665, 0.013304781109316533, -0.0038119681139693108, -0.00964380600334234, 0.042648773073088155, 0.026409947727557396, 0.04416794708275882, -0.02970585359523085, -0.1511119040992208, 0.0382180215935791, 0.04139671327098019, 0.056001398771560004, -0.07171784832090092, -0.040449561740286605, 0.06626067201313274, 0.045919747176412916, -0.003983391695947741, -0.09366843652114563, -0.02045539522895465, 0.07714143880103504, -0.0039842049480184995, -0.004965226646234843, 0.04474352682216885, 0.0437405095965137, -0.08189571082110607, 0.012816235673452522, -0.027349527123250228, -0.041472423602418415, 0.04007246425021612, -0.021641225462456833], [-0.01787326737480128, 0.039369338983445495, -0.004851764196805356, -0.04644759855735039, -0.04911699651516906, 0.04216087353642929, 0.003998020714901349, -0.10276010892754397, 0.009089027642295865, 0.03714162415087803, 0.01805858402640433, 0.03743451094808304, 0.024960900425425755, -0.01590685948707021, 0.06936255152456083, 0.022531896226536143, 0.002180794814755447, -0.04438660159093849, -0.08618022972784174, -0.013454251300998183, 0.001467407571612723, -0.05473745896899297, 0.01803151999157975, 0.014217348764946224, 0.04433696751194941, -0.09544583634585511, 0.004873947099947388, -0.02625716039878172, 0.07833559798869082, 0.04383761507772569, -0.012072290533136142, -0.05918445522759072, 0.005595913481662429, -0.07359846653135892, 0.05123540425346645, -0.04962741971880577, 0.049870034270031845, 0.025774285780918803, -0.030685000934889347, -0.047820873684832295], [-0.045079547330600524, 0.03507125121942303, -0.07255327821279237, -0.033247645474873265, 0.00452806926436126, -0.0685836900023943, -0.01948546111689965, -0.05120914617753912, 0.024948166470493128, 0.03743033501991326, 0.03603886777576884, -0.01672917932812882, 0.05072985722910608, 0.03142326412020004, -0.0036589215024117458, 0.06402733850679378, -0.0349445001168564, 0.0195799558839024, -0.03313445376657864, 0.07109642026331008, 0.08635956189891376, 0.021215056221758233, 0.061277441173146624, 0.03105478107900591, 0.0005934675426659953, 0.1451133120134211, -0.0013971228443180256, -0.12651264959601422, 0.028553327179086013, 0.028959641869125197, -0.032122365552470576, -0.05512811803263723, -0.0632201224543722, -0.021288762029654105, 0.11892410891985594, -0.015006149585156064, 0.08489125126548482, 0.043537298836943024, 0.08410484700614065, 0.04372070822648508], [0.04068499539237235, 0.020419220713030213, 0.010694928718287621, -0.030046507768490882, 0.018034662949485157, 0.007884813002305993, -0.061000732711010516, 0.04736365451705719, -0.009731903884348385, 0.03469294025801799, -0.00299092934067762, -0.019452944860426705, -0.00012472737696185248, 0.01563876130012204, -0.040853670018927334, -0.07671319390886552, -0.014514914849558368, -0.01221365934498239, -0.005179842715540159, 0.01911078370904139, 0.03535080460548102, -0.0654492554627242, 0.016971468272970677, -0.041900129948726654, 0.03496882427308278, 0.0541583736063479, 0.0011009819254463407, -0.06271842116934435, -0.04988233478944458, -0.005526783232544976, -0.005165851984995499, -0.05201980999706409, -0.0030343737486159665, 0.04219299153811168, 0.044277978763894596, 0.08653832868269785, 0.0757191447717046, 0.00785262870787065, -0.03663664499107525, 0.01390703597002602], [0.051911158613917985, -0.09819057736894213, 0.04396554107373912, 0.046453885220621285, -0.013395016441133398, 0.031201102693203548, -0.1054717359917342, -0.05192184522262945, 0.004279529310085636, 0.08177545391164878, 0.0018083387226606404, 0.06461636178447676, 0.07987267841138156, -0.07823243244112818, 0.010575067578120162, 0.0731045007415794, -0.019116106171436754, -0.015659636124608602, 0.13002205233069428, -0.011507728973576768, 0.03178100150848777, -0.014061360918412338, -0.053305560200114135, 0.04195084326091893, 0.023439466496070024, -0.0499943343823844, 0.0172271192437655, -0.028649496264041622, 0.02950618615784127, -0.005926476597166588, 0.02191228382890394, 0.009201456781786913, 0.05104383014817187, -0.011572525684874626, -0.03657682818552449, -0.028399718074446915, 0.03174586427965924, 0.032749645598772345, 0.04605312429447103, 0.02778509777909938], [0.018052654079245976, -0.015701903309442607, -0.07470693783535397, -0.030775094882476414, 0.013550978409673778, -0.013557030634990926, 0.06995107694878726, -0.001020757878635248, -0.04291602130341286, -0.007900554520984237, 0.06730573940304352, -0.01794773886419337, 0.019254268025593525, 0.04986014623006205, 0.058104397369613425, 0.05437242676298137, -0.03620178961598566, 0.03986816359417219, -0.03181836242718743, 0.02328164597849945, 0.021371384331650773, -0.10547963042998028, -0.07753696885237352, -0.04074767396265081, -0.013672990334075567, 0.022053664642031446, -0.08879133481875713, 0.0709254071092285, -0.040284728914376185, -0.07043357618600095, -0.0697007232393985, 0.040878094534281706, -0.07852924595545267, -0.06233680834142397, 0.0026367855150398606, 0.006492248921434484, -0.014491743691091897, -0.02933094129056821, 0.02061180988788373, 0.02087657321375312], [0.02422177103526374, 0.005938633645992223, -0.049453490218839005, -0.009746708353025428, -0.03611334048409719, 0.04362021707607851, 0.013289782835177903, -0.0770984283942907, 0.032315663024602086, -0.013247906713713571, -0.006366116683151814, 0.0018912567506102602, 0.030411154290098545, -0.03410758248315331, -0.058662572270454676, 0.06107622165189133, -0.043901086580990865, 0.008799862877481267, -0.01709453879256064, -0.016538615858652895, 0.03644651590950016, -0.02017869581199254, 0.0795305962015412, 0.005358017588414725, 0.016150358902284792, 0.008294579084822024, 0.05267010308686091, -0.04766433701533843, 0.0002530367397249746, 0.03149503460968355, 0.03471717450999618, 0.057826720799091146, 0.025568647922105947, 0.02840875162194712, -0.016051325560605404, -0.03593783891720147, -0.009396161883700618, -0.03776186948773342, -0.08335486832935424, 0.03396575890736659], [0.029940744739018164, -0.06541332162449466, 0.06128100612990745, 0.007367119456089976, 0.02249111321861575, -0.049216633783705076, -0.060725693860774366, -0.050534219399899084, 0.020043536462600455, -0.026710249606566504, 0.024636778411667566, 0.03285158013567766, 0.0005339517600765125, -0.07052316282111944, -0.07058939749206997, -0.010178338587025824, -0.001877483150774405, -0.10318711370601924, 0.05095604390628005, -0.01939049801128624, -0.016405631973495698, 0.054725932515042625, 0.09236355351658242, -0.0032866067892001714, -0.04262616016319641, 0.023934656708279756, 0.024215211700538586, 0.046903694359562736, 0.06366864160705746, -0.0509067909038646, 0.007117528532977056, 0.0022412474127751904, -0.02258522249319006, 0.15164235825605052, -0.00922294936058596, -0.06364319559719116, -0.03822967137899085, -0.015301937798830186, -0.016574313156295758, -0.03707727466847133], [-0.0020626347660656443, -0.04439289905508773, -0.028587616067817852, 0.026200792729898257, -0.020642453469725038, 0.0014718798100255646, -0.011673186234218274, 0.03980947657662926, 0.018635993722561854, 0.041399338607088484, 0.018929573594301263, 0.06066414759408582, 0.01752006299925982, -0.044600426632103785, -0.042261690615032904, 0.003918501249374712, -0.06541981024273565, 0.10607643089204156, -0.03964000042009059, -0.02519727996199223, 0.06962895299317728, 0.06858097093125352, -0.08836712915136954, 0.06795928648663047, 0.009964952093118542, 0.10371981730415379, -0.05863159977168751, 0.011165580975095976, 0.03837589954494837, -0.00797828634548495, -0.12379989190149061, 0.0016402143219381245, -0.0772144128614254, -0.008001965060145524, -0.10532750808404152, -0.006644298643180739, 0.0010452758073541293, 0.1248805303187954, 0.040891709052625416, 0.009387544505056142], [0.03639684956391397, 0.005126240873801271, -0.00826819195064775, -0.02574540946735554, 0.06607181739152108, -0.011444557955946441, 0.030298105097039847, -0.02948293868706056, -0.08814069932631885, 0.028839039257262524, 0.10757763867561734, -0.09599383843721923, -0.012013783134115384, 0.015220252682818567, -0.02014590122265883, 0.07321079828390722, -0.07613494874603004, 0.05184658472148412, 0.02196598886294522, 0.019859597850028474, 0.060120212401573836, -0.07170524270454054, 0.05785398703975497, 0.04132313473181725, 0.014254271014262151, -0.0664410410777008, 0.041537932343498195, 0.023128934129643387, 0.0635132847952162, -0.07643146417417626, -0.07772679649577834, 0.0366849818986259, 0.07975659976186052, 0.04183844022341726, 0.02729126799398387, -0.062493059778791056, -0.06352061881923791, 0.006250066533108892, 0.00018920945006344782, -0.0007847532345829317], [0.036921044952532685, -0.06067651879550445, -0.03616241783759835, 0.011170817466700216, -0.04206417926421395, -0.03581564932341056, -0.06074624847721161, -0.005161113360863121, -0.01858449228235543, -0.10320979556469403, -0.08219383386307595, -0.025841400008431326, 0.057307362135758017, -0.04592003257504765, 0.0007460113018063424, 0.020662275505958352, -0.0286073697632839, -0.07895369640287392, -0.07346170279551206, 0.012039185369054205, -0.09421685664546786, 0.020524387019236725, -0.025740454822860265, -0.03479029423074154, 0.09555021357694701, -0.007132278122756439, -0.043122339171827756, -0.005152680905955799, 0.022158159956993974, -0.014232499287396035, -0.015546246270586232, 0.07305217715610657, 0.014511043190899384, -0.05935837148908767, -0.09071384698380573, 0.017122972199437148, 0.037615155650855624, 0.03654583428596941, 0.020139747230066802, 0.04942499828471694], [-0.04061439551630306, 0.004933298096559797, -0.019008344952447343, 0.053471678343842304, 0.022389550050378938, -0.004655885941866772, -0.03961092820014417, 0.01871851389088013, -0.0017834771361494304, 0.005364235129789283, 0.037955566776372365, 0.04800827545276732, -0.02581791446173173, 0.044928603484324106, 0.027078323087089004, -0.01630184543542733, -0.04600199393279188, -0.011602194619343947, -0.02853576810418939, 0.045384242719026066, -0.042494643425911784, -0.0415165057072787, -0.06193581487600087, -0.014767782446293452, 0.07526876591806832, -0.03516847569624042, 0.01216447604837946, 0.008056851114366603, -0.04465460736344833, -0.030747827962992004, 0.027268908373260667, 0.019026112823262695, 0.10652680865381199, -0.011918774392088816, 0.04582384405226583, 0.09675501975539802, 0.04325709481727078, -0.003280536335495893, -0.015790954213378273, 0.002642604751654657], [-0.03864632529562086, -0.04895823183750622, 0.05754604266090644, 0.07594462788660855, 0.020231549844048558, 0.020870248843606096, 0.026705270503583855, 0.008047903923598547, -0.04938698231672579, 0.013066979476375602, -0.0497207641354532, -0.011156987449319046, 0.04095452378784351, 0.004238095354101071, -0.04861988010948924, 0.012208081660225785, -0.03420066930509987, 0.09875302760094101, -0.03401287223572214, -0.05576924788012447, 0.14153122925234732, 0.04387819331131976, 0.0036189056323363516, 0.03886963052916387, 0.05012429351676857, -0.015138344319708912, 0.08239925875751626, 0.024765642915543177, 0.016173786555493553, -0.02745934616060241, -0.00484006393009077, -0.022475469873090282, -0.05742458914076237, -0.004906298090647542, -0.01788157330291299, -0.009218395516709162, 0.047349978821069665, 0.04140451606341731, -0.0784801970515254, 0.04164841943192426], [0.0463752820563214, 0.007044200491516946, 0.05857122862339287, 0.010979297365559517, -0.0007452164782102214, -0.0030294694561937884, 0.06052810101135228, -0.023690875015795167, -0.05092223869521377, 0.08509883932934985, -0.0021493949563173966, 0.11729387021107525, -0.05301764220840286, -0.10167537512210517, 0.0039522608201540904, 0.10251335240888142, 0.09061483351169354, -0.012412496493703217, 0.06895882628253476, -0.006882725281453654, -0.046139149770385406, -0.07032274331662813, 0.013366761143878934, 0.025536752794041613, 0.03755909688425584, 0.02322980851914258, 0.05570797607149912, -0.04378861755939968, -0.07753328399587364, -0.02966328230956017, 0.009769817504333722, -0.03285958488606677, -0.03895323450326033, 0.0034310220520247544, -0.04460396476675995, -0.04107590876470541, -0.037436421922367194, -0.0074037181489253695, 0.010308496562420808, -0.013371900178579471], [0.020865858027067974, 0.01482561983742524, -0.039498892049896615, 0.007374840915190623, 0.10054442588992975, -0.014762081627994087, -0.07021352307728221, -0.028752058498719694, 0.05293365079321201, -0.0336614329759256, -0.0527511537720771, -0.0373087667519163, 0.013419021364024942, -0.006766632223998901, 0.01690595731692415, 0.00856264013887381, -0.10808363259875879, 0.08418944750332812, -0.02280131464029081, 0.09904518910578722, 0.042738896284359604, -0.030011451202043137, -0.04173864621523321, -0.010938521386010454, -0.052213252946216385, -0.059653301483209915, 0.049324811516718095, -0.004406508932639336, 0.054142489897813506, -0.021457950373914247, 0.06252693926644977, -0.03593979993726959, -0.006301600998114658, 0.037698002021500185, -0.025657684412731682, 0.05235592883445445, 0.00595489378085264, 0.033543084231459214, 0.06537621476810641, -0.018301018447499286], [0.028049372846803172, 0.014393045433229583, 0.003781725091239578, -0.03578787749164384, 0.019896869831757702, 0.05953028427479936, 0.019088215376801405, -0.017039139013403693, -0.04741273568283375, -0.03211181474684141, 0.05130089061616516, -0.02414934399894019, 0.03622228834533372, 0.039741831795224655, -0.010760772258505516, 0.057637266530103655, 0.004931221328367289, 0.04040366419137736, 0.013885504683775585, -0.10606183456036272, -0.05549083535422958, 0.01724123948608115, -0.034279740011237105, -0.046965219477537776, -0.003556334890004558, 0.06568908495122383, -0.0057755426809659146, -0.05101102016212645, -0.01767952714707426, -0.00880831825590063, -0.008491131786638302, 0.052548648374995025, -0.04837757618139179, 0.05699594740182654, 0.006055298222720549, -0.024984045132027306, -0.047454517773083384, 0.06008285316050113, 0.010919290205925743, 0.025904330156812306], [-0.04055835746021866, 0.0030786440411785013, -0.038979846546431926, 0.0011755856188379143, 0.06000593098603317, -0.04176536324314661, 0.16256776522830407, 0.02792221596304894, -0.036882011531210665, 0.009896970196049262, 0.024978931022098503, -0.017042741652982658, -0.032883822512340614, -0.0210306642821577, 0.060467277216021666, 0.025643091010325896, 0.003716177962660322, -0.029526035910120676, 0.0431967393336741, 0.06632242263802116, 0.02929644696873921, -0.043527268576053435, 0.007912982164703118, 0.04358999847293293, 0.025069296971130865, 0.015382775730005682, -0.0027700943073641084, -0.0357167548666394, 0.021208135272509858, 0.030197037122320983, -0.07681784049960576, 0.05396851937475708, 0.010626477992788572, 0.10190945335190722, 0.0286793999330236, -0.0001006488024876465, 0.017706673434698807, -0.09722109005021476, -0.03458293736718463, 0.01895251044361694], [-0.02061228334740797, 0.07118957173433779, -0.08224987910001644, -0.06523928792250598, 0.012319056624119699, -0.036568841900675754, 0.008375562118795477, -0.05913942732015905, -0.03281835053006645, 0.03881465359092623, -0.023374604288677863, -0.027014785807980425, -0.07744625823116975, 0.004033597416937909, 0.026565082514777, -0.031785189363541064, 0.002266735477867939, -0.0373983897547192, -0.08894834156617845, 0.0461846575955167, -0.026521612885718873, 0.023013413967584405, 0.04068622158479554, -0.032938199910886035, 0.031259045107450145, -0.05313342386758129, -0.011930813333934259, 0.012247874980670589, 0.033352067314668, 0.011957808947857676, 0.10502484240378178, -0.04813944414440415, 0.02379189339726088, 0.05544330795428546, 0.017053067295925373, -0.022473391308380858, -0.0945537177797284, -0.08841866892443488, -0.024934465531584852, 0.0325450597782395], [0.028285641754146485, 0.006922674180517182, 0.01988311817605493, 0.07349077233022719, 0.054565688471973246, -0.02768843740402024, -0.04024473884741607, 0.08239673477209784, 0.003863567840483765, 0.0588689449098176, -0.03909732966045928, -0.01741855048020073, 0.0035296856757347627, 0.030289998129317153, -0.026925377174175702, -0.09303553789883866, 0.040039894064821335, 0.003051927682642067, 0.05182013876597395, -0.007191032596884455, 0.09704411852516355, 0.02274072446985527, 0.047737060357864555, -0.01805039951825586, 0.055624567586623624, 0.1178710014841697, 0.0502796407220067, -0.015455475029276466, -0.022805613445109774, 0.011625461902484879, 0.03052470891528424, -0.05423427942629701, -0.01988573505053769, -0.049828274647962904, 0.04926011981658968, 0.006188222540404937, 0.01893988780414985, 0.02974643355141874, -0.043273749017695706, 0.030533076474574348], [-0.04163496362600675, -0.03618997049688925, -0.032046742822271455, -0.05677603557252014, 0.036768239930002146, 0.08080712078153227, -0.06918579994074782, -0.06923777373917854, -0.006969155477553364, 0.07360141869099107, 0.0619743412232159, 0.03342817957232347, 0.015371323291130053, 0.004118788841584423, -0.023767087632229643, 0.05857049111688818, -0.030928694442635567, 0.0086266485994248, 0.03658208051650758, -0.07178855467160136, -0.05501511153929178, -0.02921222375921063, -0.017287416693402727, -0.08756293718947825, -0.041513549684883765, 0.14718830929191246, -0.03279411071675717, 0.13567357685388118, 0.028721296406305333, 0.04749456680274717, -0.009169949056387872, -0.004339514655220542, 0.09382319711207063, -0.0356085463432373, 0.030267160725185514, 0.034766581331476774, 0.05873718718476299, 0.06515635958709622, -0.03965219467202814, -0.03624877040387012], [0.04085694086644925, -0.04521365169526251, 0.0880788013889821, 0.06540179080578812, -0.018704248674526847, 0.09943605136176425, -0.018577960240260892, 0.06092150547282808, -0.041462987414872636, 0.02078903892168537, -0.06383942470550164, 0.028797511122783438, 0.033052895326806574, 0.004548022178109212, -0.03906335364288284, -0.02005332289889182, 0.004414778971546664, -0.04174070968423527, 0.008590559226696702, 0.05049741685436601, -0.03349273745374949, 0.04321430782703727, -0.1265133397352585, -0.05120219441912474, 0.0019551358312610775, -0.043291518060834776, 0.021872379984074607, -0.002216123505233812, 0.05451214890505304, -0.04842010474780335, -0.015311448115538114, 0.08045979782796299, 0.01661144647463604, 0.0489033508587735, 0.006205944309038835, -0.08855190242731847, -0.02629114341340491, 0.030412054114314527, 0.003183116765019949, 0.10938698988000371], [-0.01133907082754945, -0.14800640145922428, 0.0438492874065695, 0.009699024323190851, 0.051799150711321636, 0.028059636504711678, 0.06043814843957817, -0.007350543311458749, -0.06231725676628578, 0.015351425477020923, -0.04370454855797555, -0.042867247730230394, -0.04350288775903071, -0.014906032536514034, 0.04668823715803929, 0.004721989457861751, -0.0311608721508159, 0.005119806588901127, 0.00031970382480704456, -0.0047905431001099745, -0.07107670733065481, 0.0033746486316811237, -0.0008439447958719084, -0.01564460885645846, -0.007853566801469635, 0.039460380455770556, -0.014691727090459737, -0.03435741996027112, -0.07226957275701322, 0.019182723063310165, -0.01919552872385988, -0.035287220183597943, -0.03059741711905867, -0.07172548209458217, 0.002443160721994712, -0.06451168414246714, -0.07587536643467561, 0.02380687305933345, -0.013231513816419375, 0.031167754786653186], [0.028247719954325026, -0.04136417065910789, -0.020240391827369288, -0.09071779139013379, -0.06364434806594156, 0.0378348676955564, -0.00727137740351142, 0.0013634875168923464, -0.03589182804620537, -0.006511362746357521, -0.09812111639035545, 0.06247190229362715, -0.030563845655710655, -0.030039514764132982, -0.0024379960405680784, -0.046116298967011936, 0.033303423122296866, 0.07210116147294099, 0.05778905889197075, -0.03743967851719124, -0.015466249561237358, 0.0452777290439407, 0.004943790284154606, 0.04641621801003564, 0.014201231558405534, -0.010963843834473214, 8.800282939044012e-05, 0.007820676582400335, -0.0042699822153348405, -0.10738379511266796, -0.005080751953867945, 0.0013584041913281585, -0.05520821942657237, 0.06058379195817423, 0.0017630358214401852, 0.014330991224406167, -0.0174924304266104, 0.0153911074131781, -0.03107244338512849, -0.03559431774684013], [-0.1026924025302749, -0.004705934895897755, -0.05247587233841565, -0.011231588026152822, -0.004223508438999755, -0.06840299859945709, 0.03961589974884827, -0.003977150888457859, -0.05864633806494065, 0.030985854950921862, 0.06193399707045379, -0.0380295774920983, -0.08923647390895877, -0.04360104289574341, -0.05428046988452036, -0.05157767657253719, -0.022328133269670283, 0.037810256269366634, 0.04784245971749765, 0.04466666683040172, 0.04991509370187238, -0.006671202055849979, -0.034647118959461494, -0.03709823263792102, -0.009410311557925075, -0.030504231307010694, -0.023410732840121448, -0.0007926623942960886, -0.015590377195336631, 0.04099349554757061, -0.03185881815364665, 0.02429178831985203, 0.012411804120253382, -0.019195215789576343, 0.01599768650184889, 0.05784699118205365, -0.08511612830241466, -0.106193113755354, 0.02444221010652253, -0.0009497348296765467], [0.07632727084068243, -0.08073270258566184, 0.07351241171818852, 0.018324966874751398, -0.019901967941852537, 0.016579594958407506, 0.02434815873582989, 0.041042548435408305, 0.016003180858781392, 0.0622605123139214, -0.14788305765547333, -0.05543371005052338, -0.0444724339151696, -0.02772103940377695, -0.01306049864610253, 0.059702340010739895, -0.06396064637870393, 0.002395297975172612, 0.00765461211724749, 0.051873002276163656, 0.12888854551950407, -0.10221255346294347, -0.004650904757690314, -0.02167134311532228, 0.02935046973461603, -0.024333130372406933, 0.08761930179019574, -0.009140022749597129, 0.021356935432615746, 0.015313162277117844, 0.016209283943141084, 0.06466550634169049, -0.00278806174175694, -0.007529333913312353, 0.027807684402115184, 0.005284395349484529, -0.038977922739486734, -0.059208198111833754, 0.027555960448288116, 0.13157232802407262], [-0.06073589814682942, -0.03282108133060579, 0.08869237354731471, -0.019315524532688998, -0.08299180550629977, 0.012028733861371271, 0.002945875530320112, -0.011014565749955635, -0.014107667892551417, 0.0040858355918459354, 0.12300085965369763, -0.02631761386150071, 0.06837037498650293, 0.10995081139016813, 0.027668486492343075, 0.019319422993080065, 0.052961748079971456, -0.05236120013023449, 0.028170883513034477, -0.03388969054592015, -0.03744860884127602, 0.0749394919420456, 0.03949975786760788, 0.0016196446318574918, 0.006781866228019287, 0.017936911190551394, -0.00365865144316473, 0.02579068986555262, 0.08223541848578945, 0.0018638516405296403, 0.06232226922664408, 0.04556742427771427, -0.06676227721981093, -0.05942807640929967, -0.04463558983653389, 0.02471428968734772, 0.09020663413419006, -0.028094410793247225, -0.023450613908073233, 0.018970272219254333], [0.03692587149668256, 0.012137545315627636, -0.05997068734413491, -0.0024811165128805846, -0.01665736985003609, -0.03842346263455419, -0.002092374715198115, -0.09185119384555229, -0.0024969058641569016, -0.049050302713175765, 0.05254409202182593, -0.05199413124296963, 0.033031592493912514, -0.03693295313246414, 0.04445310422959516, -0.0030079321367805453, -0.05267445540194805, -0.04280616323277304, 0.08177724273795213, 0.028279009382150708, 0.09880852741140918, -0.053499171792628364, -0.005829324347411647, -0.00845627347888486, 0.03476043774478052, -0.02057559867794962, -0.002025341784630702, -0.040592049513635875, 0.06128134246887773, 0.03487269337060921, -0.013746854363296873, 0.02162981194745446, 0.07509237514400621, 0.12446531991899436, 0.00012681773051181216, -0.03097858798230113, 0.04176774205688857, 0.0030250189427941856, -0.03610435255104131, -0.005217943278420299], [-0.03370556778377485, -0.04781678842620599, -0.019289182846109965, 0.00760569445646139, -0.05596586513531185, 0.02449521004914284, -0.03861983027248543, 0.006795486830414229, 0.026020300058867542, -0.03708338725007621, 0.021613876723544242, -0.00017529121289795504, 0.019477860829864708, 0.03177337330303677, 0.004530952419759339, -0.025735244983545146, 0.03488876976490801, 0.09652163749757156, 0.04067708759833759, 0.0670551224012457, -0.02181558303030757, 0.020241288623053907, 0.017227803459138262, 0.016156407535622405, 0.0649623015337796, -0.00949574115315046, 0.040370520927740655, 0.029979548046486653, 0.01965471819212137, 0.040476751411468115, 0.0647973432905353, 0.02465029324799127, -0.03045496321936356, -0.1277651831687811, 0.03376139997368541, 0.038038521137561024, -0.06518374293689537, 0.07721434053457434, -0.01713487521785262, -0.08964012005772508], [-0.03834624164784726, -0.03277423227726892, 0.03536861883658594, 0.06831175928533276, 0.043922081847934585, 0.012497507173248648, 0.1270571372414473, 0.04939982179761888, -0.09734176247417652, -0.025944873614067675, 0.01614625656355391, 0.014212277027294079, -0.026056230336313588, 0.0691475418921523, 0.023452364730290425, -0.03115425601097403, 0.01373883888246407, 0.06401299460639012, 0.032390550929520964, -0.07377552041433129, 0.0815933343629301, -0.04672686687680905, -0.05675391586227943, 0.10816427666007973, -0.018475703655822066, 0.0574670151416898, -0.05658748231318736, -0.11259140776262917, -0.017625795461407662, 0.03399344107634573, 0.050832589317990805, -0.004564884860706784, -0.04899163819487812, -0.024392149802722533, 0.03964640380594502, -0.009359407369610667, 0.029028440716220932, -0.02876933719552616, 0.004308644315967028, -0.056810038620505876], [-0.0472119162397703, -0.027857820487497516, 0.041962436266954825, -0.07795952997266252, -0.04747028472665808, 0.02031066926350888, -0.032241933726797435, 0.02192251648693872, -0.05023479317495618, 0.03903004811766444, 0.07720696464940857, -0.1031336596738316, 0.03112617161031234, 0.04868015006622125, 0.07447631935640651, -0.010233327149644896, -0.00018441075963097588, -0.08931419164489403, -0.028946716498430065, -0.022357846028313866, 0.01734125279216993, 0.012327354768152912, 0.003536107034707457, 0.06125129236527309, 0.06408456533660332, -0.004078183841789846, -0.023131585835746895, 0.08965518573807926, -0.043469889954967436, 0.02161198486868425, 0.016521995547510788, 0.016864238077915053, 0.002035007517045909, -0.025768611114104757, 0.009478956321059051, -0.04813071928951042, 0.0206821032779056, -0.03198900812692532, -0.029740004471006536, -0.055972935787857926], [-0.08621891903408985, -0.003913418571081076, 0.013060801632181552, 0.08575015552523174, 0.12295002890937123, -0.030148107120109048, 0.06007633504536342, 0.07279371856521834, -0.06387277715892692, -0.07255029805159684, -0.05997521801985365, -0.052874847750730855, 0.03186284052610258, -0.0011484853057898313, 0.03025603724940574, 0.008047964368608045, -0.011828747136618585, -0.01664005065276276, -0.0530211516080348, 0.013359491910148222, 0.06364229457415267, 0.038489663003607795, 0.043620016872845356, -0.004113570483860853, 0.06073478945812436, -0.03651049563537411, -0.007828774906080777, -0.0317595025202809, -0.02139113908995221, -0.011364122681466604, -0.02149896796380983, -0.013105279074900387, 0.05101241253642431, 0.06605762173223796, 0.010449681055178031, -0.041025221887501157, 1.5228345110275393e-05, -0.03450825029851618, 0.00776973630484947, -0.01762148625726401], [0.08742473593704002, 0.05953605519431378, 0.0023973240459030064, 0.09505334209517356, -0.1205491148602081, -0.017821685040001877, -0.014928714947498287, 0.05315360010563565, -0.04183471811975719, 0.08622421430965473, -0.0005013060326342027, 0.04392039648220692, 0.02925375918176245, -0.03283153026593556, -0.057167521260420635, 0.04318454247651184, 0.03680665533190894, 0.08773664478675744, -0.05966153658941637, 0.0073795978900646885, 0.028186958597825915, -0.04217906912147115, 0.02415670726181884, -0.034785423688967636, 0.03912257941302838, -0.05613367575830593, -0.07906223074179781, 0.02660674861926413, -0.07701695967587648, -0.0292548445252735, 0.016878950180314274, 0.0029507986697332425, -0.11116515032291557, 0.036576231234824, 0.0267348908262539, 0.052021970542741464, 0.01851552839961069, -0.032356887632758596, 0.060439149024623114, -0.028403837482835457], [-0.031698434361919374, 0.05146069631027994, 0.006397777314877109, 0.09435308052821023, -0.027516285327538713, -0.046126221867512675, -0.11220407229551267, -0.10415817544812218, 0.04183721043416842, -0.0010072989380120287, -0.07512073628685134, 0.029118931292660626, -0.0911019420642432, -0.020022297617499036, -0.06627370727192967, 0.013685506812015889, 0.023279762720014426, 0.08125991177376876, 0.06109613029617973, 0.08685649629055708, -0.06015173453364736, 0.007070081160173958, -0.010176098750821766, 0.11059484958893559, 0.0065477225811403465, -0.07787637796893146, 0.0626434355096261, 0.05028976279850708, -0.0372188795414519, -0.08433987305327323, 0.11765665615258321, 0.009995283614655003, 0.005569758722536525, 0.04762514026108196, -0.04761615114873723, 0.03298582340369559, 0.045939730887505165, -0.035966096922946666, 0.006075413991292724, -0.013089145250510047], [0.02518006713191748, 0.01970210620931883, 0.02985330840538306, 0.05713509711166959, -0.003858550931151822, 0.09804020042198891, -0.03989112627145106, -0.010980921953071241, -0.03015774500926834, 0.1069156517999516, 0.055113956739542676, 0.07932218914979809, -0.041396226740120626, -0.005827774395553984, -0.10029450499426026, 0.004908141030892104, -0.09702818518876945, 0.04753842115272014, -0.007940237757794772, -0.028402531126800447, -0.011641834808814238, 0.008875740528648094, -0.03392039281201247, -0.013755242866978993, -0.0953635388985201, -0.00036950024289137946, 0.06870102320541392, -0.0451326016594446, -0.05365204086576746, -0.03959187838123131, -0.004038735579069126, -0.03195187264304118, -0.014476336040520644, -0.022990542900801433, -0.0005881429917226883, 0.04683450271535098, -0.03484371887562392, 0.01055630461918635, 0.03416335147625246, -0.015417677986163638], [-0.00797029732045871, -0.06072840828150994, -0.11718152394745379, -0.08557644297671996, 0.05109646710295963, -0.08319741788186807, 0.019728938045023004, 0.014453488213270154, 0.055416282591645855, 0.04785897958754288, -0.09838727292133087, 0.009483637698459018, -0.015258232071414206, 0.043759860371569904, -0.0771729266716747, 0.06793786787846443, -0.05778145320980117, 0.08799857631782397, 0.03479494477217092, 0.0723777733367065, -0.0015592879002097417, 0.027406719747180685, 0.039063900284820624, 0.006528979424016591, -0.08094200947668988, -0.017674773655642014, -0.015329499445680638, -0.020524305760968108, -0.05577035736302912, -0.001280870482116768, -0.04551089213509186, 0.025048365093337, 0.05426712648664878, 0.011986513818479162, -0.050214697639527676, 0.09633758567156349, 0.03465118839369728, 0.01078429716178688, -0.06632470755446723, 0.03701441498867452], [-0.009401308499920548, 0.005713764513808077, -0.07266172695893772, -0.016164703550908696, 0.05711787052551691, -0.01472138483541864, 0.061715198708598505, -0.047048673732798765, -0.08300456137467353, -0.10551836887211093, 0.03568290125784222, 0.08960224345691407, 0.10498976573423215, 0.012529378827422376, 0.0509782693485108, 0.024696295370899853, -0.016539583475867495, -0.08884241769902465, -0.09716123800901107, -0.009358891526904604, -0.003971707833035819, 0.001302168811309502, 0.033829397517742485, 0.022064319417510914, -0.06993807287852678, 0.05809242955911614, -0.10249795231183417, -0.008450097922875812, 0.035414270739204196, 0.004923340143861665, 0.021517514997461757, -0.00027936648166219447, -0.01224456813286917, 0.0006291593891249881, -0.033213618689815184, -0.06796639646672305, 0.0745658657271828, 0.1019576250269446, 0.019744686515411863, 0.03912651697540446], [0.06561342969948583, 0.00941104980073134, 0.04187901322067394, -0.038503251874405287, 0.06946392654542292, -0.0036261665102460265, 0.0016330540759508661, 0.02937448417317245, -0.030545188934828684, -0.04417712472675486, -0.00048819220832340505, 0.01864895442901637, -0.020273484172557373, 0.043485314170091244, 0.044733602389764794, 0.0152846644499135, -0.029638433607650633, 0.04873959156320384, -0.0033860888762413045, -0.04091402423573813, 0.022927013674246714, 0.022568121957116476, 0.040143035835373445, 0.10329184145658517, 0.03160829002597478, -0.04217958723307937, -0.04262404404110509, -0.05760335757845909, -0.018664103165611245, -0.038502146654854505, 0.010998336701318556, -0.05348721864388729, 0.13636852607992858, 0.002877637502059128, 0.02968673792729275, -0.03184718873288505, 0.07591346962486331, -0.016458424226699814, -0.049588867727744707, 0.10497986696721368], [-0.08062760545213164, 0.045036902647121194, -0.023199962360165888, 0.017795221028736027, -0.009194209145360632, -0.10558349630420943, 0.014498394449243206, -0.1155716217521881, 0.03482584770258917, -0.03371333242984645, -0.048673984335415636, 0.13905970321937852, 0.0571349322168223, 0.08969454630110417, -0.010135598096215491, -0.002868566665818963, 0.07871553163312563, -0.005207540240374371, -0.041453255038546015, -0.03526691625184179, 0.06331804032001523, 0.1225523667351982, -0.010850736863524136, -0.06226787581412886, 0.131550327838184, -0.07011863521034259, -0.07228194452204412, -0.010503500538070327, 0.1412819976775913, -0.009848961386374968, -0.012468483842387143, 0.008721264826017375, -0.003688484815177962, -0.0757640030527566, -0.12088429211766484, 0.026800042570823676, 0.011342439698081432, 0.02493719112766008, 0.08211603727035045, 0.002232948466808605], [-0.021490722423109204, -0.055691051345205606, -0.027071532311474078, 0.04590231728475469, -0.07364891504749453, 0.022414452944886826, 0.010443357063985286, -0.012575122512279687, 0.06272138636113672, -0.05257216357958639, -0.02288876949412006, 0.0704828505011226, -0.008088226213518852, -0.015398699351099674, -0.06431754226101613, -0.027675607540794896, -0.12361259768022669, 0.03550047595452882, -0.027026564872598323, -0.09960150346589912, 0.050176674781075875, -0.02861536908797697, -0.058344377060033724, -0.007117313442304262, 0.04544249615230934, 0.041267508429477136, 0.14276059250078244, 0.009433301886591567, -0.040166258881662684, -0.0031732391586470933, 0.05535952272005723, 0.05423076266298712, -0.01681595984141914, -0.040934734442910535, -0.00743030169135082, 0.02783259955822966, 0.031709023747798624, 0.03733866622112374, 0.02315408560085376, -0.008843751051752047], [-0.07751900843539396, 0.0039861680205413655, -0.003652039317602236, 0.07803064427735364, 0.005934389626677167, -0.06552219660482443, 0.04178662446949858, 0.04937415644793308, -0.029013842569173894, 0.011989912489295878, 0.04520547025656478, 0.09552306974969503, 0.000721292720729031, -0.04831534051651248, -0.03867897740798342, 0.04304694872372396, 0.07693679151382704, 0.011304026292094012, -0.0053239081192831515, -0.003309020163516342, 0.0057739997156860175, -0.04685570308012605, -0.04658726116230896, 0.027980617021383974, 0.1101569181776667, -0.06796663067152248, 0.01820099603217404, -0.02147583565002663, -0.02536094631113727, 0.018678558398646353, -0.044434873445547515, -0.01696324427881372, -0.05141833768601329, -0.011122612275084594, 0.022490528361156906, 0.01594737037532989, 0.028316935673274486, -0.0879006624065948, 0.03309227364869854, 0.05829248358416072], [0.0051196396803967195, -0.050340226808983174, 0.00819148540417048, 0.07309281635973888, 0.025152187391053744, 0.002601173174674478, 0.04790319826732148, 0.003497801990605619, -0.06980446198306621, 0.053044913038651935, 0.05618395864810781, 0.05075382570744358, 0.0025814102040000154, -1.8914746624830062e-05, -0.051937073521313507, 0.07456856494053855, -0.057310517921299264, 0.05125349441548745, 0.06070338167077403, -0.021927329267357947, -0.08225514940332909, 0.03344548455040473, 0.07367614391653114, 0.06374164059810396, -0.04446689752478779, 0.03904699686539741, -0.008414407936369401, 0.03809518592792887, 0.03974102564917147, -0.04035172285096049, 0.019075622004466535, -0.00497807290704426, 0.08640067663137817, -0.018531413540695655, 0.01462763489921217, -0.0014225288413236338, 0.05549637090986647, 0.022225123611449512, 0.03370578208040465, 0.01536189029648786], [0.01992939742562458, 0.0025644299831249747, -0.026626918712558706, 0.05948471008676642, -0.0010317615518459487, -0.0098979094434636, -0.04800036152624824, -0.04321758740189763, -0.004399082407570751, 0.007715264381144504, -0.06342273925351137, 0.058191161510193976, -0.055022251471049985, 0.06192750333839774, -0.10298281903125579, -0.02417329125610427, 0.04153168147457102, 0.01973487845805183, 0.05274141202290995, 0.07004429121461457, 0.017458897122368068, -0.02035602334768195, 0.07257702631836606, -0.08732932420864296, -0.015507584189571601, -0.04759518682667039, -0.00695359099426074, -0.030541033029310296, 0.002182155150700185, 0.027164901160224762, 0.023841925968886426, 0.036937533884964575, -0.08715050721761493, 0.0019069399667054976, -0.007726244717152283, 0.10119707269282782, -0.020827179204417304, 0.017110588624585938, -0.03931366731800199, -0.056141353771860115], [-0.06140633470038354, -0.03305478423932359, -0.07602729179351995, -0.02335818639049854, 0.018499165438725252, -0.0006510283159772288, -0.019577908546335895, -0.03134960838892801, -0.031105130868387437, -0.09163506008163048, 0.020211278442127206, -0.08582780796156399, -0.02018240251738449, -0.04153305905109128, -0.01903665958998302, 0.09042978086662617, 0.04870917255944945, -0.0017394680470057405, 0.05859767031167142, -0.03623762470052296, -0.053384191668012206, -0.018718835360351845, -0.010575045043746225, 0.04158515204928086, 0.07287811582611102, -0.027214055138947098, -0.04315209438228753, 0.011764631791668772, 0.04867855943539117, -0.03213369207351644, 0.00276326859376693, 0.0015196518510887332, -0.022221867987212304, 0.09989685112411212, 0.008650156641881065, 0.01899065608778709, 0.06052581558423569, -0.052984977945178875, 0.054835837392077785, -0.04280475940213588], [0.059372467796733906, 0.03491829853731341, -0.07600976966854253, 0.05262453308493234, -0.029165750928094675, 0.006450197579484862, 0.0068819019097050285, 0.021682843678802174, 0.03219098331743407, -0.04677276802791274, -0.0558423431971813, -0.008952745020377805, -0.001299416778847938, 0.02621065307291926, -0.11357571089823428, 0.0030428047860469863, -0.0032582734316852543, 0.0463197800258646, -0.03054927344152469, 0.047867853569275, 0.020262267916451134, -0.10164516959242491, -0.05697805683681511, -0.05084947360609789, 0.08084186793326366, -0.023836437342958015, -0.06759765597574857, -0.028933165428157454, 0.0310602848875324, 0.0307101878434792, -0.012269170306094321, 0.003120102643601369, 0.05315412143742728, 0.018258594267362538, 0.009216630463146901, -0.03484575316132129, 0.04292002914119173, -0.03876767746435966, -0.04094437156685444, -0.0012049384249612522], [0.08439394435023083, 0.025220372695893962, -0.07726863445198848, -0.06386123264099579, -0.02316602833440023, 0.10217143773598032, 0.01238336011375213, -0.04498824506045338, -0.0011988144860419511, -0.028311713024851286, -0.07257988419896555, -0.011607736019932216, 0.059939839418707966, 0.02059355794299059, -0.09469046184767341, 0.057846019894172644, -0.06212579695022905, 0.0344229282690083, -0.05110010334531302, -0.05429870741453999, -0.030415626673600617, -0.010752198693475904, 0.05586382016864024, 0.006228526234239488, 0.008173521082253034, -0.009134639948048513, -0.048013084664846134, -0.05137656644011787, -0.04370097849094872, 0.04126718459161657, 0.0867096122042032, -0.010293110077565178, 0.056558161050236276, 0.0012828015315558, 0.03383711442275674, -0.013814028215359212, -0.0170188391171339, -0.0006983162473353169, 0.12133277100222328, -0.023034066473269183], [0.01485790047537175, -0.06583554837512012, 0.02333958424871598, 0.024846141224955064, -0.020747119418833653, -0.022150219412176788, 0.00958968899938019, -0.017241527282194732, -0.06446448068601122, 0.005919360571425627, 0.17136248007147886, -0.09659518575923198, 0.017691695781745922, -0.05036838162661747, -0.004067513298170874, 0.0410423304885895, -0.1494385495479407, 0.1424897801906853, -0.03265608289857049, 0.03152379531610667, -0.06912562392488103, 0.05291617360065622, -0.03075449281786386, -0.035446187893162076, 0.026461085336062135, -0.021918844303828455, 0.030191151517161285, 0.02088201075877376, 0.038140383377199334, -0.10398606281519963, -0.11187772804274869, 0.005126324292603807, -0.13200396350156082, -0.033449328239443486, 0.022441012578156536, 0.017186485194630764, -0.035758816477101704, -0.01044687723244709, 0.06554766033576155, 0.03222530373032578], [-0.004065031440873403, 0.03480316176620005, -0.0013339288732700304, -0.05643975726346945, 0.08418696027092473, 0.07812248647441761, 0.06731197691653412, -0.06018861839427982, 0.0006540795992419146, 0.0133609693881127, -0.002095249896407521, -0.06995162965197767, 0.005533013840602992, -0.05135571842032319, 0.068219321783465, 0.039326563591023385, 0.019134806912628012, 0.0629311491458699, -0.012164311569558467, 0.06330634430477085, -0.028226427483077177, 0.03785147097218607, 0.013323327230598156, 0.00369565930726065, 0.03984282073543095, 0.07700301572474576, -0.09546280726269223, -0.0758868811377806, 0.012515348022855805, -0.043261885579476946, -0.033060645844537, 0.04444944334026763, -0.057580718065098825, -0.0014958863615866101, 0.016159512454045896, -0.027001839415244838, 0.0013307086984527862, 0.11720805825912296, -0.08400213339855792, 0.018082556467877743], [-0.10656480549126542, 0.06416704049149526, -0.00791624799990814, 0.04949874146907438, 0.02816931587713571, -0.04483301954485381, 0.05772216140866938, -0.03895592012012119, 0.07602267567340394, 0.05106023952164985, -0.0038562615860011223, 0.03833981444301225, -0.010395211031355578, 0.01599456790927479, 0.012841986889669596, 0.03186450295344018, -0.011373897260316759, -0.007982650396202315, -0.00406665188023137, 0.11961102529503534, -0.03148528545844864, 0.06753323748583202, -0.023793392526321434, 0.05530665016034534, -0.020053802387438664, 0.04971495988795258, 0.0230463283217805, 0.018032698518291992, 0.05005088839449549, 0.08884916714319334, 0.06030225513988605, -0.06767373747493227, 0.1051175660941662, -0.0011779449219833545, -0.028471653527345948, -0.001883316866853959, -0.009542698703204674, -0.10489104826631933, 0.16133706647420124, -0.024616821667556483], [-0.043065005344976086, -0.013499700010972957, -0.010480099670964561, -0.002218280306473825, 0.0449047889835365, -0.06410486957263523, -0.050385830537615375, 0.015913751609458012, -0.10751270749494019, 0.0037836132911151614, -0.037945334741520474, 0.14043900197267206, 0.053213045339454756, 0.01739161875176167, 0.029212885341437695, 0.0898884430457247, 0.030268672737963496, 0.10397422445135018, 0.020281959261794578, 0.07838833203803817, -0.058520030700119706, 0.04043530772187697, -0.06900869687132209, -0.05464021608674624, 0.053433849334884466, 0.009044350701554335, 0.041286407294647755, -0.023386678957607328, -0.0920650078711993, 0.01499455104100404, 0.0033345362414168075, 0.061978102365141764, -0.002278163718930726, 0.05181594928152383, 0.021901846389114316, 0.04745911320199061, 0.14249559874014167, 0.02650929853347657, 0.02549245644173978, -0.05268864751750192], [-0.04850545735635263, -0.060665645545737834, -0.012731948035579635, 0.03637604536904409, 0.1204031287175099, -0.018221382995941313, 0.0014890328562761758, -0.015113584664842977, 0.023399348822830856, 0.04499943126725386, 0.14467970155415405, 0.07542406652592151, 0.04868468086064845, 0.01477031573024622, 0.02425976549492531, 0.01614895602745207, 0.03867666430527621, -0.009591569880768036, -0.06140170416350904, 0.07017991902877518, 0.021059445353254966, -0.001448745116170893, 0.02162531755139049, -0.03197184414159714, 0.007320831699553925, -0.024784899757823248, -0.007028642119207625, -0.027034509921138452, 0.06193623025406481, 0.02470000643609309, 0.0359997715308153, -0.029625399464785294, 0.041736099366528834, -0.09424900942067312, 0.002652306900355117, -0.02411598905002675, 0.007739435755921523, -0.052719985284648684, 0.005930222513638331, -0.028860327961894708], [-0.0010284341597997925, 0.09302890221570602, -0.04174422147028372, 0.060906405447109575, 0.006914963101380724, -0.01889722476854188, -0.021949109307728476, -0.0027712555765528756, -0.008853525421924115, -0.07817406204517605, -0.026607116447923906, -0.08548495190206216, 0.08524310487631495, -0.0035528008875876744, 0.0407976671544372, 0.010475274851588253, 0.020400319429089854, -0.05589168805030126, 0.00859818418107603, 0.03074193675960033, -0.02524443830432346, -0.02475311571542889, -0.038781996563381126, -0.05133984389348155, 0.019600852699834432, 0.039174843041695925, 0.006732219085022253, 0.02742397307766833, 0.054045166390821485, 0.0031374297583454647, -0.14478166453813554, -0.023821924623662352, 0.09521820507699563, 0.015269562349321196, -0.028547989355602918, -0.07022475152263163, 0.03837874484320416, 0.022742058653589435, 0.01542014071267361, -0.014169722930235131], [-0.007354964874123619, -0.05014509856939871, 0.010440498027755468, 0.0032176043993848895, -0.16173984257439974, -0.059220080017699496, 0.008867720875656234, -0.017243907804189895, 0.10500582907698093, -0.06218118005133131, 0.014274424052923788, 0.056530193942387175, 0.06822434069703553, -0.07216369968301148, -0.0013490206046392705, -0.045991353637788196, 0.008431445051752995, 0.08349827873195811, 0.03595651999578574, -0.01862902014854781, -0.0005373284127960478, 0.027951558631284932, -0.015335399861626879, 0.020281938556477395, 0.10686840942651596, -0.044041619662440655, -0.02012064549101117, 0.08038930060912776, 0.017343896309974183, -0.028079343495163722, -0.025735601712609812, -0.04160792747088189, -0.02150100378288292, -0.041647185437537516, -0.056500800680938525, 0.009039607588591252, 0.024232914091130365, -0.02581569717562333, 0.010297985045579052, -0.027189859019881406], [0.016772986374185356, 0.035495263701144045, 0.09737530768707034, -0.07164303408458395, 0.007206439257459886, 0.035925407926732676, -0.011509934993065381, -0.11420752261553194, -0.00857513489787784, -0.04478274937036389, -0.09347650495514785, 0.006022400089086826, 0.09236391143769695, -0.01860291854329152, 0.01899451422653665, -0.005137468481710759, 0.030872030810956123, -0.0353238345879323, -0.04358462354443131, 0.007607224736364696, 0.02873123599604672, -0.06176972537275767, 0.10009179120457719, -0.015092792657919586, 0.037477472869512904, -0.0067383507136964385, -0.043612547403930974, 0.0005765853991161113, -0.11229893120370901, -0.04130616388781075, 0.03483276903193618, 0.020614437551480583, -0.058702972414266176, -0.06306057702587577, 0.0322468745314757, 0.05129207821044349, 0.04330099589964193, 0.07744613156742894, 0.01872276387630496, 0.0013888268909878966], [0.054338277891425264, 0.028529548536860582, -0.026549667522047814, 0.039002546659937756, -0.005056717702927444, -0.014455500182668833, 0.04911782894349254, 0.04667737360572306, -0.06735272123647823, 0.0342709686629225, 0.007229103969196161, -0.03562738552582857, -0.03057254362831597, 0.06348739202181691,