{"model_name": "Sequential", "layers_count": 6, "input_dims": [28, 28], "loss_func": "CrossEntropyLoss", "layers": [{"layer_name": "flatten0 (Flatten)", "layer_type": "Flatten", "layer_args": {}, "layer_params": {}}, {"layer_name": "linear0 (Linear)", "layer_type": "Linear", "layer_args": {"out_dims": 40, "in_dims": 784, "activation": null}, "layer_params": {"W": [[-0.05504315934452085, 0.002523600788702037, 0.05939466666751516, -0.0981996149214625, 0.015850060749641754, 0.018792631669417418, 0.01940550171422162, 0.03128506040941506, 0.07226114451343596, -0.07774802092809213, -0.004038407388019355, -0.03922197115440875, -0.001782822817655154, -0.0785522193093838, 0.012135646826175257, -0.036228684554367244, 0.05170690164614597, 0.058097517873875584, -0.02759644781678675, 0.048331906640800816, -0.04675999881965277, -0.05259770042175843, -0.03058289672181711, -0.028755567711769923, 0.049497739545563954, -0.009866261070899818, -0.05682147704988192, -0.041743404714554656, 0.025327233124359423, 0.05576818369242626, 0.06897122894823053, 0.03640595306472539, -0.0033944709437536595, 0.0121580766951902, 0.04401188370738889, -0.001052041582134387, -0.05254706884979486, -0.014754431939394666, -0.07407146653425427, 0.052130575963438265], [-0.009897511158501697, -0.06982779115836328, 0.03539964423802273, 0.012738697228359892, 0.0023434212252633644, -0.013287126197398887, 0.000891099568587018, -0.037144101920694145, 0.0175547155460378, -0.011677743027689135, 0.06099551105468628, -0.01664256586145678, 0.013999888545696473, -0.04951644288715149, -0.018491035214274178, -0.11463878315291898, 0.008171245383859462, -0.022361869872142236, 0.05259210087059015, -0.021847710348803062, -0.011650249727902882, -0.04753767719383594, -0.010969738511431014, -0.06489215503252586, -0.022370088812437613, 0.07144679766579874, -0.03106591757394238, -0.06610424382548953, -0.0042284287379249766, 0.024351109891375816, 0.028079201187631523, 0.002104425532668257, 0.013011268933897556, 0.03899179034941587, 0.011516144218342185, 3.995507506729427e-05, -0.0032609373044624867, 0.11716518728792306, 0.002210657026757478, -0.0745217543844853], [0.09144118601186162, -0.07250745180603191, -0.0159239493035981, 0.006478296069338649, -0.0012356887462932676, -0.11408006133721507, 0.004297791341295902, -0.035570396481735406, 0.10964300363936373, -0.04834604318578482, 0.060015262715949126, -0.040173463808491815, 0.025895361221030522, -0.039448685535150206, -0.027720834605642116, 0.026994544760910802, 0.004961951149870461, 0.045981911590714325, 0.017084047382308832, -0.15396227703800014, 0.03535086288182869, 0.03278782853426486, -0.010832715670931376, -0.031105895499294087, 0.06786886119854298, -0.03267130195109631, 0.0406407433668566, -0.033834555367690165, -0.02427267971015758, -0.039656424772313834, -0.05942104639871865, -0.017890464816566764, -0.0011432003361250681, -0.006960977588987992, 0.06121577684001381, 0.08911019244555045, -0.06500982477370933, 0.11613511889782738, -0.054549777418552645, 0.03674929849286625], [-0.019967434323406648, -0.04111884158702303, -0.02693104120324791, 0.015592304944963171, -0.008061037086137372, 0.09841983426482348, 0.03798827577686722, -0.07385648570132985, 0.08992570324231548, 0.10291188857148474, -0.004852330254741085, -0.039255601162850054, 0.08032287402195891, -0.024936866934213785, 0.1098464401498503, -0.047842655329805715, -0.04507891996282486, -0.06824765087468526, -0.023977306623508124, 0.11041477586021527, -0.02853279898765867, -0.0770840260397103, -0.037226071323503834, -0.028666244402826762, 0.040809392328914666, -0.0528233730221914, -0.0005378804250203737, -0.05074640836983595, -0.042195107421460855, -0.08579511136272268, -0.050960634289723174, 0.0796384846619787, 0.0851200294591598, 0.046124426574455465, -0.055770547713755975, 0.041470952831002585, -0.05703406935992147, -0.059074192168778426, -0.0032202346660065682, -0.03643037202755745], [-0.02251347236945965, 0.05439693746051411, -0.011015646843485752, -0.08619638137427252, 0.0242335774631482, 0.026699476097833796, 0.0250679485902337, -0.023400532671875758, -0.027077075749250133, -0.0803360053544787, 0.03179882514705006, 0.03005454506163079, -0.11695474248215346, 0.09619929131826677, 0.10040445229861049, 0.015869136588150385, -0.07207831888480269, 0.004390470199254274, 0.11294701475138402, -0.021546158257929715, -0.02705249142810251, 0.021578683767879598, -0.08260591263326986, -0.007083564238380081, -0.08676009998661724, -0.018364436667592087, 0.07531109693789836, -0.07102955760522785, 9.283455291693348e-05, -0.02292140748879602, -0.02297661761441004, -0.019188211424211545, -0.009290782991528959, -0.0026229212317147328, -0.023642413735222738, -0.022968097681435873, -0.039495150348578194, -0.07642771560374963, 0.006551076874860811, -0.02327801288992565], [0.052076437357971406, 0.06295793709911388, -0.055718904859744726, -0.017427294046004477, 0.057480146512532575, 0.011751073671703744, 0.009807177608123645, -0.004429965869119436, -0.05505019173319199, -0.11906787117600268, 0.030647071031104322, 0.027147833144204415, -0.017722982910397683, -0.007991530064488316, -0.02367241319590936, -0.11127935697199132, 0.007533153979774843, 0.023897003849948535, 0.05984735003272073, 0.08550913932323984, 0.060495304465577875, 0.05983723663621929, 0.042178576819372565, -0.09140229506105317, 0.044770317581249434, 0.033233172287955186, 0.051152720207176004, 0.028678581628404632, 0.006090051021069653, -0.0061225519165204875, 0.02798769420187962, 0.028976205731383337, -0.0036225830912024626, 0.07638020952014506, -0.12913118777569127, 0.040233267292164095, 0.010519358883774085, -0.08252047407253256, 0.018879394512092612, 0.07056249938250547], [-0.05162769571914289, -0.01130187612736574, 0.03473087025382274, 0.0024828799699928303, -0.05105456474868058, -0.0097990612625027, 0.017027505984071857, -0.02840869261081406, 0.01805137638360595, -0.04159782538883738, 0.05082206791418369, 0.017687379188476522, 0.025977421115578186, -0.04623652261824213, -0.0025997843871913024, 0.037498900828415, -0.009662976153372532, 0.011305853230136153, 0.06005860989596591, 0.03582955453204612, 0.0996513338011883, 0.0358431692465299, -0.03749384398600926, 0.03646472160590306, -0.03642945256244758, -0.03721205936330098, 0.06519457357317081, 0.009774767285221067, 0.05377426127907839, 0.004032805947791616, -0.04562676097580801, 0.0422581761998006, 0.025610916923921506, -0.07383786647538351, -0.08035861480008033, -0.030238845532226118, 0.03397676721926131, -0.004296877923861552, -0.023172317937567355, 0.039218228517007445], [-0.038955785041060856, 0.06063472302788305, 0.031214228729763947, 0.05349834481435944, -0.02689372310882803, 0.001973291577342471, 0.10288316195895318, 0.010709404997562226, 0.044998933978195474, -0.03403712136051411, 0.034494665769685746, -0.057522161691174876, -0.059078994755247034, 0.07283504077799056, 0.01044428702430612, 0.013097837688592287, -0.04986806995059554, -0.029780992078908514, 0.010921485104342522, -0.01783119915950893, -0.030487477014763294, -0.020790099176379917, -0.0006579358628128072, 0.021657228278055086, -0.08918931312946432, -0.09293053814279692, 0.028434173496402065, 0.04927990810604634, -0.04459526681278439, -0.08025466202870203, 0.04878738894102068, -0.11572604309170519, 0.05494673727170088, 0.06976152117188561, -0.0027595361583325722, -0.06999611676993507, 0.03491903236587057, -0.07789069711255892, -0.10161722665021529, 0.05872477676203796], [-0.08970459608819863, 0.007813513732610213, -0.04158617816856681, 0.06708967329292656, -0.04519032123939798, -0.01298971699787595, 0.022685155561997784, 0.009958699776875695, 0.006956298800466655, -0.010753191470055178, -0.03013295122655713, -0.01485738883786944, -0.009295777133849702, 0.011314079093817951, 0.02335322990313148, 0.018797676444314498, 0.049647688746475946, 0.03260460736301765, -0.00567122980094076, 0.011778638622262418, -0.012869837361078006, -0.009954303597199413, -0.07058696881520339, -0.016431425410679663, 0.06944945917283904, -0.002969904314116743, 0.03811808841559812, 0.0641185133959107, 0.027451842636345064, 0.06606710547584348, 0.04881839635173255, 0.03630002315253262, 0.034444715664667454, -0.025872948917765533, -0.00030298590191035226, -0.08011388189351923, -0.035583610610734534, 0.04770114100263595, -0.048299388073381515, -0.07833602459289105], [0.006171762562503261, 0.08657188239835592, -0.0657043911611927, -0.08707828415405484, 0.04566690722845994, -0.0003991586224912818, -0.06105677389437321, 0.017976255286277793, 0.0029175339305641114, -0.032756882092453136, 0.006948033904778102, -0.07273581689020348, 0.03719818205539885, -0.11482240227168154, -0.03304208806216559, -0.1170701530183121, -0.027467474188999617, -0.08404485474242665, -0.12716271916175456, -0.10629417336425798, -0.0005116213399096998, -0.03481103046294306, -0.009023028050278234, -0.027002270048609254, -0.05748147772208332, -0.07468188890402186, -0.03703797339410779, -0.0712077499371878, -0.027393503518530017, 0.04531519298491696, 0.07029658181629413, -0.06624864146760785, 0.08430468030552182, -0.1045256954784459, -0.06159710492536728, 0.0009790916075592833, 0.06747871573267147, -0.026406871819982535, -0.01179188153617641, -0.0835526601251869], [0.04320660904987591, 0.013367474070288352, 0.07534528366758875, -0.06562303398990868, -0.08695969802417096, 0.019736826810897858, 0.027774883915651666, 0.09636163227115083, 0.05788004062171937, -0.07077450686750357, 0.0048762106659075745, 0.05375011497430631, 0.049539017581760915, 0.08062157070770708, 0.0665340196414134, 0.052999950910426176, -0.05561228370886896, 0.02508165203889675, 0.12451117682834771, -0.02515991153375966, -0.02919430453729541, -0.02279258792781114, 0.03142460542339212, 0.018257929859222654, -0.01808779355444658, 0.017443312122402473, -0.029015170080361426, -0.001747678954909967, -0.028581407590698646, -0.031028473167093378, -0.14430903453202287, 0.015050950166331418, -0.06583428106921675, 0.04749093999578067, -0.016555293835510097, 0.05894668195790307, 0.10265594359647434, 0.12657931340746015, 0.03483504811844154, -0.09804266055754014], [0.04708113295613222, -0.024533256700894894, -0.047313430785100294, -0.027693265242521147, 0.1412508915205238, -0.0014952008132571404, 0.12358038642004818, 0.012173165279573768, -0.007851980615971126, 0.02876416322363308, 0.038391868206297204, -0.04032110617291784, -0.008453254511815472, -0.06407705310707781, 0.047737258065241005, 0.01865862839026064, 0.05878827907597118, -0.04683368190769825, 0.03781665312209956, -0.04701853728806525, -0.10664514529894636, -0.0029643728677521447, 0.023334594131394694, -0.022070660065957814, -0.05891469415465468, -0.03745802267250479, 0.013644012424073752, 0.08057113226748881, -0.016146192666247755, -0.003110293767511087, -0.04226380660526889, 0.0385358436051764, 0.031151230875016485, -0.013345150030099595, -0.003948748368607699, 0.1433648051273585, -0.009276843029786493, 0.07630653405807473, -0.023710940560715446, -0.0725560401290381], [-0.05381406109722424, 0.00930916085245536, 0.04815118556990308, -0.0361938677301967, 0.16030506399502398, -0.001663879732139985, 0.00430420184437381, 0.013436041135254052, 0.022018365565566536, 0.012249974669041182, -0.04523703186582748, -0.019155966005133387, 0.037184620491003226, -0.02368313416204758, 0.10367352617822216, 0.04643575943900426, -0.05360679545979983, 0.027749291707433853, 0.020549050298559992, 0.030999303442587455, -0.015113224761387154, -0.006440377680006996, 0.04301918990027215, 0.049766528508458495, -0.06329998808467475, -0.022283943972798467, 0.08768074245707676, 0.016927593261821035, -0.03227731799485912, 0.049925821991989354, 0.0334495623687759, -0.08216849852922599, 0.059942779910767005, 0.05970630984642392, 0.016097289443835282, -0.01604158864653931, -0.060196828947031183, 0.11162457991117061, 0.0500715186423294, -0.024981796588835953], [0.026190842900964705, -0.06794878750597969, -0.027816354587938477, 0.012807849674200837, 0.04970610513090615, -0.004606542828506728, -0.05913127601929585, -0.010027842294131147, -0.010334248319594484, 0.030865725249396823, -0.015357361534723812, -0.016468564713228086, 0.011183638611403895, -0.05277031600545861, 0.03982805877263195, 0.03090081696450499, 0.014339369896928415, 0.0710690257838378, 0.0026193402716599974, -0.002236044559325411, 0.11815450008944685, -0.044712395161736466, -0.08334226061017905, 0.000505982080074506, -0.01946228910406986, 0.004636696519645063, 0.030999435773619348, -0.0727743717465893, -0.06492250315122385, -0.019951726815693113, -0.09772839638613381, 0.08555155750082061, 0.027581864649241415, -0.029279436538111492, -0.03325438203779029, 0.018910692635614807, -0.03429935121745738, -0.015398990678397109, 0.02954078069214139, 0.03016997703387225], [0.0160180345882586, -0.06713445071797582, -0.04714885888392627, -0.029671392259580598, 0.002352954151318659, -0.14143820341126362, -0.030330391984372686, -0.09063024944945614, -0.007027585213283885, 0.005361880192469037, 0.024251022763329726, 0.027374658012187664, -0.019324112904417545, 0.00472644228060723, 0.011333667760444689, -0.004958483459047216, -0.05686097435521924, 0.04369648109094473, 0.0011116108750739288, 0.04527955822872016, 0.018632475470175627, -0.031491848062497066, -0.001150980229310289, 0.04184944153820898, -0.013685037368837773, -0.023346896710745243, 0.014899828442056428, 0.025052269339825396, -0.02290620013018099, -0.017330362637007823, 0.02462831801966034, 0.0625384759133013, -0.018330851939375403, 0.0004450061301426447, 0.045515020944010574, 0.0015153680276884574, -0.07045004728948157, -0.008097361743090371, 0.07821299292046112, -0.04442092525167733], [0.05847603075681164, 0.050227396033934925, 0.06647515390257827, -0.06827777653528967, 0.07326014418998172, 0.0006417634013216649, -0.018364660133815904, -0.008026037626819886, 0.007523222061839553, 0.017302293325043527, 0.048478607748446874, -0.006495227308445163, 0.014583309741934664, -0.009897106206124185, 0.024986626438041105, 0.030482799574820762, -0.12739172301338764, 0.005480137146852966, 0.019521863985953358, 0.02913764975304446, -0.05056710253370675, 0.012557463564950796, 0.03339794165323199, 0.0017434086048568867, 0.031860173627669575, 0.0018437234359539056, 0.008081611166168791, 0.11976479025606901, -0.025974493787980096, -0.03519392332411132, 0.07759329971695139, -0.02696190319109539, -0.03860663978826799, 0.04345401887513698, -0.13140274226015172, 0.07006490742001917, -0.07515284062623226, 0.047393049977239754, 0.03481046597367295, 0.022148375701030582], [0.0478622316377887, 0.060462668286064024, 0.002966021630988859, 0.015379970986953212, 0.008218391732428856, -0.02655231371466865, -0.003934942419320771, -0.0947468933967164, 0.008746634633669488, -0.013907974271418934, 0.05787992206698315, -0.005275638931200712, 0.0511105717294499, -0.005498175974473858, -0.004685054704647422, 0.012674816610759131, 0.02249248008045212, 0.01301457009479243, 0.039941503551032015, -0.020409865603883633, -0.06284332108903297, 0.15377363359170898, -0.07027891379428856, -0.08390588826919948, -0.08043793685845252, 0.056043955008831116, -0.006326628298392428, 0.04325091036063552, -0.05508525033007417, -0.047004330049012014, -0.015232487464339207, -0.03952087110552638, 0.022516738317866165, -0.02408246127482498, -0.011397478512205047, 0.02737308291558415, -0.014427624861316756, 0.049908312062945735, 0.049468779349958115, -0.1029873802158133], [-0.05962726061226677, -0.0677963455156968, -0.014139011801259793, -0.010283284191510358, -0.01665290657783504, 0.026527844591349548, -0.007847931738722504, 0.004244836080476026, -0.006256378679616028, 0.052593065394854074, -0.024606614964637258, 0.07596764410164152, -0.003969441381170215, -0.02212774078571164, -0.03504813856471392, 0.028400047547871662, -0.0720095904336597, 0.07859252478171486, -0.0030946302054532695, -0.0129981896183176, -0.042803492844781806, -0.01207347385450362, 0.048946123754463264, 0.0013851180934164305, -0.007666578089484747, -0.023660011840356897, 0.0390371874929901, -0.06272691811770785, -0.0169033724637322, 0.00248802466875067, 0.06209269701629667, -0.09275744096932412, -0.04660177944563772, 0.05403307454723102, 0.009296082019198097, 0.030018632554465813, -0.06070893089214144, -0.04726973831553777, -0.007905956420306825, -0.015357835714750885], [0.0026167907464819907, -0.003550956490016681, 0.05205931070706841, 0.03491730362575345, 0.028500468524072457, 0.04226766868278135, -0.04935802630083968, -0.03850908559671079, 0.03257801201283729, 0.02954447273432093, 0.03986337596165185, 0.03196512958858272, 0.016049238193537988, 0.038622594418237115, 0.07184393504606992, 0.04741475097242252, -0.01452579630561509, 0.0027513719799020873, 0.029438738769302364, 0.03029683271372722, 0.09270052284376629, -0.033660733688854846, -0.07819610507118427, 0.029136484174853, -0.01654018628033333, 0.0739005773400455, -0.053013940877892046, 0.018641676642505746, -0.03409237217624502, -0.062474782031189544, 0.047506943618872234, -0.017504032980503008, -0.01012552063721415, -0.0865427560298534, 0.00630101815039596, -0.05607776163721936, 0.05940606805836058, 0.020521902579385777, 0.026462894150963846, 0.01754611887932494], [0.04884998914117375, -0.045881326029872674, -0.13002643369106565, 0.03619232139866595, 0.0929745058636674, 0.02392722515830721, 0.05423384602278411, 0.08646870279192076, 0.09214634971727903, 0.032160538350493234, -0.019433198975079616, -0.029403205349778864, -0.04554923599715136, 0.12098420198273156, -0.017950159347338054, -0.0027456007594774587, 0.006767129294561255, -0.08767987187229989, -0.032026737787755756, -0.006977200580285559, 0.029736481821221027, -0.045371037043565966, 0.018908802593829786, -0.03916704555741526, 0.019504691315348495, -0.011577732603280213, 0.007022727229601219, -0.061976876022707, 0.02697448395529077, 0.08893831900405477, -0.04396902635890393, 0.05813449263860093, 0.07316844124502865, -0.030334577366002112, 0.0005910239180522678, -0.04376773938303707, 0.0788924088008625, 0.015014166509240279, 0.01969714195866425, -0.005355195426537518], [0.052201266676433884, 0.018528626590309048, -0.08873819883033225, 0.06376822917092381, -0.0006659073829511318, -0.033971326110539525, 0.0020826295738515794, -0.00038675989070514265, -0.033836135415865394, 0.05905716113965027, 0.0018119677798881734, -0.06385530066681795, 0.03811478880095957, 0.08648498544822568, 0.06375422730335592, -0.04883162484733006, -0.011292531089214694, 0.03299057424725803, 0.039448814278250234, -0.07148122106561246, -0.07033261492201402, -0.004616951691493993, 0.0545751253527112, -0.04362762284154726, 0.03374008056427215, 0.047827052240524345, -0.014883903957019816, -0.04289782860566791, -0.0461549369176061, 0.005197964136805878, 0.012293388612267362, -0.05763426099562836, 0.04425802710750488, 0.006881306815894657, 0.025946808951056343, -0.048161508150845446, -0.06212865855651689, 0.08846536222009227, -0.04249862762522758, 0.0011039059848520244], [-0.05237897849266866, -0.03507814279726916, -0.046373846750882394, 0.029000798372112863, 0.026787349445162742, -0.07301949444499484, 0.03968413707184242, 0.025439335958662383, -0.020453525974644317, 0.12242245469167934, 0.002051316161747731, -0.039917351799780655, -0.05395741675302426, -0.0014561552444875316, 0.05765738306844114, -0.018553609068603823, -0.0394060367773892, -0.11039350958690713, 0.07896023080169856, -0.030183096891908352, 0.0269849020629702, 0.07540068906954654, 0.048684738765189556, -0.0052125372827626516, 0.0051734838328284585, -0.09056242652235988, 0.04483459423688981, -0.057119581501184076, 0.06957572009236399, -0.04725544204762483, 0.13200115900547335, -0.002637194712758032, -0.02978860777426186, 0.014104604937649081, -0.009210499848717055, -0.04591560067651188, -0.03310656780930388, 0.040142643154285416, 0.026086923014660462, 0.0380304784693776], [-0.02502692423026878, 0.04210217958816647, -0.01165905591447361, 0.08029038829897478, 0.032041999903288376, -0.031027030840639992, -0.03723269312324575, -0.0347402858750393, 0.030959860131386407, 0.05439149805494543, 0.04589500816615646, 0.05339386259597921, -0.03704907597637671, -0.008522360533908317, -0.03745324122820656, -0.08069626533361199, 0.0331632111000208, -0.027144120978542227, 0.016766484468803262, 0.023485869423865973, 0.0735934761220571, -0.0559180932464968, -0.020844857996684132, -0.07689129963685719, 0.018299555582086142, -0.034376143014978634, -0.031072270329691287, 0.04098785166009544, 0.05660760366589781, -0.03144613019887324, 0.014480744467256895, -0.007407251642940778, 0.07433229655148808, 0.05417152128055227, 0.03140676751986846, -0.036813109198453674, -0.008334773225592586, -0.010621122741918369, 0.030543516404251337, 0.03326307405622003], [0.026650383651240363, 0.06697232186801198, -0.062068095058604125, 0.016591536391631728, -0.03322578046348061, 0.055838546060771814, 0.0028613334765093413, -0.006389116973598115, -0.025415479916085296, -0.005993021980596503, -0.0064735057077021305, 0.0153763975429793, -0.029999588850037156, -0.062858838171268, -0.10018373209919629, -0.015326829183653122, -0.06200298061127258, 0.05182711822121348, 0.03846055520991518, 0.02930299123505566, -0.07961486320084019, -0.018582604785866288, 0.012973627730660643, -0.07852512484139253, -0.059897898952881036, 0.08020811980075192, -0.04703414452873442, 0.0190539540003112, -0.04747611227872496, -0.02619506321432966, -0.06835151274062423, 0.025397728127241895, -0.024574038186391263, 0.08082727203467589, 0.020831820072068276, 0.0772872135427959, -0.04067324033302392, -0.07564236811305597, 0.039039719376615774, -0.03907982760738198], [0.044172459604944765, 0.1090870614228853, -0.07804527832678013, -0.03743715187129938, 0.06304171793086963, -0.03752566687435407, 0.009757489524540927, 0.024353564116467653, -0.020302898155202014, 0.0337991558130685, 0.015756961706209358, -0.031392590470965195, -0.016975193642519322, 0.0052923762299474635, 0.06260931295673458, 0.016644615214717797, -0.05050900363325101, 0.038710399013386514, 0.05810045076242823, -0.04029042798129027, -0.04503316475379955, 0.015658764963026473, 0.03835659704665328, -0.00614365869550217, -0.1172675886444249, 0.036488401459719724, -0.06746667318422594, -0.05839561005652996, 0.060709284922458084, 0.03315241139306986, 0.01328116056029896, -0.011598670042371768, -0.004599384911455263, 0.020429808060102195, 0.03914571879881084, -0.038482669431480016, 0.03573266294895585, -0.04043441709779843, 0.04181760918768627, -0.11723103945004969], [-0.013910507600520358, 0.06973982711900374, -0.01838358551765664, -0.06591709381413899, 0.04983092284135043, 0.004590029865031969, 0.05184568936601004, -0.02823921849973702, 0.03878191317412899, 0.030146535160325377, -0.014381128171410202, 0.05665007738096364, -0.00598216665614873, -0.02731085615084713, -0.008138256292333744, 0.007276220117614592, 0.0039370698092540644, -0.06975395335918701, 0.0208979380167263, 0.08459167498178748, -0.06382569870725861, -0.03868692185239285, 0.0628509190821797, 0.005213607078840826, -0.030733263465275835, 0.012016231775100345, -0.030103087356170087, -0.0019923615652312487, 0.0054427373662019, -0.07652180449392759, 0.00741535260569892, 0.008310757165231492, -0.014505024278176935, 0.03840923235262461, -0.0637353845261648, -0.07383023031669635, 0.01895594125700252, -0.024575541288712987, -0.03229598595043772, -0.019194408714731274], [0.02316809929214112, 0.012593700349486543, 0.0046146394273839575, -0.08116364450851435, 0.14098463458922453, -0.05414259844685039, 0.06574972820553283, -0.01152163361252705, 0.01642794131376193, -0.02521165153628812, 0.043333963369896616, -0.02993220826876936, -0.05450067080533619, -0.031015115523003366, 0.0035344866750193463, 0.14889623157157245, 0.008008430494935607, -0.07025566149960913, -0.0626112070207084, -0.059419412312423064, -0.10419935797293849, -0.06933323405631148, -0.01717394643435753, -0.02735917786556996, 0.04619974283841142, -0.06897727026720328, -0.01689154257662681, 0.039963594081885025, 0.045850394736962036, 0.035539794171367385, 0.020030570871639907, 0.04495501578846693, 0.015492886829127271, -0.023057552106417464, -0.021687352856245064, 0.15821334347347094, 0.0019065454475777556, 0.05253053266941531, -0.05637352262479883, 0.017260684568638218], [-0.0867968443495397, 0.024606018365584157, 0.009649215401105294, 0.05747923930816483, 0.08974594294849063, -0.10559236432044969, -0.030260259482291607, 0.04353937277353319, 0.0325445480272817, -0.03078864110306694, 0.03237439380099485, 0.0006036159447660645, 0.014917608417205606, -0.032568754047283995, 0.003257737392396364, 0.10679226332503661, -0.031235304099791104, 0.049750307211651586, -0.01428376287565118, 0.0921910494282656, 0.015753989446810685, 0.04691858672499524, 0.024250494176107838, 0.03229026310794547, -0.03357448967466783, 0.045907701112261654, 0.08238976538224939, -0.06137357537902185, 0.0015769444342606728, -0.010661241691544658, 0.03924710999651671, 0.07972604766898772, 0.01676370556240697, -0.02853868970497969, 0.04126360939207082, 0.03979672155764722, 0.06902643664949625, -0.0005403929430507587, -0.060901976091096474, -0.051119801681819475], [0.02924364763401402, -0.04706416096765155, 0.08563278574470433, 0.03592792012790325, 0.005601465472456334, 0.02744769831677107, -0.07132369809474838, -0.016154221437791542, 0.010479368499699942, 0.060006590266208845, 0.05626363993565574, 0.03377857932989487, -0.038094528715486686, -0.014360073932082069, -0.013388618798841713, -0.0527259121813987, -0.07012545893278904, -0.09159275089922321, -0.08234920180602774, -0.023394974000869474, 0.043267934381053336, -0.046305861291648154, -0.04727021956996197, -0.05268286379158517, -0.06416564961331937, 0.023602021419423233, -0.06982157094151134, -0.0859975126298563, 0.042798883623973466, 0.013275607969718191, -0.067457233905076, 0.12487668030999237, -0.13449248552159074, 0.008494978285996949, 0.014901984042946653, -0.0949295161975061, -0.00994930941078992, -0.12504506452250838, -0.0017815592677750318, -0.08851944707134589], [0.06471932061235543, 0.04800884617662672, -0.03747411077973842, -0.06628943886549676, -0.01723814596682789, -0.040961186557408845, -0.01802703706411592, -0.008553270807372455, -0.01673389859624903, -0.009248070253679467, 0.012282891561301806, 0.09481158170265942, -0.04908548414313592, -0.07005289762489852, 0.010581825816638494, 0.1289243135554111, -0.07173950998567456, -0.0351147856685883, 0.03464070121965699, 0.06224387050996349, -0.013050076880915553, -0.07310011234714307, -0.022228079148246684, 0.015962330611839725, -0.03429388603367377, 0.05479786723828379, -0.015116092319283203, 0.08394470316483796, 0.06855858252191352, 0.07464701037180671, -0.08548591745969854, -0.06808086373436419, 0.05622531289242286, 0.01865506726196762, -0.057148148316545806, -0.054369733137443706, -0.010354674940538515, -0.09006753329142929, 0.16495709618084864, 0.008679885244479074], [0.01426035626821688, 0.026261362085033248, -0.012996075950570073, -0.0020885048552766925, -0.021399997788193167, -0.012353595835031803, 0.010539229252572127, 0.015293627234353933, -0.06704548849298242, -0.12353447538988352, -0.030030939145180707, -0.07079210929555761, -0.013209005166323142, 0.014724587646657062, -0.10430788272167167, -0.002466243357077327, 0.03480690508385316, 0.049132291755459405, 0.048086005733260315, 0.027027624800831204, -0.0431751415975205, -0.027987934572279386, -0.028405073591391324, 0.024144105292895478, -0.0038857695041180015, -0.0012746338424191185, 0.09366686619199169, 0.03338622995859024, 0.04698326688342342, 0.030895196201609666, -0.025609217712080277, -0.008613762618329789, 0.07002379675857444, 0.11614778513170597, -0.057267242173196835, -0.03265336138343225, 0.1208288543966859, -0.005058528082236984, 0.03609345109482797, 0.1564998602220379], [0.030805843240866652, -0.002631561208341102, 0.04571396646279679, 0.014905024257852905, -0.025878628202420564, 0.03690251493415781, -0.05227880845085209, 0.010309891519866412, -0.009895634100603167, -0.05412139415792882, 0.07719981136633834, 0.03160079523956313, 0.029118187013364154, 0.045050551102178864, -0.08619115755723734, 0.011583170881681641, -0.010551494474568615, -0.04201457615967178, 0.0007922341203646991, -0.0011514218448907764, 0.05257682157437811, -0.05723466445168728, 0.04051184705123308, 0.014469682010299063, 0.003124947986295223, 0.004081358022652533, -0.022343558003616974, 0.052747731263966556, 0.02266963156927048, 0.015264726601055552, -0.03649385546000419, -0.08107513045158798, -0.110602709361586, -0.02040274840277856, 0.09983436880961448, 0.0799490520984082, 0.007681622075233064, 0.024353089573776368, -0.005571151357509504, 0.04014773550376466], [-0.007525354746522325, -0.10086659598062557, -0.04643478494145482, 0.004976019873022273, -0.03658967863054413, 0.06270470775824781, 0.01772944070796565, 0.04354745432796071, 0.008280638085381788, 0.017022958110740345, 0.01788941520303515, -0.007791403292848811, 0.03182218169300717, 0.05911463397248817, 0.039577077073308056, 0.15785517659884468, 0.07700845594969015, -0.018179031960809305, -0.043454038554088144, -0.0485138418417131, -0.012431603834767614, 0.13068609109243212, 0.018788422487604404, 0.017020005033755052, -0.01632468312403825, -0.07052346022879814, 0.04928017585297281, 0.003890402870942173, 0.10597633047700254, -0.004313924519183733, 0.10913730893928436, -0.0014421199512264947, -0.042174742218824536, 0.01868047554782004, -0.039556412152276496, 0.029409073073375397, 0.011983454153550944, 0.07017057030236688, -0.0629023021990423, -0.006776179218380601], [-0.07823944849369395, 0.001112048384984453, 0.03832731940052708, 0.009137465885768185, -0.02888827126470593, 0.06698505222979968, 0.05355371437637305, -0.02622930500104565, -0.0420406070532476, 0.07763109225763978, 0.0537386809266381, 0.05652077727993602, -0.00710765977297795, -0.040823685692952034, 0.047817857095291676, 0.03870317843116105, -0.04814060087919808, 0.0055874688488268725, -0.0012116720178692447, -0.007634154284296734, 0.050334642022526875, -0.021789896458116055, 0.028519533298100433, -0.03819280276387216, 0.009284708845213954, 0.11236628040420465, -0.048140846917016936, 0.044359533153942234, -0.0071238998036572175, -0.043855304861025415, 0.022606640255544087, 0.03155271815579071, -0.04971906273221108, -0.004680892226493124, -0.07789390485586567, -0.04069194691100631, 0.036330594243983876, 0.03198409618750293, -0.021100375242466718, 0.007834267108004242], [0.05746331272446331, 0.03956556044928898, -0.0326906735253926, 0.028277179128022606, 0.01528177193856807, -0.02838675336422049, -0.02456242453169336, -0.11265898294395797, -0.007087848426298125, 0.021472240316796377, 0.028686059566943974, -0.014437107345359402, -0.07500170488109474, 0.0070670542567771565, -0.046994138276552536, 0.00744010063083084, 0.010769339203372155, 0.01656585958950548, -0.05508546011831538, -0.048222548307995494, -0.019714954299204585, 0.07134150420300277, -0.05855052951576608, 0.11308839802617979, -0.1115149550510672, 0.056986089026569584, -0.0710346080246274, -0.03441907313077753, 0.09769207011236737, -0.04597718634170516, 0.04425934823272947, -0.04095459974490555, -0.010060704156415972, -0.05636985831474573, 0.05306878222073404, -0.1310404231180395, -0.004466607149913523, -0.06683964816712043, -0.09181175018328844, 0.07323439844228397], [0.07205842384228947, -0.002492555663963569, 0.05508079672687167, 0.0584084282700223, -0.04967457528092622, 0.03904561742634583, -0.009993445032423673, 0.08446122126567987, 0.005676341362767962, 0.003986385653840744, 0.03077413834190624, -8.642872952569213e-05, -0.10683642975159473, -0.008299792386351243, -0.025146233312016746, 0.017400141175123087, -0.05061281538590818, 0.05962349816412302, -0.040912019260686765, -0.031613145249821194, 0.10438715728821628, -0.021737781636141613, -0.07889265029189295, 0.022912096980811696, -0.07006312978111645, -0.05663981854977136, -0.11026887276106175, 0.009730821488445736, 0.07541522222239505, -0.052008801994838545, 0.06133296698957141, -0.04472412490500319, 0.019400661289977708, 0.03893169946177895, 0.001696859679626831, 0.025250345159550026, -0.018342647259779285, -0.02762440843142391, 0.01766228549638582, 0.07786807787582081], [0.02470065050337958, 0.03431225492926391, -0.03056892789730478, -0.057876785325675875, -0.020936187510489666, 0.01569173377715601, 0.028973751649679906, -0.10314825208996325, 0.00522257240920807, -0.010416343137236652, -0.005737771626330984, -0.052025943130550506, 0.02978285232265257, -0.06418348800338558, -0.04268766236568948, -0.10260214299271696, -0.06681554945393328, 0.07274549816390898, 0.05029147201436486, 0.010069868477121522, 0.03339979443219206, -0.07328743941105557, 0.028180663586838507, -0.03641252888224998, -0.007780397060272594, -0.04754927343595663, -0.029324167950831537, -0.025830120532360838, 0.00989630718305943, 0.020372044333476433, -0.0253164355149589, 0.060128373242572315, -0.037254701155933594, -0.02591368349643339, 0.016892817558516248, 0.069816869614724, 0.02959431143183468, 0.022508434595591546, -0.0420910832589863, 0.052385895514423866], [0.015496205405210503, -0.05134582915183955, 0.002608682479370006, 0.08713918445839416, -0.06407354687314125, -0.045437432614030486, 0.014768922004739567, 0.08143334806982094, -0.013902064892747283, -0.03755409426017417, 0.0517697174426743, 0.07153646325690083, -0.0021514629042243298, -0.019838425309498895, 0.04119248762604727, 0.061033857770776107, 0.07118133592722949, -0.0595410704938441, 0.03918675925679488, 0.022107920929847612, 0.052821900256094234, 0.03320120899159574, 0.026278411455642935, 0.023836487021078503, -0.06899279322855886, -0.032197657719364434, 0.044093156475395134, -0.06096910687031258, 0.015091790617052842, -0.015172779553292593, -0.05784012172368288, -0.06411058510671087, 0.025888423850127067, 0.053106075620162396, 0.02404390223771971, -0.09633679108040999, 0.02550978839001074, 0.05931556626834443, 0.03956519545204948, 0.05717564017508413], [-0.050129870265258794, -0.002098114570747818, -0.022128115127395535, -0.00935338951709148, 0.0677304085280662, 0.06631417171635937, 0.050019186543984774, -0.05267536258070402, -0.07202846114084853, 0.059912177241783104, -0.030321592523804952, 0.048084642139348016, 0.07482080960431119, -0.09890658273838827, -0.017988374054592034, -0.0353735098678349, 0.07726528411299545, -0.0637267605474367, -0.05545181476869859, 0.011334145747550692, 0.016125608663954433, -0.07505978772778767, -0.02591886655811495, -0.026459959805137236, 0.0059306353671147805, 0.023817887134303828, -0.009047413000040283, -0.07546861842014777, -0.033564119534092975, -0.09634510827305784, 0.027561589122769615, -0.05281661569030865, -0.05837160705530084, -0.03506004936214349, -0.03196369260811707, 0.08064887664966308, -0.0019278869290980218, 0.039189741856326114, -0.14149200904607045, -0.007309563393049084], [-0.09168933053972726, 0.056268305596413756, 0.0008247925072958575, -0.002263858048277319, -0.02196059446550381, -0.07470908444509226, 0.03536319386100266, -0.04523146608808988, -0.07113993730111096, -0.07846431829186566, -0.038978649124361726, -0.016552476365871205, -0.001654204683956334, -0.03253916198451125, -0.09520799874048055, 0.0640396982404517, 0.054129627462399306, 0.013451970122289407, 0.003475301840486295, -0.04651257848538088, -0.044407302662652005, -0.0320426222580691, -0.01910516875124982, 0.06077029749617116, 0.0032489900148699874, -0.021245483271052346, -0.10017763283962175, -0.034313532646601676, -0.06469670829710512, -0.026363874425424292, 0.04134113383889509, -0.07986810013200715, -0.031113065543170993, 0.049130168763574525, 0.017060647182535037, -0.13999650913059983, -0.10112854464762941, 0.026138712231797572, 0.008026053303347836, -0.031115044505910287], [0.04853440979910911, -0.03707457542341159, -0.03173953830211259, 0.029938106532148807, 0.0378916592997331, -0.10505980094356808, -0.031003888341187974, 0.0010963944011390596, 0.06153932808517797, -0.033579490081457726, -0.0021163335649510943, -0.048108316111442694, -0.016989240929670545, 0.05127643403692539, -0.042960360996239566, -0.0013743904566244785, -0.10870159006216866, 0.07751431697486637, -0.09821403186370968, -0.01072057100955243, 0.044754199969868035, -0.06003105135219623, -0.0903504434856914, -0.060947792846091746, 0.0017321154415518198, 0.04005099445534817, -0.009364649479704008, 0.06559811895554496, -0.03271063510008007, 0.022557334041549058, -0.025823155278493014, 0.040615273167577376, 0.01689946038070123, 0.057666687740005454, 0.03230291057636827, 0.006737318081159273, -0.017093697113566675, -0.06448874802177386, 0.015665473235138616, -0.0636021848613357], [-0.01366740782997557, 0.09023703663625737, -0.007440052888612598, 0.04175612294186865, -0.03321383045726352, -0.06949564201450029, 0.00862024777668214, -0.067982376575097, 0.010878464005066042, 0.04662369263844892, -0.03578686784398393, -0.04259799136088815, 0.10116095500376375, 0.04940344699566642, 0.0416649883977548, -0.020772759600475563, 0.10441501465542194, 0.08418279046137164, 0.03191826516598641, 0.04532190376356256, -0.06029750248977096, 0.058567511421440524, -0.0172403225485153, -0.029222711075275753, 0.024281358458109668, 0.01777252316271762, -0.02747742858651267, -0.007297444809299496, 0.05824160578179283, 0.003861871685120555, 0.021282240665579506, -0.10301819898678208, -0.026319824598757854, -0.07136933107125666, 0.01904702362201679, 0.056284747860642324, 0.026130047945097174, 0.0407096990597108, 0.034358614835592126, -0.06726937482666236], [-0.04641234125434395, 0.034729805013109134, -0.074603602482626, 0.025094420820850182, 0.02694661303337422, 0.1180847885724837, -0.09694750789419652, 0.07939006611192417, -0.07228509089066763, 0.07503927667661943, 0.01285834288547287, 0.0495659477533849, 0.07633727611789771, -0.013984973753793343, -0.013919828569120225, 0.09041728084699356, 0.024192785065014377, -0.019166880294928565, -0.07244969810133663, 0.006108375680750151, -0.0705721905826647, 0.09956584375432125, 0.018834338314538263, 0.014982964710331777, 0.06240080371584376, -0.04174634750535758, 0.007124341674026282, -0.04997552156910371, -0.029356072915796196, -0.05251277788732978, -0.030576640271121582, 0.029329172677085725, -0.007391706392827886, -0.06334670143220242, -0.10501701232659913, -0.003856770242579465, -0.05447753879804204, -0.037829857212633766, -0.0009431047860326657, -0.09333910322606254], [-0.028471094922860624, 0.007420678394776155, 0.05978174649932582, -0.07612994167687254, 0.07968639478310717, -0.016735862933177366, 0.026495402257740108, -0.01599517376578582, -0.011706192887419328, 0.010590095099699123, 0.002918089813281864, 0.013960255283998269, 0.06327731733890002, 0.043336173083287494, -0.003358341115815948, -0.03229641425429022, -0.05523622183599733, 0.05774292068723841, -0.03464649623807084, 0.1195721746646859, 0.015755121130895316, -0.008688630251903763, 0.08307830374373507, 0.07829058507598678, 0.01288446546323659, -0.06054353729096245, -0.08732940757549924, -0.037129170641649174, -0.10179247041980506, 0.01397980403105689, 0.08370650857862182, 0.05098640377870486, -0.06654545935192424, -0.07324810011750342, 0.015751175819290933, 0.001973281162729493, 0.02962833540381459, 0.007727144362943195, -0.032833499922247295, 0.000314300147466344], [0.05283661674755468, -0.021607381825046807, 0.07030851903240297, 0.0907839463633048, 0.011776688787590809, 0.07119592517947543, -0.03668763153892871, -0.14115233154185466, -0.10465786436420792, 0.0005660418611987043, -0.02793100572590713, -0.003825379949001592, 0.029944107722233847, -0.06077878282653357, 0.01601485182995961, -0.017412071017060354, 0.03224910364543225, 0.09999309666119202, -0.0900755129308657, -0.08466856822038389, 0.06789168759369167, -0.0602013180584117, -0.14140882144211436, -0.017051940401576204, -0.07500272763586602, -0.02213072924593176, -0.05601101348074751, -0.03219170525265977, 0.011007032976881817, -0.007887277895792015, -0.026554019552390232, 0.027844747111035555, 0.006547921838154505, -0.05524890187882014, -0.01982949205646089, 0.03313269935069733, -0.11601551259395096, -0.01036151916020367, 0.04002246368064035, 0.030498165509824992], [0.10086673482210363, 0.004236706808848521, -0.05553384487401901, 0.014843732506649436, -0.10598010229477545, 0.042091662796412035, -0.05814269895419777, 0.09062060578407723, 0.05032309591658779, 0.03288389827390898, 0.08194767288317435, -0.025297917644150642, 0.08348556806103093, 0.047715352608321625, 0.02308098717412544, -0.024609432964514576, -0.08392908879361566, -0.022996189147765897, -0.029806842808171218, 0.04799304239150167, -0.03393912120791955, -0.09567984590818358, -0.0405484035345174, 0.08257395381962795, -0.049610893191801474, -0.020033676717198908, -0.05715943688963723, -0.0022529417689006025, 0.06252970250936675, -0.060288778538224924, 0.061645759818438485, 0.04881279167918728, -0.025341470471988238, 0.022020982607842007, 0.02441974989261043, -0.0036522795224624696, -0.0021801807423962693, -0.030381711242684933, 0.027661939628998145, 0.02055628812627035], [-0.005430186390466402, -0.06448201826172749, -0.01988898213695075, -0.09788024747353856, 0.029552153148993343, 0.07413347646345066, 0.014218298776826668, 0.010537604434027367, -0.053435812484815506, -0.038041983855394354, -0.03156525406554254, -0.053573542724870866, -0.035565624660678856, 0.03621831634441821, -0.026524815420929583, 0.0339604325194171, -0.0953194393590042, 0.06178559220150834, -0.018927512460736116, -0.09573320636141154, -0.10069695207254281, 0.07026229291278625, -0.01752600820568871, 0.013762951819002911, -0.059720849810654356, 0.04289467554386313, -0.01423077507440331, -0.007103062332118361, 0.05361847221820223, 0.07048465627130548, 0.009325287084594916, -0.03023919381020009, -0.05833492055284321, 0.03417304209887837, 0.05996923789054821, -0.02175182088232112, 0.05368158027897509, -0.014175790227664511, 0.0841495190232741, 0.02164096351947607], [-0.04072896066249119, -0.015537071331107525, -0.02948065393245122, 0.08493097401932581, 0.03780736987387434, -0.05946181407967352, -0.04863235158447338, 0.0007495893075548198, -0.02317945080326909, 0.04984817705762512, -0.014708803923173622, 0.037624815457655766, -0.09436353798436417, 0.009445192353917498, 0.05694637132843231, -0.03967236458387867, 0.03833987335040375, -0.025814177569428068, 0.00395119999938013, 0.09886134871622833, 0.007659880959089734, -0.030036334963147414, -0.04309689131174518, 0.017825431882487145, -0.007021494566928917, 0.008253721194994599, -0.031842612227269564, 0.03786596481135247, 0.05093091778819681, -0.030150855920352965, 0.015244185769475317, 0.06761721822134492, 0.018186375488669717, 0.02483007497147832, -0.008897602431170545, -0.022256469579670007, 0.028696146071902736, 0.009055433068179021, -0.0010248160564251957, -0.01850280772269976], [0.07207959567012882, -0.03829058940536764, 0.0666877144297699, -0.002182151068303337, 0.1012657469483337, -0.0058986219893541365, -0.000520258339875982, -0.0075608484732733895, 0.03284523550228132, -0.005501612839370947, -0.01860676926472399, 0.02454876881608431, 0.04124699561954307, 0.08074973665523251, 0.0582942161628809, -0.09986238664962567, -0.038276045374011844, -0.024097415589457282, -0.027107867233247155, 0.00017660044537086888, 0.055313647934551353, 0.005089627543686474, -0.021991253971812518, 0.0062176520773985396, 0.007013459658423185, -0.05459592098533817, -0.023262112469023113, 0.02615373345575738, 0.10826470228099362, -0.11492408902203431, -0.08201160488679189, 0.02664307700682647, 0.0066798263451673615, -0.02937515096836072, 0.0578790933829436, -0.020065964355240842, -0.03240324365949532, 0.04954644786650806, 0.003913328306484829, -0.10123947957142058], [0.040664984048438844, -0.016066520905383772, 0.03818708296532702, -0.06175288026626786, -0.016680283290131652, -0.023410671907110308, 0.037965656609502976, -0.06754872449359638, -0.07220040327360998, -0.06286102306900977, -0.016816781514458957, -0.10358284726147696, 0.04581416844860876, -0.02549798941119451, 0.00917957113776027, 0.024034227402749644, -0.0304037846383393, 0.08718953931416419, 0.0024582189261370753, -0.014497749624900158, 0.015210261662123956, 0.04319773822852843, -0.041720701770730555, -0.061502303411396085, 0.040322474776269795, -0.06771384166360565, -0.026700207048481275, -0.05204493577502068, 0.1499313838322225, -0.05126406447810139, -0.0333334143231697, -0.029558802489818112, -0.008128007919210537, 0.04315587838920394, 0.04070967464617459, 0.05044841163317764, -0.0650275546364863, -0.01903813219156066, -0.04673194368257868, -0.06838469019020099], [0.027535300165348053, 0.0355143017673655, -0.002781458013959823, -0.05122457462922834, -0.10089606537598472, -0.02770899448987083, -0.0486545754317011, -0.04065457753245551, 0.07549053355305702, -0.033631843810513366, 0.013190118583216824, 0.018490725262653166, -0.009745576485592182, -0.028160209772293783, -0.0430425478084113, -0.01073880982951468, -0.0282773000368469, -0.11583550568827158, 0.003795930730608752, -0.09110424422749364, -0.05483350535009408, 0.008538175725855033, 0.0054385653597096295, 0.029340172322546397, 0.00941335093534718, 0.023951278041086092, -0.011253674968681845, -0.02896993276570535, 0.016248243033498807, -0.08203421327297328, 0.09057058459353251, -0.06904536127131043, -0.02379445395699155, 0.06248420555576437, -0.03680458625696613, 0.01740639594453122, -0.08777252952372594, 0.02488737889528533, 0.0068895310570733165, 0.03856996371262177], [0.014125084878848832, -0.031426306164847775, -0.06544469384115104, -0.013970277694387006, -0.1358194017347621, -0.06109818345578772, -0.00709961373509276, 0.0062452739353935464, -0.0019023235388937324, -0.05413175546090988, -0.12881195458108555, -0.0223987242658014, -0.051472798916113935, 0.03863088454842296, 0.06447599868702975, 0.07304718457489691, -0.03913628638055765, 0.046437684920506296, -0.10371120262086211, 0.049536008986965065, -0.009721049646564776, 0.026877641911004082, -0.015974335843263465, 0.009264825504432425, -0.012102314647916794, 0.011957315770746813, 0.03959144541808805, -0.03104003931454788, 0.005142892153573961, -0.004876642807095435, -0.043884891351106105, 0.013864675018103725, 0.07709428221750463, -0.07779772228963108, -0.06138778117802758, -0.052573227682174796, 0.15019062041149098, -0.0005678142282145553, 0.009518072715463916, -0.066344556437276], [0.007426953540697064, -0.010078754378990952, -0.051232287568907145, 0.021386763360374195, 0.10305686256978576, -0.08126231856308617, -0.0392465297529245, -0.03349322435259331, 0.0010664775303055743, -0.024322670592920745, -0.0639065428281193, 0.08187676178121786, -0.03101195804444674, -0.07620319746343276, -0.04592433818458396, 0.014171583974547423, 0.06371178632755871, -0.02835737915257762, 0.002946978028470733, 0.055600700828913316, 0.05493404351908263, 0.13179191960194042, -0.043515204350957674, -0.043084335848990345, -0.0334241904545699, 0.021112157146155112, -0.0769500074966126, -0.031906303427517886, 0.01215913254242214, 0.0078041184537480926, -0.016002803244767105, -0.0039685599742398485, -0.004512711993508668, -0.035995974551807156, -0.025301922441533262, -0.008744678571670751, 0.043786784226128514, 0.026781905959591512, -0.03885586334679059, -0.05100455554786506], [-0.014040360697728635, 0.12893010888234674, 0.025462249599802818, 0.026828860525154423, 0.0007637153535150176, 0.04717952641432179, -0.05522729206842742, 0.0614331100020632, 0.012520918482175767, -0.021400602290606738, -0.03519629775281598, -0.0903635180097709, -0.02725080230693391, -0.05833236885875292, -0.006369916533686591, -0.005563099200428053, -0.0064957526563020635, 0.03077106135111579, 0.01550244776928018, -0.03858862588156412, 0.010920930480488707, -0.013818179932339653, 0.014343305848752543, 0.02106829583378717, 0.043833944499075884, 0.06880320709578697, 0.05593281343609964, 0.030900889918358168, -0.060397695045519936, -0.08583930061766017, 0.040024185402116115, -0.02517373197775209, 0.00540565619969605, -0.022100704000676333, 0.0159176307121021, -0.019217321696028338, -0.1128900055126247, 0.002595295223227301, -0.07406451540761763, 0.0009346831964022805], [0.0073881370784652485, 0.08766715707246116, 0.07955005387318358, -0.010449229819044793, 0.065376100632638, -0.014543045272251516, -8.985423005338759e-05, -0.007791374546416933, -0.09039521515800235, 0.017167336352167308, -0.04168970077018957, 0.09809900087729202, 0.045110731592665536, -0.024823742643340814, 0.009801678889575624, 0.034855206911053156, -0.04858282855614348, 0.06751121874858426, 0.03635643307549334, 0.03973640029862335, -0.06617609700338727, -0.00959982774882654, -0.01775910873619331, 0.02903614242154424, -0.005893382339926197, -0.006928993176434621, -0.01183370939586845, -0.013356111261257991, -0.005241882035917854, -0.010178008507351866, -0.013025820615648451, 0.06504102253353537, 0.03908014558626004, -0.03209820177100067, 0.014085698699106638, 0.06679015884530347, 0.023265912780176597, -0.03906627857019419, -0.0008135601011478558, -0.00985600412618762], [0.026476618766608326, -0.042863591378443616, 0.0872424650830052, -0.05478618083187382, -0.033383033753626376, 0.0016484859324264038, -0.09646410102323212, -0.027392842363757185, 0.019097814115253877, 0.017673104831139784, 0.022696454567984966, 0.0018144253364300162, 0.0889279752411049, -0.008677088805583594, -0.058015095441518255, -0.08713256375152162, 0.026187121986506086, -0.0028756390238672412, -0.05511162095119584, -0.045271921824319716, 0.06222832348438526, -0.00033275561617616273, -0.020267633016703545, 0.022165950737184265, -0.03827029412174348, 0.05659705358098545, -0.04253703011428497, -0.06954631644703517, -0.06610071068368169, 0.03698491563378145, -0.016262265633088656, -0.030646375033840337, -0.0508841986224165, -0.002931153262481953, -0.043770220987333894, 0.0008252913209995896, 0.005907135066634512, -0.04718390117164864, -0.029488284259191533, 0.023657802611560273], [-0.013659706252385004, 0.025106880604937785, 0.05147528553572072, -0.06486311311388306, -0.03086465262126593, 0.016241678078270778, 0.02405638471679815, 0.02584342035058613, -0.0005109796201208366, -0.05890662219592556, 0.020161335563446577, -0.024044950154295502, -0.036622528228805774, -0.011411316116152764, -0.041729088317763674, 0.0425098873913505, 0.013805903741362797, -0.015067072667934655, 0.09074336369959828, -0.04893916960652919, -0.04332398260355459, -0.009321757360769794, 0.029262987428948437, -0.062462541171247714, 0.07010706251129632, 0.022080115142607108, 0.09502607763108466, -0.034656181623451555, -0.08701239924049853, -0.07741908886437915, 0.028589408913945864, -0.0063609913644020145, 0.023792049483987308, 0.03492954361653267, 0.04372382900114466, 0.042497273888061154, -0.0056745438216568335, -0.0394622212648605, -0.0546733500968692, 0.016487228960886065], [0.10750513607874104, -0.09754922386035592, 0.004533901952193098, 0.012281792579560349, -0.02820140434940751, 0.025991607840228668, 0.02727632205669061, -0.11322592528940494, -0.04028714015954299, -0.061058530330347395, 0.02548837092326997, -0.009103971698871068, -0.030290160444067016, 0.010191579692934053, 0.04603148216776947, 0.018337542080896663, 0.020266700730648186, 0.004742765174833967, -0.012110788898728528, 0.06113515328604377, -0.04078841162362288, 0.03465989673377115, -0.028790325363405627, 0.05677784371065938, 0.006260126894812451, 0.023526536963102113, -0.06150631190639806, -0.0012872014233346126, 0.07258274383332315, 0.006369701175373924, 0.01958755703875048, 0.014566296469098558, -0.026626108968301466, 0.0023519449071723792, -0.024803176403308203, 0.02071714039923118, -0.0024772925459290865, -0.011399399674201937, 0.018828438537107077, 0.0958009989802486], [0.039975303703194194, 0.020853275858623586, -0.02012304425732923, -0.025384330131472822, 0.034230133200087984, 0.03572180200704922, 0.02950715078677434, 0.0623431379494604, 0.018688980164451793, -0.13359428713099777, -0.06200545646830344, 0.040769855488793916, 0.0005620231432568797, -0.000733560944015502, -0.09245684138934594, 0.026620415819603224, 0.01475249822463435, -0.01600418105188845, 0.06995677136979614, 0.020618392018724566, 0.04030669823283326, -0.008448113523739592, -0.0396415935432772, -0.06768381205953841, 0.0862856509264681, -0.002398211227001251, -0.043392153279649535, 0.01888728387697273, -0.0160601247557347, 0.027104657723599712, -0.03547477262884803, 0.07502998529488761, -0.025608115233648882, 0.03152304338505244, 0.004297155913952599, -0.007524932527089024, 0.06502894280083908, -0.026437236858116775, 0.050480699020717015, -0.08670960555357544], [-0.003173578629721565, 0.010910544907454132, -0.011779847305723448, -0.0026196348586119984, 0.09023764681823823, 0.06302099292246273, -0.0175727657551602, -0.03003277409446837, 0.08592121433109352, -0.0027725006170181508, 0.03538329294686981, -0.025029177181956005, 0.07993463136424549, -0.05959332419458771, 0.02851435566087415, 0.09224702931833074, 0.0480451286403687, 0.029823050746053237, 0.08497889399130738, 0.011031786786748415, 0.003557206018815817, 0.04066138186432753, -0.01576622698726064, -0.07364235134368054, -0.0703937480125766, 0.009084519393810287, -0.06650623795441069, -0.03267738872496834, -0.021014506089255227, 0.08398296740347913, 0.05830440690435173, 0.02927126585198646, 0.05342196969274003, -0.054983242972637694, -0.031848306071336666, 0.033155940461805776, 0.021465071613757478, 0.031106451087951195, 0.10220084533738016, 0.0027840251542969206], [0.09678558966984961, -0.050982823526815976, 0.01312136594325632, -0.06373873183199875, -0.006357015644671962, -0.04889239041111293, -0.015420478428182326, -0.0330966866898788, -0.0014498624928176158, -0.030377110534235634, -0.04617101781799197, 0.13898868105090337, -0.02442785730128416, 0.01365811206070974, 0.04520553456486193, 0.07090710217498121, -0.00714265257010569, -0.011285873630079138, -0.0006207758591200577, 0.06181014129969308, 0.09214905291817684, -0.0052058897704360795, 0.03309158236745029, 0.049941392920090796, -0.026296996052517764, 0.03809784841394195, -0.06905206019760653, -0.034560997600736276, 0.041757111368697176, -0.00039328754249821847, 0.057608728089972194, -0.0004978652924651221, -0.009774816304715222, -0.035461767258170254, -0.03876533277838731, 0.016673123354047595, 0.06450979061691801, 0.030855065212454517, 0.030414632754617515, 0.01412579813823403], [0.0070698026445429295, 0.02457283106726889, -0.00951421893793825, -0.007509308123175305, 0.007222806855909574, 0.03415970134336047, -0.0356532218540868, -0.04743181785195252, 0.012886686036472993, 0.08461713326021957, 0.08490963764124701, -0.05329042817340359, 0.025006595816652013, -0.06706126006872652, -0.03614944100160619, -0.022168634724110448, 0.008307207000920764, -0.034284646252174804, 0.0014291145581693673, 0.047435414754984716, 0.02525914963630475, -0.028141595945361808, 0.06372646733959086, 0.002977517012849811, 0.03377339400586478, -0.011037044466355417, -0.062250542074651, -0.016655378570214856, -0.00544638743299074, -0.025591177371277637, -0.022039004687310588, 0.09513615185386062, 0.012861370424682678, 0.07835433290347721, -0.04120949960824804, -0.012234237478917775, -0.008167651029149658, -0.01289669755128989, -0.0025346279727116207, -0.010361294825114283], [-0.03833464831279121, 0.004979245667590001, -0.02664255421230231, 0.02952689032752703, 0.06695625970385184, 0.054747026510851914, -0.04230014863501162, -0.02174558293259943, -0.078176155147175, 0.05779575331440316, -0.008831170254482101, -0.04989933019244494, -0.012458226174512387, -0.03820321077311744, 0.07024350102161314, -0.02750421385658321, 0.04843109621094488, -0.009822001330187026, 0.07576246646968583, 0.05739458075344045, 0.025277398566432716, 0.004743386219650803, -0.03413855826729036, 0.035925780371721776, 0.0034426063348627456, 0.008859712550393408, 0.0027631772975501697, -0.028064059404204054, -0.013132475522450993, 0.026151073834668293, 0.010896283631589659, -0.02882686343329803, 0.06316795635690499, 0.04262549080950042, -0.04762258025889419, 0.025701941920517817, -0.029782882268123558, -0.11075127625068312, 0.06764182863942426, 0.014668186808092634], [0.012393724664902303, -0.11631017227200774, -0.052260996531170084, 0.041290883277763125, 0.010536723535734364, 0.03302088914675141, -0.07207187716069033, -0.05781771990720362, 0.023940586960851423, 0.016766864409571973, 0.02785299572199591, -0.012614516137065093, -0.014811270428964277, -0.024069989206134117, -0.10210918048069013, -0.05463413572213363, 0.06586303256651625, 0.05970287603633157, 0.02544761531515792, -0.018248443255712902, 0.03998413778709399, -0.02974553994465244, 0.03648126000500039, -0.0812120256417695, -0.01762548939733696, -0.0014209608261754561, 0.03891197649380266, -0.01507841456903231, 0.01935320341819666, -0.042454726416353956, 0.08108769776516499, -0.002830887079618079, -0.08898298455537906, -0.08839929680067972, -0.015676112197716634, -0.03353032678726704, -0.027128212377342892, 0.057914737094759944, 0.011675094501546017, 0.017217518666363167], [0.014781063619864244, 0.09436971010682949, -0.041231840443626926, -0.030595285842495764, 0.0001913213526338804, 0.09645216071944787, 0.04181605897034566, -0.021804253509419044, 0.020791106643129033, -0.07127047123727667, -0.04140767730565962, -0.03793932303671033, 0.0026899830256141635, -0.0957441660756616, -0.04361207884583075, -0.0661446899000742, -0.025323229408923526, -0.05670325006502866, 0.11397738891762324, 0.0754886868372912, 0.01747463076120137, 0.06058166655379394, -0.08570157641346633, 0.060432170842977945, 0.028697208463575874, 0.034847334773714614, 0.08633945084870472, -0.09207424477711593, -0.036833860202455874, -0.035701427785102983, -0.02340145975436693, -0.02019481375358933, -0.012544448943201768, 0.008943661085202077, -0.03333240553661124, -0.0019775296834063554, -0.06986986384964519, -0.008718371898229976, -0.05699379962147344, -0.0038188725368704214], [-0.010596872226240443, -0.03058715328618621, 0.010870233980833517, 0.04821160309013555, -0.0032221910691172286, -0.08958448379610677, 0.03542533502735254, -0.03188941671860458, 0.016180603175831226, -0.05134162488863622, 0.03616659483423095, 0.056595590363920804, 0.18303091995944895, 0.037225096029507375, -0.05557609067244944, 0.0378211128431465, -0.04103079670888935, 0.011557458492974446, 0.027177772970834166, 0.001218507179881336, 0.048302852964615825, 0.08144946071308182, -0.01073080517055995, -0.011388885807684284, 0.012564997094086466, -0.024045259466437045, -0.021251377318160056, 0.0650820644802607, 0.06144357664510175, -0.009037542964268995, 0.04619939602374593, 0.06797047337226285, 0.03471446397886796, -0.04927773297716349, -0.014680557652954007, 0.07048443269122129, -0.004374180920967117, -0.029358000402145118, 0.006973726827410747, 0.00895884534443091], [0.056229252571490314, -0.028344927104554985, 0.015012012052476719, -0.006082283151345091, -0.04362248654664236, -0.08187784696863001, 0.00329002444822642, -0.04381810484666022, -0.056071641480630756, 0.0805918023671131, -0.058579746721299716, 0.022475140364661715, -0.0078205914506973, -0.016866160269592898, -0.027263813991928804, 0.055264611886220914, -0.04492392513157175, 0.023526171982440124, 0.023953027479983197, 0.08029907642172943, -0.03367629126660293, 0.039692863746685444, -0.04546187337472146, 0.028362186849985836, 0.009981696939347372, -0.01397223588104073, -0.02391202719991052, -0.03138850269374251, -0.005924840975786268, 0.06059555069747608, -0.0656180444790817, 0.10554426230580916, 0.02287922818529866, -0.02822826874701327, 0.060327218225987925, -0.0409212346827271, 0.0463880836537931, -0.04342980438486781, -0.008769858991261304, -0.007493416873741249], [0.02931183867853953, -0.09732373636445105, 0.0553895297299526, -0.010189570173919374, 0.05546263229152603, -0.020193650767636517, 0.03969962391394075, -0.01433135244997201, 0.013655559053329993, -0.08666656253430423, -0.028641176090886105, -0.03999655163622696, 0.048370793568708596, 0.10753774386511043, -0.03041762047513909, 0.062048027478401345, 0.06364562275277287, -0.005599651488158864, 0.08139156711214827, -0.01699277665042771, -0.0007558298282610821, -0.06618320979056228, 0.03580419548561341, 0.030603721898289887, -0.025439680111706924, 0.074731175956672, -0.008321857126946877, 0.0630425240138709, -0.09477747695459361, -0.0017868698849849776, 0.0006735754744577787, 0.02896526094528585, 0.040344849389365466, -0.0833761537859721, -0.011952773374972324, -0.051907292057790856, -0.04773837054466343, -0.04615954789932681, -0.005493257744023573, -0.09823863806766422], [-0.015210644968234157, 0.10519194518143311, 0.043064331632115066, 0.03645968191413598, 0.01638693974693135, 0.00518039928070324, -0.07332137384821422, -0.011728998045922829, -0.027205898262515914, -0.017487091096550604, 0.009763025383031396, 0.07677618225710084, 0.03326362762600246, 0.053026355461838225, 0.011044696006367817, 0.0775164053001228, -0.00981615090087707, 0.0826098025173207, 0.07403850461735059, -0.008985486028225059, -0.03560999611927216, 0.05069002213050491, 0.020934499559127, 0.023924356928236964, 0.04253126699637931, 0.052958663300058696, 0.14781148231158597, -0.0049085281012039034, 0.036067860779458547, -0.0352331864882355, -0.029158619458874355, 0.05999726037560128, -0.05947342568983683, -0.09961772547707301, 0.023494064249867254, 0.1539492068157249, 0.026873939792306907, -0.09912953938653621, 0.02156196589718822, 0.030714745394577088], [-0.009388459538666833, -0.04965825751736525, 0.03824589685009475, -0.030155936703462546, 0.022566022120498803, -0.003087073249215413, 0.05131836582361565, -0.025496386369177976, 0.023937401115535772, -0.025719706848990772, -0.017396970166102504, -0.019947592182079327, 0.049699482210793504, 0.08345456108891076, 0.024974088683942762, 0.03578589660573549, -0.0520423880692385, 0.08167039340929871, -0.03131893961051658, 0.0605688962098259, -0.046808143155804685, 0.024116014989935392, 0.046325078335688025, 0.01739842457386718, -0.022734880028137103, -0.004003586023831653, -0.04794452472801831, 0.01329729844885518, 0.01307017256775361, -0.1306171326068249, -0.03107808451350069, 0.02986181701824358, 0.012480667965511802, 0.03760271487970958, -0.032327934997525086, 0.03006341427753217, 0.03903311622575767, 0.007474826104807562, -0.006764337474631336, -0.08520203628084226], [0.03484165821476581, -0.0703158052723878, 0.017288015594950263, -0.025377848831618217, 0.10587461915387966, -0.036381408556929576, -0.017794880204887918, 0.01863592496898452, 0.014694381845675893, 0.01932994222619532, -0.11141609539269737, -0.04160907617728726, -0.07055021936737416, -0.017633366860593056, 0.06479174024513933, -0.09003076615266424, 0.012038748246838293, -0.016093199820269636, 0.05197626274192075, 0.031070181144746096, -0.05110071266154072, -0.10208011094580227, -0.01215699994463303, 0.02083862680014199, 0.019335279525720096, -0.0059259581755974145, -0.06168598631895982, 0.07686685156004122, -0.008230480375313647, -0.1109679677130687, 0.038389167274485575, -0.03392515298118899, -0.08917678959667119, -0.023708357152896004, 0.03692058557036959, -0.028405681374893976, 0.042460242849063815, 0.005999673599575777, 0.060307921464140504, 0.06902399264617069], [0.038682048515234005, -0.02382953712928118, -0.028613848267405588, 0.001288462022989282, -0.010325693491065066, 0.031382900901560165, 0.01982563032484358, -0.008936268919364204, -0.032003074253404075, -0.05111413383315916, 0.009056329115178879, -0.07024501523985587, -0.03694403511490901, 0.04482829218395685, -0.03282922008769253, 0.04960293279339987, -0.011872391961898843, 0.015406870338679088, -0.009987838906422547, 0.026190164188079658, -0.003172079101453616, -0.03219408151220333, 0.01844240924309528, 0.03395777026017138, -0.03297906517838142, -0.09172321631205708, -0.019458660595685462, 0.08382910588232577, -0.10049148829584656, 0.037601504563649336, 0.018166863062893262, 0.008009351808308926, -0.06380877195299009, -0.02863254908691617, -0.03704963300411496, 0.08002832290351461, -0.04880252509446948, -0.04755013826093211, 0.01282783976042778, 0.05218189166599037], [0.005552831113809092, 0.020276963294302997, 0.08459870320854525, -0.03597498226548603, -0.16332767346792176, 0.026888562309639236, 0.01012586429435398, 0.013205592430308666, 0.012201572332866626, -0.013777576784584706, 0.019089933303401696, 0.019030955035709396, -0.08233285933614258, 0.017027168830709673, 0.003945254926393506, 0.05174497343418313, 0.01297389299675158, 0.011340628808663912, 0.012971958911895058, -0.022902590505570954, 0.035764330440997354, -0.031156573261881645, -0.00014700160767174017, 0.009273537580827445, 0.018138219323317446, 0.0035380008866300336, 0.05340408837121348, -0.016390814523361306, -0.03422107691444637, -0.015658371028104818, 0.01747954135030569, 0.04094469237177114, 0.007216424322380945, 0.012172497139535124, -0.03305591953026057, 0.0050868219028972345, -0.05341277574400213, -0.02202338500959686, -0.07306246179950172, 0.1089979476231942], [0.04866389183537475, -0.06314733375798227, 0.022537874966938216, -0.07277437298391809, 0.01373945052480584, -0.021036849118196286, -0.00462190297606466, -0.0453052893788986, -0.001353178071959039, -0.02704272019742267, -0.016853335785093036, 0.0766436446884417, 0.02180449738728772, 0.05278833339656266, 0.043186850654511354, -0.021413676308423682, -0.08050276798865447, 0.022698617731433883, 0.0016750238103068985, 0.013445809310593115, 0.014679276569455094, 0.01688351480538643, 0.05444445736303169, -0.0044386047306995725, 0.013664375301369944, -0.04750023775970291, 0.09717180671435861, 0.012385492111966786, 0.10085330574739636, -0.07411273175770712, 0.013439398237600816, -0.034658722030497816, -0.06436573023029449, -0.012264137746157894, 0.12102104796935624, -0.03762292183881426, -0.0057833602555239175, 0.051769805337080914, -0.028278908439554187, -0.0026720599755051624], [-0.02305540637512416, 0.0046571276197741734, 0.06940963456758605, 0.021517444087329776, 0.09826798566571356, 0.05700062609565634, -0.015872784010680614, -0.010774322741928811, 0.07913718436276501, 0.040031235304386785, 0.03151426477462048, 0.05961981349967808, 0.07043392457042287, 0.11855591460730336, -0.002213364837701648, 0.09745647016846427, -0.03202083096915151, -0.027868363184435814, 0.10153972707780438, -0.004758035166480375, -0.011701319002367701, -0.022088702844673597, 0.02947968800299056, 0.006907451567331276, 0.10564198258477722, -0.06336164507093853, 0.029261593863247427, -0.0627038707040369, -0.01957630959364316, -0.013169984668535873, 0.0016352269453515083, 0.04254594733032039, -0.029162106944321472, -0.039754061670822315, -0.008230252789318382, 0.018250824473255222, -0.07875704264447271, -0.14274772241954756, -0.0850089882179589, 0.08381715866106208], [0.018096009848532543, 0.03375744912472486, 0.148506835710226, -0.017605609527110825, 0.014651315047645675, 0.0235803243429395, 0.01837651223154111, 0.016822276682620346, 0.04779885057772139, -0.01208278640033946, -0.012550327089801484, 0.002635833547510514, 0.01225156990186705, -0.05158238633554135, 0.03330878425262109, 0.007835581580622636, -0.08246203006563062, -0.12483301816653405, 0.032750847558747846, 0.12838255648183874, -0.0095034938172341, 0.052938424485938884, -0.02601147746262321, -0.033885007220930304, -0.04020576688441585, -0.03023353014288736, 0.0796720177730175, 0.005953487108715755, -0.026887277031965334, 0.026208468209907097, 0.0008331355588182474, -0.04385596188838393, -0.047129067479881534, 0.031759933011424824, 0.005288294140972793, -0.038624890834626634, 0.02228360769855915, 0.036274756619864026, 0.04480091398914032, 0.04210531334812481], [0.005388248149516761, -0.007981444283587187, -0.02388649516874625, -0.0689384178194268, -0.005010986623024546, 0.026505565283741733, -0.05589126698936369, 0.07017642775642093, 0.006664621079378863, 0.05317108147690926, -0.0669443881259541, -0.029770693440377853, -0.020649534135437596, 0.048623326611951984, 0.10547055857351062, 0.03661341217204247, -0.08350517488605534, 0.0574624942155469, 0.015482097807592583, -0.03982775827689423, -0.06278245351323512, -0.05726707253329764, 0.033669469627276905, -0.048196967579645485, -0.1035147993767125, 0.015215193101057699, -0.005272432038060324, -0.08566829347634214, 0.06509384006739156, 0.07712901450677978, -0.11412056095264786, 0.016621925286632266, 0.057615198534754504, 0.06478296708121307, 0.08321027759233708, 0.014451979612882273, -0.01078221609004575, -0.03848781802577676, -0.00881368055511634, 0.025349195525715004], [-0.03403298612918963, -0.04690329980460835, 0.006549170019456456, 0.04293790096202965, 0.07330742117889939, 0.0004430909139437384, -0.010217028514102168, 0.07185317930769658, -0.010681469109725769, -0.027012553942296087, 0.022341151259149802, 0.01728001874290862, -0.06510415169587894, 0.03940641287758445, -0.04630538824181928, -0.022070406789570805, -0.16091600411720577, -0.017505695234743622, 0.03908431256017322, -0.06101140783860959, -0.006836620116555457, 0.009618414953448772, 0.006252308575670424, -0.00914909193019456, -0.04892178943901534, 0.001794094023909877, -0.006419177395338802, -0.051922575882217964, -0.002312211865040085, 0.06859160285044148, -0.008367968145979766, -0.03875540261309294, -0.009741718899667722, 0.000992536614733691, -0.0393711780442493, 0.0088872448015814, 0.12880810757855876, -0.06377896812374949, -0.010710072788788253, 0.03336444601753373], [0.05153170143159574, 0.05260671205718613, -0.03374960926597535, -0.010461103916999302, 0.04444674594109857, -0.016963417290371943, 0.05043936160596018, 0.0457644437203289, 0.10908248690024726, 0.017798478682167447, 0.02269465763838241, -0.03171537875324156, -0.027835658494528782, 0.0038958826539672556, -0.01824264994562388, -0.04094340216783809, 0.05045306035231204, 0.07372473941902154, 0.037068738996634515, -0.025756370136987575, -0.01398615431207565, 0.10825231433659925, 0.022065575451030637, 0.1460661388617583, -0.011642588992042551, 0.012965405710727365, 0.06836051110335795, 0.02475015163630804, -0.02834995831743081, 0.03324836735295373, -0.02774525732746646, 0.021933652812504305, 0.02588725833165041, 0.056878269700108584, -0.06404660967815703, -0.031109055438983724, -0.0023767459321666967, -0.0075673444605766195, -0.024568668606907297, -0.006252877153756556], [0.00815673976927007, -0.04449843492942624, -0.03667576148160387, 0.06473588350636153, 0.03001066541291555, 0.011843848998263016, 0.10344194006304286, -0.011636537765118731, 0.00798105240436578, 0.019191749228173925, -0.06977416539723671, 0.03763360081828686, -0.021079970365275615, -0.12808156195112555, -0.08057162205219989, 0.08172974612796015, -0.04674245905185923, 0.06833661108885523, 0.0037415315108875365, -0.0260276743430711, 0.016341030219310347, -0.10609310989848, 0.04941016300803912, 0.017489587863008332, -0.012338718020888319, 0.07648699261224662, 0.09439835960984451, 0.05896763992237147, -0.019645373517097765, -0.03713009788710585, 0.000514906725517914, -0.037002987543059425, -0.04974375534142895, -0.0015488978291328553, -0.01032672303586423, 0.025798787462920064, 0.06071167407272691, -0.02759858792907972, -0.1505785586856277, 0.0697767853250823], [-0.033510086509666914, 0.0014782736285322436, -0.007105764043686112, 0.035007523788745075, -0.12461923782443667, 0.029713257346209113, 0.03300290525567588, -0.0469132808722311, -0.012563944731287252, -0.029769704744624845, 0.03571801887786184, -0.004150945278924304, 0.08337976021789997, -0.02202161754502528, -0.005923718926531777, 0.04650136874958409, 0.015608799754982808, 0.02328330779904174, -0.09518577853781093, -0.04536367376867937, -0.027190598060711633, 0.04448638938334779, -0.01272636965953561, 0.03820701927597136, 0.011610294560699718, 0.011252315822505918, 0.0699003678088653, -0.008441245123535989, 0.08748775456196989, 0.013834411806958722, -0.03846314806169232, 0.017730377773637142, -0.009126441897141306, -0.0028693337437411637, -0.01571337724319672, -0.018998130724223468, 0.039904188210612035, -0.03395259235008591, 0.02416390438917649, -0.04102177598709516], [0.09644146470053015, 0.010987220437031792, 0.0060940135479102524, -0.016473520739917175, 0.01725797358898317, -0.05172235871988772, -0.014290466586611459, 0.14245887347439176, 0.03824136212668503, -0.04998647313242572, -0.0018156565609875287, 0.06253376048385724, -0.03148179229816904, -0.04280486009075234, -0.0357785462521683, -0.043683534013080824, -0.0354224643685959, 0.04160115727364725, -0.06989095459146043, 0.045499966360237704, -0.011838463655848305, -0.0452007359119513, -0.038288212303309456, -0.0037581863734856445, 0.016923586117343205, -0.043996394464345286, -0.09692809194152592, 0.0555024955788895, -0.03981840573096043, 0.019614742841364368, 0.07234356244661412, 0.08163263482322394, 0.060999539513552366, -0.1883241803576645, -0.03665283842902041, -0.07249513372085267, 0.08281078330140222, -0.055672185249020054, 0.06367103147107087, -0.010122014659712613], [0.07841937874147561, 0.008560068904961688, -0.06106454520303338, -0.05983772160104362, 0.012178874098775957, 0.031123263726827537, 0.01678499037832027, 0.0026390139030945145, -0.08286552533379994, 0.10425747404148612, 0.04463601729718993, -0.0008217990511544917, -0.06016939425746216, -0.03578792567895091, 0.04111358760761147, -0.053759653496151937, -0.05266255595064842, -0.04048562490453156, -0.03851825266119817, 0.07149320757842555, 0.06380145023262491, 0.09123038811449168, 0.02578817923777011, 0.005297490725966525, -0.015425879715736583, 0.02890709501150281, 0.024565428141239055, 0.023911759622367742, 0.014560806717362478, 0.006731883726274944, 0.105553603614783, -0.05941862825125586, 0.012265983699894664, 0.030855650328089266, -0.03473905846551667, 0.02222196900942615, 0.06955963134409794, 0.04610947917830434, 0.0869497043596551, 0.0018417133653259624], [0.05030225740674485, -0.03411399235863793, -0.002002187754703643, -0.022457597322599134, -0.010164473029332445, -0.0018249662686385818, -0.00984027771433573, 0.026042241194946372, 0.029639264785930618, 0.06326288632880625, -0.0744814448759393, -0.0039970553691995635, 0.05443397108798154, -0.10556964573367288, 0.022487204784516327, -0.037025919722208145, 0.06519755143759022, 0.016583433942560045, -0.1010525927210357, -0.0677055627427816, -0.001096254111704342, 0.026293246370116003, -0.050590311166577744, -0.038880461706594927, -0.08345095341583748, -0.04041265036703023, -0.01659056715155539, -0.054005875897894844, -0.0009481694786600468, 0.012014394101240685, -0.0032473095590912714, 0.034148432461387504, -0.01339325605694319, 0.028602870208995504, 0.010095812408382329, -0.035741837448344034, 0.0929676257024861, -0.0665791768264269, 0.00668728767160542, 0.030330717552218733], [-0.008164440263997852, 0.06331357632431638, -0.12463210288717325, -0.011292292777959177, 0.04883677749203059, -0.00862476575304241, -0.0634899367621913, 0.013255108550264688, -0.015121124265822463, -0.005379681030591824, -0.01919845422053172, 0.056300835876295245, 0.0356675980850632, -0.03913381221317505, 0.07723493897420673, -0.029578528802326545, -0.0041970196002773545, 0.06351607615290719, -0.028580181150663263, 0.17616156735920183, -0.02932781597660146, -0.06098941331300684, 0.02311913631630456, 0.012198231579903341, -0.03869261715197375, 0.043772194141864916, -0.01168422516015072, 0.11841583774371275, -0.03366163527415309, 0.04215484385182933, 0.0013926740854892114, -0.04626207021841783, 0.012748479311471474, 0.028624833519935108, 0.029072550503669033, -0.06959827537843558, 0.023251795238609426, 0.0028261576863108833, -0.12184421804818524, -0.06764097616737773], [-0.02236512063043941, 0.033176987293082216, -0.00719267409331469, 0.006099370807865219, 0.03445269483985318, 0.010349720094831571, 0.022428379689071406, 0.027042594989487495, -0.08307811197726074, -0.038731314608015856, -0.002195795373839646, 0.04872372940703788, 0.001831903160053396, 0.07987113325630445, -0.0532787654570835, 0.09258827676954108, -0.010982533842321094, -0.041150788078912356, 0.02126637243945696, -0.017687007625890063, -0.04191636111453183, 0.06771062686367564, -0.05515797227200583, -0.04505728831673385, 0.012150224048171496, 0.03777471396914062, -0.008685376335877402, -0.015555331220097666, 0.014101673917306556, -0.02260445611539653, 0.054469142402292975, -0.012666265433809252, 0.08094229549003526, -0.014387187561362376, -0.026269087536266462, 0.017284730049707563, 0.10540088649416726, -0.008596322214185197, -0.027155370142094643, -0.04838439538112251], [-0.08344829282249781, -0.003629588885406957, 0.0645883819871477, 0.07059055625003359, -0.02439730883392214, 0.03860153069834198, -0.005774489675128317, -0.026854115807762098, 0.048701118153317506, -0.07123088930250979, 0.04787408075249414, 0.026699833236349696, 0.037370555023019274, 0.05971177788096964, 0.028010289570341795, -0.0006461886139160037, 0.032310727571705375, 0.027547582675786532, 0.003754265138895092, 0.04321569254293786, -0.021106747464941393, 0.12343896828583589, 0.030513787884182117, -0.005623039486574477, -0.015404382762630443, 0.07107332823730084, 0.02650114680074207, -0.033239572024223306, 0.009901565677516724, -0.045374825524999, -0.02306800750480219, 0.010723695359354829, -0.008734055389214094, 0.03567441167424493, -0.14617649732021248, -0.04662833866245285, 0.08150188395141292, 0.0312810324272961, -0.033727480915849914, 0.07578867758407945], [0.023966510712660646, 0.01679144527388232, -0.11911634975119242, -0.02733359426206655, -0.07000773603810966, -0.057041848350457225, -0.016176573955463854, -0.10762417991867769, 0.05264533763837402, 0.0237975532143837, 0.012891108906910736, -0.04491278939313462, 0.0044167758913473834, -0.020301996799044642, -0.02277763412714233, 0.11277351858204492, 0.10504046656853445, -0.01795482588821033, -0.08496659945981513, -0.016589560522552498, 0.030727076072192848, 0.00797408983390119, -0.024112934823250404, 0.012412780703569565, -0.03508757178138255, -0.003267008255680736, 0.0348167969533485, -0.022155856181657, 0.09832007257220693, 0.0036601387551274418, 0.029793565677996965, 0.1360701189061786, 0.054819046850373206, 0.08420828446175464, -0.0237504693961794, 0.07802423800679235, 0.02547760366853485, -0.0012186019127576238, -0.023931467857919362, -0.005782068444669699], [-0.005126627593436067, 0.0021035887894245986, -0.0719714091813132, -0.01923522090975151, -0.05324676761720131, 0.03216323891628481, 0.026912943073835797, 0.009621144700442551, -0.0929162487249862, -0.05059206757300655, 0.030548516096804142, -0.051514971208127265, -0.011066964728735147, 0.026320922587896783, -0.033244452426161177, 0.024013248094241605, -0.11129759330048744, -0.08375486485301714, 0.05998310704170767, 0.044964780352910946, 0.06173018386280966, 0.07059391137131633, 0.025408756906703, 0.005300357753633982, 0.002454599147618233, 0.0006807340328933452, -0.08712524309467133, -0.05518711337666638, 0.0020688128338606808, -0.012897558555065703, -0.01843562736018305, 0.029748231734786412, 0.07036297129614845, -0.04096608380019805, 0.03652546074266896, -0.0010906131940822935, -0.08022055758053757, 0.050741555863972936, -0.047057217087028765, 0.04392337873144342], [-0.007586852120903848, 0.034987751984837105, -0.01951905252736579, -0.04775959541517638, 0.013754222443997575, -0.023633416980636635, 0.028385064855234975, 0.016805298033623465, -0.02576130636065551, 0.1159931990116415, -0.038716412017610065, -0.0010629040373633897, -0.035966879906515016, -0.06240265985059322, 0.0003014671631755485, 0.01093598220073968, -0.016536751913699455, 0.013752546458242101, -0.05688312469269071, 0.019587280487012776, 0.010850313476061822, 0.035355281965100814, 0.06118520641649884, -0.010125872556028473, -0.0333767441266519, 0.016971141845777346, 0.09044520303419488, 0.033325061429199235, -0.021247663255463765, 0.01966328543144541, 0.021656173486774805, 0.1308593875098063, 0.03142699175651375, -0.008690161223911093, -0.06490337706567258, 0.07160806332627892, -0.05280743051644161, 0.03865139635809768, -0.02061242805767821, 0.06154871246714958], [-0.007306992770614746, 0.032737825447192954, -0.07728142583181032, 0.0013343060732594122, 0.013447935812244622, 0.05336158771919188, -0.02398076560154739, -0.0033598884253943596, -0.06110128753674117, 0.010561787733748499, 0.017954022462315082, -0.03753873004630123, -0.02949657391196928, -0.03701953669298036, -0.04743232988331037, -0.08050368634803615, -0.018040654789625788, -0.0787385779989277, -0.07312175922085949, 0.0322819576139479, -0.027757195363553137, -0.04732890745145053, -0.0023479525301139067, 0.05127891461997992, -0.02431389215843242, 0.01208533659201302, -0.04361927133853407, 0.14776855262732413, 0.05066591230528091, 0.02557697806374338, -0.11069505360388188, -0.041384417595884626, -0.014771426208760681, -0.013073483372510344, 0.029806460535558264, -0.09736685750389795, 0.020187613634244986, 0.02873891913249287, 0.051754056073616904, 0.12864675737273348], [-0.07753498719160178, -0.009319073742687686, 0.022890972225177775, 0.06960606393352607, 0.025754671679282613, 0.06388134572037615, 0.003201686474038655, 0.023167894233672236, 0.03270511325813238, -0.028326779854579907, 0.09752326107399452, 0.12343009950359494, -0.040494535331612985, -0.026721473295396952, 0.024176364602915452, -0.019579896797402158, 0.010165814125746851, 0.042512424438782184, 0.08848700229964163, 0.053451922394078186, 0.04734448439702669, -0.04767877585681104, -0.030394215837797632, 0.013290940291012389, 0.001159173515279276, 0.04535713696537115, 0.02380146241214769, 0.019831112685589052, 0.07245306702935542, -0.03954878711486767, 0.02461361761307729, 0.07721397377309343, -0.021110372144932724, 0.014162572617602108, 0.07754648894078202, 0.06416278280384051, -0.0042467681808704884, -0.024745888735019244, -0.012278906753432666, 0.03683597415475862], [0.050216501349395606, -0.011024169622862446, 0.0003160261750544475, -0.0542209902417686, -0.004435054697799709, 0.0362014088910727, 0.04560560147878828, 0.038632959387292325, 0.0010139158832537507, 0.021852893528425246, -0.08340198399000248, 0.034843365316305934, 0.03855539263576933, -0.00888168856093157, -0.021046838255758954, 0.013559901063573509, 0.03328876080882474, 0.010845540357471675, 0.06879617408634436, 0.006414355421261322, -0.08599576144700305, 0.1122261133188611, 0.015505280731707847, -0.0336886184454154, -0.009665586502807485, -0.03750853309634208, 0.06854402863722775, 0.01161511080559849, -0.011187929676033362, -0.005825196323614154, 0.05056912667955539, -0.010749416650832446, -0.003491795735501971, -0.06870154190204815, -0.0018456760883329153, 0.053158191544440264, 0.03928110700283527, -0.06368773277423888, 0.011869701958875668, 0.02356918616588761], [0.08718233379100372, -0.010635051641192167, -0.012600322383166777, 0.03450377464759353, -0.023894529522218252, -0.08648311101788864, 0.021375226331215285, -0.003972673459835427, 0.010434351429414197, -0.019985753581252232, -0.011071542373386591, 0.03245503284754882, -0.010282545936785702, -0.02939815573327981, -0.06830255801858773, 0.07017840673337275, -0.06373519063939383, -0.060015581765765685, -0.03476466083964189, 0.008038996502960966, -0.08115779072039955, 0.056338648158767414, 0.028518182715898593, -0.013517376606343985, -0.05021143119750209, -0.0490707441879245, 0.009146098672961941, -0.04482804297818659, -0.04314282753118482, -0.05209331688387892, 0.04222669216245029, 0.049348877657935455, 0.027632088864535866, 0.0010778417332129836, -0.007189625941166077, -0.016788465059558833, 0.020349422389060862, -0.055482194333988294, 0.02630075658888061, -0.030312253603707727], [-0.038074851468611774, 0.029672092310828534, 0.017276077702038876, -0.01601366567448124, 0.0192559792667881, -0.042655440484684386, 0.11042181423002206, 0.0927166268980236, 0.03441620403821841, 0.008856668959056969, -0.06376596681349907, -0.007205310461223353, 0.13325506465598275, 0.060232970446477865, 0.008365915764849637, 0.004528353567494006, -0.031913696414747936, 0.07475805902267527, -0.004709145397788913, 0.00827116490947341, -0.0048747188078413824, 0.05764782913425476, 0.053820114005453515, 0.10931252413684475, -0.06365032221767372, 0.0625836413318166, 0.061499607598491816, -0.005246339312990127, -0.025636172978003503, -0.05088788690564027, 0.04551575991874486, -0.11848956408175455, 0.08102699679304068, 0.0011196729817511775, -0.004871887757696817, 0.018331164500096125, -0.04490292994780895, -0.03962136439322233, -0.04717230990428086, 0.03184753478022235], [-0.04339613585123023, 0.09786060732919191, -0.04034015911834505, 0.028062467146074403, 0.06235913893845211, -0.01647512758721737, -0.036578470583147504, 0.0015798912538933785, -0.00221683930266133, -0.0320078845848745, 0.031233649788841255, -0.07704115166083735, -0.050713630884814606, -0.029451079641374046, -0.06578269635319144, -0.036411406914860014, 0.024689335119183052, 0.1177093928143625, -0.001290765490816451, 0.0267221153454591, -0.015549689553684319, -0.10690753733387733, -0.08708044716067187, -0.08739446550231039, -0.007746304782005589, 0.006462153152219774, -0.038814674068958534, 0.03524231415623662, -0.01029675165270351, -0.016655400630719058, -0.04135619568147813, 0.1150456026326248, 0.02588212574383409, -0.03413338051475758, 0.04455677715198964, -0.05346783865318897, -0.13366025097707593, 0.004725147138521374, -0.013537950128648233, -0.009354994705323158], [-0.00818430019254673, 0.058773421421199415, 0.020711115802628573, -0.05570630270648504, 0.05740276949626183, -0.06257840018293799, -0.009005234001329325, -0.014486811742436366, -0.05541601664551088, -0.1074933385562421, -0.043744231542494995, 0.012765267994379536, -0.06983159240662407, -0.021366066188803597, 0.11566583488453572, 0.02516390981073747, -0.05445731246684761, -0.025072222881545713, 0.016859019901785077, -0.02454493070614444, -0.002441413938820408, -0.010659817737225368, 0.04304381700321034, 0.03513354132662976, -0.0013305747876743814, -0.015201697851780343, -0.028849364909700255, 0.024111348839741812, -0.017529512204069488, 0.05274562498395004, 0.08255885591523641, -0.001793741434037702, 0.07603134606212182, -0.04534954838204485, 0.02534469430607936, 0.019402732321393997, -0.024830068974284483, 0.026793353984005137, 0.010430652089347021, 0.023994774925460215], [0.09755181488060301, -0.04530796179164922, 0.0878270430734679, -0.024649849073196443, -0.011089917310419493, 0.0435179666952275, 0.08458605676732439, 0.025957815645889556, -0.006819563341212162, -0.03243124219941205, -0.02734338386711286, 0.006783380241941544, 0.02755875151593174, -0.06716014454725475, -0.023809377763382225, 0.03201026509667703, 0.02436309699344044, -0.025124486353210587, -0.048924423186312474, -0.08063923544762838, -0.019801068438850288, -0.020387784990196677, -0.0040533610117515365, -0.07813784950786447, -0.052817444807943564, -0.0577170885386209, -0.062093632118150784, 0.06671540177632618, 0.01827660706661012, -0.02882331577824548, 0.0018357863556525032, 0.023493922574911442, 0.012831280593647196, 0.05018868761625492, -0.018375594577187467, 0.05103637656953606, 0.03599816778671292, -0.044072007493483674, -0.011597806462664288, -0.020571154309527023], [0.09959586350967396, -0.029038983196601687, 0.06215250868224561, -0.014308173454564622, -0.08415696884877097, 0.10537290870199417, 0.035451668712875674, 0.06720635257248281, -0.02582206774923766, -0.016496032664611186, -0.059253468279463845, -0.06118570568574994, 0.0034058985199618905, 0.012135196622423104, -0.03233981823738506, 0.022928271516413513, 0.03747499063513104, -0.04040315476583777, -0.003024319837477698, -0.053990443469531045, 0.08881811742619244, 0.01822925660025577, 0.04247427300858049, 0.09338235736400037, -0.018726857264057664, -0.04142380469615404, -0.027246461773015193, -0.04338843084088395, -0.01199939347701134, -0.047485617226300965, 0.03962523139764289, 0.07896981881417274, 0.06657789588256553, -0.07379516317731795, -0.07132196125909983, -0.02529888532001013, -0.0032018999770062908, -0.06234347492608009, -0.022110069048877804, 0.00018751035976119504], [0.02900937196563275, -0.01554001594375142, 0.05460126737527751, -0.019368895107194313, 0.018731674876234592, 0.06257908216841401, 0.08631462494203825, 0.07770020781315107, 0.03339205511542602, 0.008036861893727478, 0.03418987259822857, -0.0028564245888780516, -0.02411612920626872, 0.03393393211867464, 0.03581414677652086, -0.05865605678370883, -0.06694939622706667, 0.014811079385164473, 0.023095547554151132, 0.004523089948531324, 0.005995574358985694, -0.007955288559371736, -0.04183582383781562, -0.007372678023868547, -0.031705548546333284, -0.03179780776510902, 0.008351663762166577, 0.05555131369340863, -0.040423184953991, 0.032478113919412556, -0.1051790236469472, -0.010446197040710615, -0.015598624317579749, -0.00973511840303982, 0.0611961221522386, -0.060242369684064344, 0.004500714125886178, 0.012372733844313748, 0.01489903536224061, -0.05386810038968982], [-0.06852231868553418, -0.012515845756151858, 0.042060242178812754, -0.0003061391319126355, -0.09424624210013859, 0.10930931716378332, 0.04620485967282864, 0.0146470290046881, 0.030787060620438074, -0.04228924654915476, 0.02690668003440511, -0.03196851390873151, 0.010032974056515782, 0.051347076574025124, 0.02045742723741074, -0.010326267209645855, -0.023014746911287423, -0.00421258183470329, -0.05430550398115084, 0.012038729836921183, -0.010873447252905823, 0.04393754617807097, -0.05360844858277301, -0.00521494623486847, 0.02526718113944629, -0.06600079634329394, -0.01076559855712999, -0.08725880746238472, -0.08121103151024449, 0.01987215092463564, -0.10278089096246454, 0.07402067041128901, -0.07221324777469891, 0.006117193856837406, -0.017788616978737216, 0.11103547035611547, 0.0524980984845972, -0.016419697102885145, 0.015201573685220389, -0.05996231161246042], [-0.03725634759189828, 0.014640175516107039, 0.05734639166193613, 0.0053617930027019135, 0.011716656278683516, 0.02318793704614018, 0.0034125944715918746, 0.082356813740912, 0.03772245069889866, 0.00029689798208006133, -0.02789740220236293, 0.025084660363752828, -0.0020621675254269313, -0.002928599463055698, 0.06663118277984921, -0.03622696691592539, -0.017275998536261022, 0.0842071600199239, 0.047822910817293805, 0.035978651383601304, 0.1037491886317178, 0.005485322126951661, 0.08669983910834785, -0.12228136833668773, -0.02783472040559918, -0.04813001372257117, -0.05991673365264437, 0.076046388618585, 0.012820751795659578, -0.04954773202229306, 0.01777178109875867, 0.03453416059081985, -0.03068152241735346, 0.024667879856630538, -0.07776899821453569, -0.029759628890312483, -0.056662885077894284, -0.0067504042075445265, 0.023685774197355968, -0.02706557464476398], [0.010786897617091973, -0.046152344399381005, -0.036869634056603706, 0.037966889894940355, -0.024273313718399848, 0.028651389793311072, 0.08577320503128368, 0.059286262495307565, 0.0059024376301267155, -0.027369615526705256, 0.016717262047122015, -0.035031636876944466, -0.0018353390074354657, -0.016008428018569058, 0.02352855505517881, -0.012564552518236188, -0.05599647073557181, 0.01506247766173138, -0.019000661397226094, -0.07579676650117886, -0.03319712631443297, -0.05090884109132839, 0.053554436966029274, 0.032555832132043216, 0.0369075727297256, 0.05855937939598791, -0.05125197730651028, -0.045001727769729424, -0.029928665014590978, -0.022804711659159788, -0.049259374130755824, 0.027827202651424236, 0.08438381727004511, -0.16780511823967942, 0.07967095985687946, -0.045671896171134464, 0.009027860036034601, -0.1140027739941159, -0.027655971777737494, -0.1277866864337601], [0.0003293848813361737, -0.06148344612602016, 0.02988879714532872, -0.0956872230049005, 0.02481247187555727, -0.06638112835586822, 0.04307989166720299, -0.0005828551174102174, 0.014010160816957351, -0.018522192985868047, 0.0293074746970906, -0.06610420531661879, 0.05340431684284497, 0.09534165756762489, 0.004811021523086666, -0.018203598061729536, 0.03576583553556508, 0.004366429548754161, -0.032472654348035895, 0.0637812429157541, -0.05078653164214149, -0.08015641320767049, 0.07139896222801348, 0.00541580283873901, 0.16035835564841086, 0.06499980843602157, -0.041123736970972415, 0.03790918130852104, -0.07416536235992426, 0.0302369183078759, 0.08195599731605722, -0.006470871159628589, 0.0321427262611296, -0.002902357291554636, -0.029487699640580435, -0.057366900330319257, 0.06107042380833348, 0.025489499838017113, 0.061913843493523406, 0.01899894437282936], [-0.032173872508245036, -0.03269311029693122, 0.04602303512226839, -0.0721015325141073, -0.005092265583988565, 0.06584082155751875, -0.03585391336837432, -0.01630662413511018, 0.010876142796179244, 0.05359844086705292, -0.01499941835857674, 0.04192615714243745, 0.03907538139345326, -0.009642563304803894, 0.05763533902976038, 0.004483412629507165, 0.022468085078307335, 0.028911234497879305, 0.008871373039930157, 0.02295440610521746, -0.03636621450730806, -0.08219597651601095, -0.05767903103368864, 0.0641324920133877, -0.039640547956961376, 0.051574423073628445, 0.030830547997426707, 0.006313424822134262, -0.025102515729465848, -0.06274956159596955, -0.02158755068538172, 0.014426103731244068, 0.01978609567454638, 0.0249169372843863, 0.046567859207845376, 0.028605993193981202, 0.1007573852953788, -0.014323804850841022, 0.07604530351114624, 0.030434385149902474], [0.06982725227958218, 0.0010642716413931637, 0.09885549042553746, 0.07523696887858371, 0.032531015738793766, -0.0016326197240733363, 0.04435292268978199, -0.030458805826711306, 0.05646585634032555, -0.029954631781936754, -0.012179992895459785, 0.024043626124582693, -0.033417288562483924, 0.036856918057642477, -0.034535732847810426, 0.02383664962626272, -0.03042401518436573, -0.01355257627420522, -0.06926765723873271, 0.06028681385500266, -0.01790366004747175, 0.048263269098659474, -0.02925794693823592, -0.0025169939253881905, 0.12704192257238722, 0.06305526134867394, 0.05396247965810996, -0.040596215384080876, -0.03803526837944379, 0.027203304297156478, -0.025777995154526286, -0.02963662459497172, 0.020160870304259122, -0.008833703135312183, 0.047213015161485544, -0.017726613890427376, -0.12561876148778475, -0.02388062120589531, -0.08464871930952404, 0.021838034269347835], [-0.056794849966040374, -0.047155748725932166, -0.0654122925647767, 0.10923781919468335, -0.015449748947872816, 0.013140271749840733, -0.0056608365239958665, -0.08282671890364914, -0.004300520243769922, -0.046169594080924095, 0.06428624264790735, -0.025566076524983716, -0.016324059488593515, 0.10163539205843941, 0.03923961468913849, -0.023899136154953596, -0.09374160477505139, -0.02091377621921854, 0.04181103017481197, -0.03602080063124331, 0.0020975190304921053, -0.04103505705140483, -0.05523966905057421, 0.0652288356695875, -0.10295404902225067, -0.07196829150519349, 0.038446411158077225, 0.08199017475774638, 0.04365713072248469, -0.13925521164807417, 0.02360229053016606, 0.0007584721985526233, 0.005408206087257745, 0.0006179702839263225, 0.03891376047412505, 0.06112023265042624, -0.014964486380163193, 0.07072213649450446, 0.07770806721990285, 0.05181538149634983], [-0.03767829280597359, -0.09881450515084078, -0.047743911529164886, 0.038761316607830464, -0.02917413881805193, 0.015832499272427494, -0.024829021531659223, 0.15150107925207512, 0.038993717963650074, -0.0486002047651261, 0.005644541356953477, 0.07753397003050419, -0.09130934890626673, -0.025211677338882275, -0.09213448523998066, -0.01825576378908523, -0.11800609781955439, 0.008980591829779573, 0.06737775112672638, 0.06591287717928863, 0.0011990038640954065, 0.0855195105297425, -0.014811733691307127, 0.04467776109852999, -0.08265979520850389, -0.025607890219637275, -0.041714575390720814, 0.02420462439749916, 0.08356059654043918, 0.051462142423805764, -0.008053966913601789, -0.07126076167707618, -0.023964939444828356, -0.041802529187193106, -0.025828325498417303, 0.05773152753542932, -0.015488814829817515, -0.06129085146451263, -0.0012215188008965594, -0.05450926529846837], [-0.015908740082622913, 0.08253517776788608, 0.00840976866404766, 0.00352823234680893, -0.007629113625858251, 0.005339460947386043, 0.11984528911514226, 0.0043585283680788725, -0.01676460611982933, -0.016331527093853358, 0.0354567569362774, -0.04745017839313795, -0.1111170610021459, 0.018917744412531943, 0.019883556593474808, -0.01840995657534786, 0.03816035478288118, -0.04775389569600151, -0.0804341795038464, -0.04568603781999206, -0.009813118461833805, 0.014779683179541363, -0.001445957122727067, -0.06302025446832933, 0.04031182179498461, -0.0788109301297758, 0.007266023132080833, -0.020992419502930824, -0.013401672129699853, 0.04030863209768508, 0.10414324857026909, -0.016730846457204816, -0.07104843810779468, -0.0788304670696227, -0.005033430090753039, 0.004442361612665182, -0.005366541710929619, 0.011553289097707994, -0.040109970845218335, 0.07868587789670675], [0.0011396616772207037, -0.022609211281469872, -0.08703919259238634, 0.0969455902573213, 0.04825747743955777, 0.026366190170505947, 0.062371454693390296, -0.040680915280423294, -0.09930830175136929, 0.10340599925438587, -0.01973330119174972, -0.017129608627624072, -0.06832607164683016, -0.05457799867279759, -0.00798084288408655, -0.016480785601241266, 0.033227156958341546, -0.015783234607697517, 0.07332763073658789, -0.022185549562457392, 0.035943949974391945, -0.046409225006402904, -0.05790510741740421, -0.004987100778855579, -0.07797584743558593, 0.017119773737787038, -0.0111472472159326, 0.007402642596467675, -0.04531290917648568, -0.0100367175969107, 0.010566476784692792, -0.047806554514060885, 0.003555524604872782, -0.019610744811695446, 0.0018551577605487302, -0.04478265166843164, 0.12342345297099774, -0.02896276860438089, -0.0019432580662966325, -0.01580384435367624], [0.046305560856616156, 0.1485510380322762, 0.04778972837223159, -0.04713639161583496, -0.07476939414010635, -0.08013778056500212, -0.006075092510673444, -0.04888379978765167, 0.005901125892928424, -0.01848915885578357, -0.0036729168246391977, -0.07475272440751567, 0.07967772296519686, -0.15226264074718954, 0.03410175868960325, -0.0023274605989118497, 0.056238903512959196, -0.0077562082259702994, 0.052876069809039694, -0.03461156585900493, 0.028338321740595897, -0.0511544495429305, -0.05277302558018246, 0.03680822969238025, -0.003073095043535183, -0.006194746353369503, -0.07517149489121151, -0.003617497033074517, 0.06173943425654284, -0.010065831311527024, -0.006776624891234001, -0.04513070183200758, -0.03579374058375495, -0.04502725284162513, -0.002831303330554193, 0.02187382819869941, 0.03945234907054634, 0.017828479347468333, -0.05067349727819228, -0.0566963948343498], [-0.029113487760049545, -0.002671532623000798, -0.058262313170665686, -0.05260069037712209, 0.07247115413045462, -0.015536653685544783, 0.013109175963115815, -0.028234466154343784, -0.009039305025777392, -0.1275531549845475, -0.057675557074723306, -0.046946793890454155, 0.038614474084903774, 0.01552475684452619, 0.08437459016117435, -0.02101493668868687, 0.08850381102696352, -0.0023523570396272765, 0.005001589265322139, -0.05219046674518991, -0.019823596812292402, 0.03198708498780196, -0.005370639931973109, 0.021124199519831292, 0.0013667063293547994, 0.05015066334437452, -0.08190637740873478, 0.066407795338047, 0.016790893217756897, -0.027018442683367, 0.009585465060606336, -0.036815408677820176, -0.0034185499181906614, 0.0216993890801774, -0.034237026703456956, -0.0073657809709620865, 0.10316255024365141, -0.020382426136072784, 0.08394407925192535, 0.07057358983249036], [-0.01497338609057388, 0.0012521896050789092, 0.007596002607031188, 0.004742808381601665, -0.09010699595413581, 0.02517490055518007, 0.0391383756943322, -0.04549332879565793, -0.1017423775257587, -0.0034288927579372895, -0.012952298263916957, 0.008766842988152562, -0.002688781971739374, 0.027789662091050427, -0.059773237892037694, -0.02763117098094657, 0.10294160002875584, -0.012942798153010714, -0.04980098743218702, -0.10608965857034253, -0.0007638369308185572, -0.054765212163059365, 0.019444743222762437, 0.019990475323360447, -0.055097024009238986, -0.010092391984275906, -0.02513428523494873, -0.014933042781557845, -0.011382578275119336, -0.03321347415321878, -0.06560731698481476, -0.030544320670789195, -0.031193663224380302, 0.052048160474455096, -0.0007403224078846532, -0.06468200799176446, 0.027554454996342116, -0.04870837636168833, 0.033508709282799476, -0.02975424908153665], [-0.024092910605755084, -0.0017415102737278086, 0.029654437905496343, 0.02762567080842981, -0.04287721765983563, 0.032802032218855894, -0.004943505265697964, 