{"model_name": "Sequential", "layers_count": 6, "input_dims": [28, 28], "loss_func": "CrossEntropyLoss", "layers": [{"layer_name": "flatten0 (Flatten)", "layer_type": "Flatten", "layer_args": {}, "layer_params": {}}, {"layer_name": "linear0 (Linear)", "layer_type": "Linear", "layer_args": {"out_dims": 40, "in_dims": 784, "activation": null}, "layer_params": {"W": [[-0.007177079478091917, -0.03300788535807249, -0.01543334164685474, -0.004079521463573281, -0.01891621483330126, 0.0820108125900633, 0.042131877827818624, -0.05859402664415516, 0.013350733807085563, -0.047506185853747614, -0.020126647700837327, -0.0008940690717525518, -0.036570586281689424, 0.021492879335192623, 0.009642473673586095, -0.04365448527310319, -0.016910021456128927, 0.016533769550863855, -0.016352272281225277, -0.07898151117902306, 0.010572619125251927, -0.02304292927740072, -0.03602964508532997, 0.021745309155318967, 0.08513837034600091, 0.01791516191917142, -0.03549203107044882, 0.018363385443917024, 0.028415350509294817, 0.005484336652319509, 0.010854572975671552, -0.041931058689330246, -0.009693996637143652, -0.02028272556011985, -0.0668756530175414, 0.01777723542031862, -0.001043094780829136, 0.007127264551884107, -0.09713480190452213, 0.03137304221347586], [-0.061079206998388626, -0.02773038709728006, 0.004171194309416225, -0.016869154009725967, -0.0014553093847122184, 0.023456362595947872, -0.04104764218507917, -0.0041461635439919925, 0.010276485395302135, 0.033237749305226494, 0.023838923417715433, 0.03897418332307928, -0.05250300683860106, -0.035924181960477, 0.004068996365184397, 0.006648554220318137, -0.009060439917324045, 0.013208522333693174, -0.03943458480830561, 0.03714493020708182, 0.005753657589740449, -0.08502374607095697, 0.032753080608527316, 0.030523037430013406, -0.020609544260955886, -0.0665700228817933, -0.028712040551721912, 0.0072608485596223045, 0.009309530960057134, -0.05160860579840496, 0.05805284706542108, -0.01657756579792737, -0.04911017162258226, 0.002199105841668773, 0.06390322166683045, -0.037596497126987365, -0.03317429445686495, -0.005675454442867491, 0.026132252658198785, 0.05460005228616209], [-0.08019376922685818, 0.001101978641045914, -0.07759114241382793, 0.03565731894318929, 0.018696930868516624, -0.04363394825159381, -0.09040453949826763, 0.004420037300781287, 0.03191285398431329, 0.024576519824074168, 0.027150409526717077, -0.00776149758275833, -0.02621917966346062, 0.006333981203376668, 0.02505063418534611, -0.03295628564099072, -0.029627439989797315, -0.012179068235626082, -0.022211127021232156, -0.014595864734469683, -0.03520736795707239, 0.08205716052017999, -0.04946129938470299, 0.007041628395225768, -0.009927912806037519, -0.004082403220747575, 0.03085389194495105, 0.005752620321416007, -0.05304935370203412, -0.004459448249348556, -0.00031861007450368413, -0.004528061639060642, 0.02328740713680897, -0.0009803362896244662, -0.0607129590403874, -0.0515793729136929, -0.04240604862684712, 0.035879175865504744, -0.012860060120604372, 0.002809730386924939], [0.05154381807163548, 0.005232480201451975, 0.06276427091246113, 0.0452871914208652, 0.07175370805262916, 0.015085641976115338, 0.012331825445035825, 0.018835748651064087, 0.07552625140006987, 0.01946810044130656, -0.06563923145247588, -0.06839532459781798, 0.02666554495876979, -0.024409622617875455, -0.030702315704724377, 0.0253788388018979, 0.0010170795226535833, 0.010410584984478742, -0.011119980926330587, -0.02379109565588806, -0.06270469632994459, -0.018346031605077456, 0.0549722996757797, -0.04113198766829936, 0.03441035445396315, 0.055680444604452387, -0.009270012353972375, -0.036886147438696476, -0.01914323951703374, -0.062331306519083, -0.015527070246630133, -0.03225351983702789, -0.03269790722825568, 0.008627681505359074, 0.00020858438102238426, -0.003927913751096446, 0.062283845880395095, -0.020779179454350604, -0.007877578943970313, -7.661669892776956e-05], [-0.0489014308660289, -0.023551486960956148, -0.011857490265938636, -0.028327978402435942, -0.01436282219302064, 0.09920882517791312, -0.009474001978747976, 0.03554868142666568, 0.033234054691895325, -0.0381319388737878, 0.018088403943245502, -0.04271062645146314, 0.0016801756553975747, -0.05596117761318724, 0.006901373817493887, 0.015826243781667734, -0.010279167162897432, 0.012173970285153714, -0.04839595880583072, 0.06155117530203609, 0.01106391789414078, 0.029042368434939406, 0.0018163748228282478, -0.02115591621268924, -0.08870387196504742, -0.014235681872468044, -0.03389384452726018, -0.043775256371065954, -0.0033684786415728186, 0.10738158128927185, 0.03289941940154864, 0.0008044891518413987, -0.048876544786646936, 0.04682075052351301, 0.010522277584220564, -0.0024452556291085937, 0.0042283098812798915, -0.075568954360017, 0.03918680234050586, -0.01129592208264487], [0.0316773258113963, 0.020128746812645953, -0.001992830061023567, 0.007799017893459069, -0.05020314319490321, -0.031203298164517, 0.01446724827744702, -0.00012222386960128613, -0.0714076128610763, 0.028432455909963787, 0.009551828016652041, 0.011909654127356565, -0.037111743261285225, 0.048445462084444176, 0.00776284780057449, 0.0041689646505226816, -0.00542848665802195, -0.08236854587170482, -0.008064616588449085, 0.020629127587369626, 0.0044396023878708665, -0.0033095966065576333, 0.04311152241126336, -0.011030243997341637, -0.013547600758165558, -0.016640889695500056, -0.02095646875779917, -0.01941646969283206, 0.020117838211225578, 0.021879881826410437, 0.029987083962245687, -0.04294551651242714, -0.006523903296251057, -0.003975728691947114, 0.050934918345097946, -0.02164685637830933, 0.022440496457529754, 0.06290272713440047, 0.00821577028648398, 0.03515298944619391], [-0.010725616253388574, -0.04646039652473057, 0.0275810305313875, -0.01272387870926621, -0.06064960974329657, -0.011625178363815422, 0.08139724972199468, 0.048691652722606636, 0.02780340504270116, 0.03116241682235381, 0.06501596804636958, -0.007178870106815706, -0.010751073404014233, 0.0014018452915776074, 0.042463052166427956, -0.0028057239560324966, -0.01322624319220448, 0.020611177494618788, -0.022141822146688413, 0.007275223706924546, 0.0050812276906897595, -0.005014074437181593, 0.01084104671951221, -0.003643888607032562, -0.025553514025119396, 0.010073997531811249, -0.0700922933626537, 0.001100450908911149, 0.026989976496199008, 0.051418217849358044, -0.02579106655562312, -0.07213312751828456, 0.013417737538750432, -0.02226229045327469, -0.027674308397714297, -0.05633139067429949, -0.06665749678588313, -0.06978901955001827, -0.042271708461381875, 0.03110877466933956], [-0.0015963681352889954, -0.050219853156324455, 0.028614354458151452, 0.07111979900088411, -0.019796473009658613, 0.050137430538012014, -0.018157298825268526, 0.014083679731353799, 0.04316551449164331, -0.01598594801617231, 0.0432001741900949, -0.07964506803736114, 0.04311618797387545, 0.004619044327077382, 0.03336840306882736, 0.007246742518030709, 0.0019784192541560425, 0.06222153396121763, -0.0439081487364986, 0.05459657152452448, 0.018954647846459616, 0.026814066482888838, 0.04213604657506343, -0.04210332397979636, -0.0393932699119754, 0.0060853208444909875, -0.02568361215992557, -0.005280907943102376, 0.044459566158162045, 0.034184091718829294, -0.05678444547151586, 0.05995649234437659, 0.003764962880752003, -0.05080245147481092, 0.018354910112414836, -0.0173358051536337, 0.037208212131101294, -0.036690988703834825, -0.026993517706417627, 0.008521297914131235], [-0.0324224197698661, 0.020884690159086516, -0.017692827883610113, -0.03897137680579778, -0.003991177373302514, -0.008760115471572695, 0.04955578310205367, 0.0036800204309637916, 0.04574936437082129, -0.013191983005528356, -0.0194987585833727, -0.002154025141323474, 0.037721301523338184, -0.0358488174364708, 0.024345022591822817, 0.06366485543743818, 0.026045197252368896, -0.023745310205414902, 0.03121658593536015, -0.0692099574490679, -0.013349623040237572, 0.010390503857504764, 0.013109819037694856, -0.0015282722322703293, 0.02599798675316507, -0.016186098110363607, 0.031228514633476322, 0.06194099573906353, -0.008104802676676168, -0.006375398074036401, 0.015070127696368295, 0.024219378880649303, 0.016586938027513095, 0.012250986140944053, 0.03259933876836172, 0.024369470604402425, -0.011769609375106106, -0.012085247173323503, 0.015398181308008716, -0.006130838821468625], [0.009273038601195388, 0.004632465626244115, -0.00048003938446837633, 0.05271128255074381, 0.03138407090935378, 0.0005896518089044154, -0.02913430433431026, 0.03528184926758234, -0.07089560962087324, 0.035541146299755855, 0.03215966819262479, -0.011006646548458619, 0.019520292865980473, 0.010862081508578196, -0.004081725959062833, -0.012020722002873158, 0.054523633147016005, -0.034645529803163426, 0.04610830294176474, 0.0516713349916151, 0.010339987212344174, -0.047660231532112164, 0.036857554612414134, -0.023650820711049323, -0.0016962561965497796, -0.011581687488532985, -0.09672075787068529, 0.03542452172345703, -0.024364693107529468, -0.04613765426093851, -0.00518229036888247, -0.07409084529870587, 0.0018391500105694354, -0.037454999428684535, 0.05457957831766318, 0.0032716649764465227, 0.01807423548526441, 0.007197709597012612, -0.04929073409973891, 0.02752716286859651], [0.03702096849262659, 0.058087531108788004, -0.015750346362640014, -0.052774971083355784, 0.006817710345723819, -0.025846884302846523, 0.006175886574092626, 0.021565362256049384, -0.024989197864635, 0.0028180416913501536, 0.027076378073463796, 0.003047007847983337, -0.0222141624952389, 0.060899167196829675, 0.000735440685070098, -0.0435343184450122, -0.04078075205027395, 0.007833730363530633, 0.022893163388773768, 0.014139931297780186, -0.01762731323188342, -0.004994010649023975, 0.029615100443770553, -0.03459146988769197, 0.011293029274780476, -0.005938026979725451, -0.02959139882290274, 0.001111671210143858, -0.010033868915869732, 0.0015064068254167183, -0.02735339415114838, -0.020213918008463908, 0.0023391119804607864, 0.009775332335973068, 0.016808136715149708, -0.05136082799151358, 0.04983656348869849, -0.05630547182652161, -0.017197645354438514, -0.04871568928575907], [-0.012025403378623692, 0.04684263090121503, -0.01241915584295586, 0.03490629342771045, 0.014581086293252558, 0.06297349884850592, -0.013145783136350179, -0.004997319936056711, 0.029130485001623945, 0.037489271816871846, 0.009885713921121643, -0.008442961810624516, -0.049061224865003326, -0.007394347001449168, -0.03467818874831032, -0.014458465378072577, -0.015345427002275662, 0.010764964621488628, -0.021661629682300967, 0.008307366870447735, 0.00403597222444272, 0.037162576294459695, -0.03339259441494476, -0.053817042756812546, 0.07136358742920666, 0.06790757926692957, -0.02534713935008785, 0.09836938316203431, -0.031407561344982314, -0.04495961882063518, -0.041429707266445605, 0.058232393871889415, -0.038630733928199344, 0.06786407669737805, 0.01645417470187693, -0.02529371260041092, 0.04827102349202881, -0.007992918771936225, 0.014497771837442434, 0.005059874374251343], [-0.009094869538220413, -0.020733864768724946, 0.027933937581847285, -0.1005784217250856, -0.0011600720617413471, -0.0260541938517599, -0.007629642543872999, 0.007210434077964121, 0.05688795298811509, 0.07336820060540843, -0.0171553360882966, -0.007388919125919635, -0.010487178595383851, -0.01531325107798404, 0.007248624543930053, -0.0603543508366199, -0.035278703326907246, -0.047541487605500934, 0.03171602871793257, -0.027214035857642798, -0.018898062119777022, 0.006365503179956184, -0.04032062530164855, 0.0321743130699039, 0.02318973347894785, -0.03962056250695239, 0.07875848179129188, 0.005451886992891941, 0.02293629035051173, -0.019461400781326205, 0.07070687204474539, 0.02437189916673941, 0.03957126456782796, -0.05148710076479111, -0.03805530187411039, 0.08550351034466074, 0.0027926256633764314, -0.006636059406414549, -0.01311486122900645, -0.008169523901331301], [0.0019404864186515919, -0.03909287669779879, -0.07534760669318269, -0.02840156046894235, -0.0643577488449207, -0.010522980832512628, 0.043924115062957736, 0.031495358952983755, 0.06504885676673018, -0.002571363394243482, 0.021295183941222186, -0.0034000318929854906, 0.030751570673727767, 0.023850488936135967, 0.030895623796708876, 0.0494801384878948, 0.03864878383725536, -0.010409016137838685, 0.011767158998579821, -0.00423395561336357, 0.010266320584619371, -0.02916931706235954, 0.055925980481992134, 0.01756996814520496, -0.019483693304217342, 0.015812957006559516, 0.0005478117345428967, 0.021998192165027998, 0.0338147074210906, 0.009440063987171416, -0.01144033842798583, -0.0038721257720912635, -0.01646019578400059, -0.020601702265981004, 0.06462346640439358, -0.0010843116013799254, 0.03883451626653923, -0.007448813817574213, 0.00011965594486479668, -0.0033338531464644485], [-0.041868225957894155, 0.05194781391581479, 0.0033481407402133367, 0.02821708989512837, 0.002652797073028743, -0.017841805996279537, 0.060612051357643644, 0.028963224821138618, 0.02352705398492573, 0.011589581113354107, -0.06130940161792098, -0.024060820229572278, -0.003326706030791067, 0.02759956863477076, -0.018751131523691497, 0.030250475522129405, 0.003090209219537848, 0.023364145369116046, -0.01928199890719022, -0.05904072399955426, 0.017998785266715306, 0.03099773194996314, -0.022467033808594803, 0.04144578667450924, -0.03753780997926768, -0.07768183966194527, -0.029305602255853477, -0.04436523742396758, -0.041573978747301975, 0.022959879293337582, 0.08921675060081052, -0.027568392009341313, 0.059675491831132646, -0.047416749102655475, -0.046562813760801666, -0.04711561856464884, 0.011544429623457976, -0.020842769554620097, -0.058398062559092266, 0.04813567824912688], [-0.004777305415893414, 0.028820759985902337, 0.027182208934516516, -0.059170266250773595, 0.015081436259595692, -0.023503051303684915, -0.036977704481126764, 0.0710602392232608, -0.02996381045935389, -0.0065876834258701625, 0.035683268991046915, -0.039093137943169876, -0.007347884469230399, -0.01488571417385737, -0.0042232941844969375, -0.004049993006242477, 0.02497501508566836, 0.0822216938775411, -0.02802495726002162, -0.04270497931062464, 0.007839515618607693, 0.042846423113290365, 0.019003664468385115, -0.043124503402095234, -0.01524263630908604, -0.0016483940260540386, -0.01962400525242762, 0.0017987862509839284, -0.0025370445052631885, -0.0005987871064057221, 0.04798901508069683, 0.016762547816502656, 0.04394786144031716, 0.034796262556178216, 0.004849745483509564, -0.02367107125137092, 0.01291426002180462, 0.02293971916459938, -0.04027298328443786, -0.0038892009903284384], [-0.05591357081360333, 0.009847413295693037, 0.004085399460289827, 0.019168108212408344, -0.04765408716115643, -0.03534212839812127, 0.010784982984446813, 0.025298746392392133, 0.005835316400779706, -0.05865286344075667, 0.018121076265214708, 0.02690102203284073, -0.020904817889993862, -0.01176613921401613, 0.013845637593932161, -0.007808098767800535, -0.013601161634749146, -0.06858498838921555, -0.033720648896621436, -0.02953218788647106, -0.009998603639198973, 0.007135788331818496, 0.03642106997203568, -0.03954021487627449, -0.05045111418050117, 0.058104024731029935, 0.00217931313964728, 0.01993096635786371, 0.05257121681557309, -0.021298783169056375, 0.0009406719346749085, 0.031414351372930215, 0.0077295517285690465, 0.009357899729073322, 0.0273819856386805, 0.03484956527211645, -0.043257769958003504, 0.023852000382620517, 0.03784223379011404, -0.007001430916476907], [-6.517453771928693e-05, -0.016127304108683026, 0.006055161571583592, 0.03342803138828405, 0.004942247398947529, 0.006061916655146218, 0.027862592493318628, 0.012501939247722573, 0.006390399783872139, -0.007087531645173, 0.02275407323182894, -0.031938163193788796, 0.05081971530709692, 0.005844563366267285, 0.0036067014561242464, 0.0020083181533451177, -0.015651901583706777, 0.02437095790806127, -0.010744746637897755, -0.004319703733523209, 0.005060306099260983, -0.015838771781002015, -0.02739026457478911, 0.0354935230510498, -0.05794100882029674, -0.02744846770991841, -0.019543119839167077, -0.04955641284626363, 0.016580447541655434, 0.008766732412338885, 0.023430369244062638, -0.059783781964409824, -0.004873438660203338, -0.05304416971943345, -0.05660890612384571, -0.01915956080226672, -0.014110592863506093, 0.007483283583972307, 0.009842017528325872, 0.012161683477178687], [-0.016184459009475637, 0.07262436688518537, 0.005732551831148715, -0.02688739278289305, 0.0011657339133924638, 0.01817284884571582, -0.04783296584606939, 0.05439430070832089, -0.01582459931540472, -0.0419775896130292, 0.030006378800236103, -0.0015660854597331023, -0.03556801103689022, 0.041463587360691966, -0.01830458710550762, -0.02287883911960307, -0.06443196451210573, 0.0006013172743374451, 0.0023658925178396692, 0.046178222752271694, -0.0012668089859860308, 0.00792769908731, 0.025288623719254937, 0.03586872110410852, 0.0018560790986789863, 0.04538730209964626, 0.028484385135245604, -0.04938722816171985, -0.0071979203023379715, 0.021003845953013783, 0.039125783089722914, 0.01294690918664625, -0.010166224536378147, -0.021573760778728527, -0.05650456896478949, 0.012872333219195422, 0.014225379448515542, 0.02249650941778593, -0.0034863348842396114, -0.02379970935722702], [0.006662399579326229, 0.07535185726040819, -0.0028644628374737977, -0.039440807995941754, -0.0015793178691521708, 0.016055091299298243, -0.05595130150554013, 0.01270106135168061, 0.026341644776908632, 0.004641077458791151, 0.012644555935421523, -0.05980735796363926, 0.012043438112419322, 0.05342830067060992, -0.02639668393479, 0.022468829921548476, -0.06768576065814037, 0.0686004450782447, -0.008010853908937153, 0.09572779324128838, 0.03803892504865399, 0.034850180233779636, 0.021039424217734554, 0.027580795306572318, -0.02865075826089329, 0.020697798457416313, 0.01997209601518274, 0.03390575960361106, 0.05397619443321108, -0.005089891559627319, 0.0017234808886502507, -0.04199170517740928, -0.03561622428405787, -0.013619254649428168, 0.019205520291230908, 0.025400010216853647, 0.019998262082829177, 0.003990411631270922, -0.036917323918563096, 0.06151202219098465], [-0.00798906289523761, 0.055368260333377724, 0.016397842518495034, 0.025161842405072563, -0.07680458584756118, -0.03187809698412584, -0.002559385814502714, -0.0694024179242328, 0.01497587815103132, 0.02874265617917518, 0.012128656952540378, -0.011806289058724044, 0.021361157059205892, 0.07857256414575875, -0.0179804677717739, -0.0023176291264984114, 0.00392720717410927, -0.053480679794848635, -0.03635910558517787, 0.07784887749132184, 0.022237788960706283, 0.044354625883200105, -0.05051341615200808, 0.09333547359840658, -0.03252972164415313, 0.008792328412545136, 0.013662092633385182, -0.09754695954637013, 0.018841145394865515, 0.034763278462438894, -0.05195533006186737, -0.013392993782272976, 0.034839173293866356, 0.021436494407137137, -0.023412499053706626, -0.022642199687197266, -0.0475942874628808, -0.023342706024515558, -0.07832534516990391, -0.005140933143011349], [0.0425167075120944, -0.019981269621807043, 0.009569758410919678, -0.05333956651713702, 0.01993951823967808, 0.01618770703174078, 0.05638746505544432, 0.020869446120779237, 0.016051147714278832, -0.02556618430894979, 0.055694465066111386, 0.06004296972684063, 0.015290346383265544, -0.046187468622717574, 0.021769634304735674, -0.03192211253680799, 0.0005367092413620971, -0.0006124536517330006, -0.04876318412437904, 0.04660762314321537, 0.051176976483544856, 0.043852853863208266, -0.0235589082956413, -0.02843279953935481, -0.003111204388254812, -0.0017216189270833518, -0.05182588178876815, -0.09120589912160604, 0.060179935177025204, 0.00749486672571643, -0.0017572577017119268, -0.00045845746890490953, -0.034546988308025904, 0.026265129185309603, 0.07781755622231444, 0.0006787558242660521, -0.007410007366436319, -0.03606895257615946, 0.04592571047475353, -0.0008657982117793778], [-0.05116329408193425, -0.002067435776369064, -0.021673450881324777, 0.02839583337516877, -0.017498115918881074, 0.013385470110557888, -0.042195972888278005, -0.0021846435336346365, 0.015594413138951756, -0.008679285048879999, 0.019236964859787306, 0.00832552885373203, 0.03596901990770413, -0.04778209576503016, -0.027109090754351847, -0.03645436926282461, 0.046002910450690146, -0.048914926436777015, 0.04379815713377014, -0.03802919807945124, 0.02066591731085848, 0.037312465882957814, 0.0066507162324616585, 0.02301345717067872, 0.00637619842372549, -0.0027811035952695217, 0.0029204153662759375, -0.03900462882109457, 0.005740537867350263, 0.037879753156368545, 0.06054233214726385, -0.037139953037500624, 0.036485971510864516, 0.013420445335111168, -0.06064217585822303, 0.024926038672320436, -0.033907192088550205, -0.0002395117061573563, -0.07152615346148722, -0.015450902992570086], [0.012115496501367659, 0.023805447060328482, -0.003520176140424821, -0.0029909697735048123, 0.012833483293788731, -0.054989325451594136, -0.014834357126995708, -0.016229247120425665, 0.011349661950093922, 0.006382282326417025, -0.01879971806921457, -0.035914953700780655, -0.011156369427722445, 0.002462285806952474, 0.06000290036490138, 0.020997332484236176, 0.03495559664297532, 0.03762649640731036, -0.018715654455062736, 0.002973077006272526, 0.06053077218759747, 0.045972080109753385, 0.030263949630903723, -0.051723676704247504, -0.057162545890588154, -0.0357378017700556, 0.030857716024025806, 0.017065825982215826, -0.015373199596404463, -0.026241784358343574, 0.036083793554777505, 0.010657168964952482, -0.019448598616431754, 0.007973410460735979, -0.01877846289330687, 0.03519037478646377, -0.0021891426905770394, 0.016286633883646554, 0.011349907307372306, -0.009425268057435536], [-0.049629506913056294, 0.011656292322217954, 0.03651401014362452, -0.027657097676116644, -0.005528886339591724, 0.04160746423074736, 0.004356608784852123, -0.05294487906144035, -0.009149091049395904, -0.005085765985413703, 0.02537503854476668, 0.03008958657390719, 0.002896583541471315, -0.017723112762223683, -0.018158452540334998, -0.014993918082713473, 0.07909602872670655, 0.0031329568694514207, -0.009820704866772976, -0.023311392683132072, 0.02727651997591706, -0.0006704637202744113, 0.00026054422406761665, -3.992621227291446e-05, -0.056168969773855326, -0.005244361296600124, 0.13346623764204693, 0.04684798379377873, 0.05916046094194261, 0.04352323712176133, 0.03003820356521129, -0.010150188219500056, -0.007832527136107466, 0.03453572079697534, 0.04438107000578586, 0.005838212534088773, -0.0012305876749891698, 0.021028565220083673, 0.06585972606224678, 0.023605409133944006], [0.006746353101587671, -0.01635989154378204, 0.010956589911747236, 0.002748049725337335, 0.028814848959223642, 0.000801794352925627, -0.02020069577943813, 0.051148113210724634, -0.03526748995177057, 0.024227268714261813, -0.03093011458370293, -0.03959493741104825, -0.031020686034997122, 0.08241845651380712, 0.005144056417848875, -0.037726477221858415, 0.043741962908791614, -0.06860696100843044, -0.10187107805979453, 0.03616125976508356, -0.007337423957195917, 0.016552397799677408, 0.08029591490630297, -0.03532765631604934, -0.001264614272674355, 0.017078935771790812, -0.03994519171581962, -0.049735110083827236, -0.0011815818563691571, 0.012532929229478667, -0.04757441315712757, -0.0255398247768364, 0.028976011625370036, -0.03851229714023895, -0.0200369447656719, -0.03400648876830261, 0.014317772474834319, -0.006170572172552011, -0.01389433098798375, -0.003598625468317697], [-0.0019675100807943977, -0.023309468802314354, -0.04759925671175294, 0.07172989707691324, -0.015445779747157643, 0.030473641303734856, 0.03956667502905723, -0.013947464590931907, -0.01126326638969034, 0.042835624446313926, 0.00659024533481155, 0.032236346572181634, 0.01854204080095602, 0.010929719062649947, -0.05654686534138319, -0.04954063629117643, -0.05601774701837828, -0.021258087830397, 0.06993204635602367, 0.007777301842510733, -0.10293026290480822, -0.036694326999816895, 0.0121292467109597, -0.010903583198593718, 0.008332348946689336, -0.03151539388585733, -0.007347723833299306, -0.005375926465646936, 0.016486133150073478, -0.08779580413384878, 0.03521040206036588, 0.028056472265164226, -0.023901756900855595, -0.010165171461325567, -0.03224483277369428, -0.02568065085072923, 0.017697145585934895, 0.009771369347841034, -0.024810969274809736, -0.013361132023137087], [-0.01475446190197183, -0.051828185954319615, -0.0354402771474543, -0.0033995665128485203, 0.021989543539663578, 0.01150779181676568, -0.02171278952617769, 0.03690659191507084, 0.06444392658826334, 0.006311700205996735, -0.007434126766880222, -0.07197499296327471, -0.03007396163362229, 0.02422249667433788, 0.0036365310708525245, 0.02027480554391869, -0.04860742096823691, 0.002888725577359265, 0.02231500773078897, -0.02436371779368827, 0.00200878419106388, 0.011126352435512727, -0.017467940810169665, -0.09558661390102183, -0.06792279631568537, 0.06032973657338189, -0.048128111926441716, 0.03144307414575941, -0.06522333469713233, 0.02126690792881346, -0.04106818619604977, -0.046361527815429834, -0.014938839393005467, -0.012193730057250423, -0.018196164164801396, 0.053459475852460255, -0.024429328685559654, 0.0005581598534047811, -0.05168025233023289, -0.015348685271039199], [-0.04355404403662835, -0.03411224031425402, -0.07235596370042967, 0.0018397070557225129, 0.013021887042613846, -0.019837977810745238, 0.0032080429203745196, -0.02566572144080461, 0.09744002746958087, 0.005933981037019102, -0.04337908095683243, -0.05606587563804709, 0.028677885421991824, 0.057016666380563026, 0.008697620492208466, -0.014279602013861739, -0.013498733018390042, 0.011539461363049053, 0.04884603016675888, -0.019213665249164742, -0.011796116054052886, -0.008514220507433515, 0.07989057888374713, 0.015698274267506255, -0.011300742544305645, 0.006413387190301968, -0.06088003602571011, 0.011353031086039005, 0.018210119857974078, 0.02281773783839507, -0.011946078944226737, 0.015970120261545945, 0.005990431729637992, -0.06571509794432909, -0.01586912933445056, -0.012271528436217705, -0.006097303116800595, -0.08619807056940532, 0.0480221577247088, 0.0037509207437889944], [-0.01701938701866441, 0.04705573182210573, -0.043219374192675936, 0.01593664115094782, -0.04537287533580245, -0.03735799213890778, 0.025547857307689097, -0.03443573201329658, -0.004432706620231011, 0.03817968420959523, -0.025658213599709948, 0.018198254640564984, -0.03503346918157193, -0.031765364831609515, -0.01085207800483533, -0.03436429004299027, 0.055565382155112725, -0.014359064237606543, -0.01038294822591519, 0.029082812371141256, -0.022819247056817475, 0.038880193955627994, 0.011569000242003339, 0.048901244092743934, -0.018102674235619103, 0.026687199860019613, 0.07903441745481436, -0.005637201263162664, 0.04139824111211187, 0.008213992373822145, -0.0555677595982824, 0.00045566074853428467, -0.042341207145713905, 0.0369468939297758, 0.004680041132687659, -0.009506477414594608, 0.037040995893241405, -0.008788645863879506, -0.03285309434279484, 0.020931067525306195], [0.03323468736235735, 0.01156638711511214, -0.002320741429126552, 0.026076066001849266, 0.0642466191233335, -0.014793326662643994, -0.01430096962542058, -0.007797425665647905, 0.015037402275515303, 0.010803060039204851, -0.011729799992460663, 0.007368423893533508, 0.03582559349182978, 0.017379732730746604, 0.004538294268463346, -0.007812809339014373, 0.025399927928542548, 0.0208434408042075, -0.015437631220614126, -0.052050544874720106, -0.05808945445866648, -0.010070044276804033, -0.030636651817505956, 0.04376918161495497, 0.039451515263354345, 0.0660101793083693, 0.03228335194553587, 0.002264727884540254, 0.04972408331283358, 0.0013276785576955535, 0.04287182884100106, 0.013395760670565016, 0.011089750326202095, 0.02259336358164822, -0.025282796540288848, 0.021647724815054847, 0.016438452272359044, -0.004442044766593129, 0.009981661643080753, 0.018580266415175708], [-0.038297213985567714, -0.02742847203875352, -1.7872403797473334e-05, 0.02391517326711444, -0.05050872572576177, -0.013969497218919314, 0.03799465490403612, -0.06278872872282792, -0.037839428113921283, 0.060185546428010744, -0.01736189636120844, -0.02524945098665041, 0.008001247239384952, 0.01259005765352941, -0.03398897888828752, 0.05612069878156235, -0.021703426691520398, -0.012505479611243563, -0.039401410432741694, -0.013442295857547864, 0.00545347162133528, -0.016086551123793414, -0.03878136646416516, -0.012721256498142578, -0.03979738919340865, -0.030166054390556224, -0.029517645465029614, 0.021388299953596302, 0.009706269314941455, -0.004693082855523918, -0.04529506099902611, -0.033747532085093734, -0.03252125890176616, -0.013657765491299954, 0.0129708435153538, -0.018645069890374743, -0.03470503509994551, -0.00734872857626422, -0.017712025129429723, 0.049651089762588765], [0.0018653413633036046, 0.009315350103264045, 0.013515111564060576, -0.011730552094589359, 0.01386850464078065, 0.0736913969107779, -0.0017921008517328616, 0.01991373411323852, -0.036955780580522304, 0.05986509641341467, 0.04000513687099727, -0.007749460517650516, -0.028479694691279357, 0.005185331138293277, 0.052655490277299634, -0.019481966473225074, 0.005348869822374698, -0.03830382729572054, 0.03528862859479529, -0.020305680364236786, -0.053122184025757004, -0.008612623282412843, 0.05417017357204719, -0.029794594156417296, -0.0256791582577251, 0.04265771251431289, 0.0033846618849140576, 0.0009137796910671558, 0.011384650280305985, 0.02244219045547992, -0.037715169659238025, 0.05243403090984862, -0.02180725966839504, 0.008432379948982315, 0.022021060516659405, 0.02159340132137958, 0.001981789097476015, 0.01233705678169532, -0.024021865195415246, -0.020569677901128906], [-0.005736687238168782, -0.027931552728399027, -0.004852690698679145, 0.014061420544237225, 0.003714517452115946, -0.06602141801631135, -0.006299881312110341, 0.0003594730026113723, 0.02126285737443479, -0.0013931574086612213, 0.01884144258324006, -0.013621254199874769, -0.009271581713871647, 0.03208989619695444, -0.05917773412429236, -0.04383605213960391, 0.0506026854141043, 0.013860562131623864, 0.03949796736185188, -0.027748838560861782, -0.0049863890968139596, 0.012347980191249665, -0.05142231606939247, -0.054976457296942914, -0.0519455951160512, 0.028658575626492332, 0.009732234596550428, 0.011400616934463249, -0.03823577834388353, -0.02148558529569003, -0.028300571293700064, -0.030686782213931993, -0.07290267425626588, 0.037207498719808135, -0.030965583570789636, 0.0572844298581012, 0.019424406054935908, -0.03286673354346653, 0.06870489502996437, 0.03417117704507125], [0.07063917146936052, 0.019223820099488635, 0.04251828346835757, -0.022494496890664326, 0.03580146671230234, -0.01406530345154417, -0.026847773529791164, 0.01901196869339231, -0.0030617007649243913, 0.03044487866668113, 0.04211193210520482, -0.040876981947478325, 0.003110368933813233, -0.029336516047222178, -0.00857557204807268, -0.037360385051910965, 0.044328966794910114, -0.04194322507410624, -0.0027468929706690333, 0.0199380967831975, -0.03833798236235732, -0.030930848179438742, -0.025891746379959085, -0.017702589428576318, -0.027091088822740583, -0.01669097061359051, 0.009217053769265746, -0.04008895923839877, 0.05868372062407226, -0.04513297563477263, 0.025719121934815903, 0.001084851706149577, 0.01710327958163752, 0.008236230436603683, -0.021141666129552487, 0.013548354204760991, 0.002982995141684941, 0.006109554926113086, -0.023523595247105938, -0.027550917213654453], [0.017216714984996346, -0.10579825433030685, -0.03501543636649464, 0.049959978249542104, 0.054957503432827924, -0.016368036535623343, 0.02549233824668227, -0.06566674747698949, 0.011565878897072366, 0.05066446641986608, -0.009516019076308509, -0.05237532092069719, 0.022131926760844238, -0.014947127587058278, -0.02819892168092499, -0.01550445921639556, 0.030460067930741307, -0.031080488525311322, -0.008189730757001641, 0.066547091885431, -0.018364485855347487, -0.07602923984422534, -0.014695025881050138, -0.02669458378902877, -0.02451325091799155, 0.01250720293527369, 0.027078922447301736, 0.005705371656566712, 0.01402703317699457, -0.030198439918759926, 0.061689157077894914, 0.039334761982522906, -0.047922282637061005, -0.016308433392579702, 0.006210553349605579, -0.039340371355238435, -0.023576283266254505, -0.023644292307651745, 0.01469300142474047, 0.01945562274952209], [-0.04209306049548813, -0.012990720283569674, -0.006809872671563557, -0.03410005672628976, 0.002337747445405852, -0.036664257237133284, 0.014443407562634774, 0.0029258632061973837, -0.030604618249511818, -0.08659147173109076, 0.021234931557190445, 0.01765198121532748, 0.027981182375472854, 0.03564200351659336, -0.0636664528842236, 0.008562165347898594, -0.030195214310340744, -0.056425705427102464, -0.029111978089796074, -0.0325046277973111, -0.07235869392750235, 0.0038487838860168495, -0.010784843231341594, 0.01789482453978606, -0.028328042743779418, 0.04733457081964995, -0.018372753278126656, -0.006731142559292508, 0.004316777869831178, -0.0013150031545647424, -0.005515331095836994, -0.03158698799199914, 0.007193189673689927, 0.0007937230365646937, 0.0029343935851822867, 0.015054897973113, -0.0054826369380558335, 0.028081972820980555, -0.06972078394511866, -0.011732990908898304], [0.022295986111438477, -0.006274990804244385, -0.02853789162671045, -0.06286106620486834, -0.015202387777526197, -0.02185977420700914, -0.011847407338025837, -0.005480491826543204, 0.005005332361982468, -0.0253524246452074, -0.0015699062111729516, 0.020354072366676707, 0.004458480930213909, -0.07323313402749056, -0.012588388835024488, 0.019783079355083586, -0.073411353519667, -0.02946062420932042, 0.028617335163157717, -0.003906814277876311, 0.01884753514339109, -0.016648286669235592, -0.03553117588467923, -0.03583321769247478, -0.03308591511475704, -0.038538418117000366, 0.03946453964671167, 0.04566704927521989, 0.0025328610667588684, 0.018777462893135952, 0.024023359707367718, 0.02046454097048316, 0.0023892284161940672, -0.04748581201959481, 0.005515672147141115, -0.007851507279262726, 0.04470558065870127, -0.005311695238320687, -0.0030127388504187446, -0.09016267598962018], [0.024264649983068015, 0.009115453899416204, -0.05793460976828491, 0.07979565523478362, 0.012774757303023599, 0.004625014610108034, 0.040858795259477915, 0.08284155240763777, -0.014386515468068656, -0.03258339519367275, 0.05828054900140253, -0.07287849600286506, 0.02857421061101652, 0.06814598015558661, 0.011802509805518066, 0.002391004389319599, -0.01808353673228655, -0.035534866697643795, 0.036696717991818804, 0.020704982304989357, -0.016635857322301505, -0.006842799939121897, 0.0011150611347434229, -0.0575179072248873, -0.051995156181392235, -0.05018062223769624, 0.03048434027512341, 0.02373526053658996, -0.01615869500612186, 0.10299013490961192, 0.006781647172849652, -0.005712245782757954, 0.002899864540913603, 0.060738068599791785, 0.016893708761900265, 0.001803627750781037, 0.007929652746584715, 0.10476720432645815, 0.04832897146676053, -0.0106986105544884], [-0.031333895438746685, 0.004302828220939962, -0.06805094872286555, 0.05496199689221439, -0.05549028465690232, 0.01612781185117233, -0.03971916757225207, 0.05790400382837735, -0.026639717967383632, 0.0223394535987461, -0.06712440719529554, 0.03414052788890473, 0.02060802006120024, 0.006016914597186886, -0.011122397089105056, 0.004049392757079503, -0.012414192821921148, -0.07158807884933818, 0.06359021153408381, -0.01823733977873737, 0.009820868987938871, 0.04092060722526856, 0.019108153733051903, 0.053705922227808796, -0.000906268953929657, -0.017532539103830753, 0.017736068613150954, -0.015984495949764033, -0.02861726631063842, -0.007932182402645331, 0.0015558042663661761, -0.025903065693487198, 0.045713929805404396, 0.03983790161493929, 0.05913929971879751, -0.002901269366417119, -0.026163608614796215, -0.02455167967753648, -0.007647463892871921, 0.047544473178936356], [-0.025050060091234738, 0.033584054240849946, 0.07577286425735028, -0.056468435391048635, -0.0006764316819994958, 0.0337088780077351, -0.009072664625440827, 0.014471583376708407, -0.0004417433720196113, -0.08660054720735758, 0.027277897685336297, -0.00858927654321414, -0.006661201288327398, -0.03848633002657037, 0.026483117480064593, 0.02438521936409074, -0.03594098497565657, 0.06143263416035836, -0.02748628791471611, 0.03482262617879898, -0.030932532698766047, -0.01088880815837059, 0.05381920222949969, -0.033883488989901935, 0.04428209604164778, 0.015957085084651493, -0.055988382158722635, 0.025587141490875254, -0.04235331567778161, -0.06916744293252759, -0.008587904441738748, 0.00915372497259685, -0.008615043556162778, 0.011580549905948652, 0.011512281899537475, 0.030253759827683753, 0.00642451287024762, -0.017402758048464567, 0.012975423838161625, -0.014783744011753941], [-0.03618911311362243, -0.041501177829918134, -0.014695651529588896, 0.03252099826241245, 0.014089631679628312, 0.008051356692517282, -0.04404856934803665, 0.05632552336103967, 0.011768487570109915, 0.00718874916707758, 0.029072463417940973, -0.01943594950745335, 0.05326884685642801, 0.02938275143976269, 0.003483430466951839, -0.02136362158072897, 0.010805442863141904, 0.0463003407062866, 0.03347358051610045, -0.004899374155865609, 0.030300534221814043, 0.01705689515403112, 0.03221349162002382, 0.025347041005301118, -0.05293587858769379, -0.003486184909076745, 0.04871380782492821, 0.009477196950154221, -0.03888881343631583, -0.010560502719591561, 0.03517065835810429, 0.0344351125381705, -0.015520721643838744, 0.025387982442822803, -0.031423998108816416, -0.046308417422596164, -0.011649931009605955, -0.02741368307329554, 0.03417132762393485, -0.03442276331176619], [0.06659790378554958, -0.030816122464074457, 0.021882878072150766, 0.019089325349772802, 0.0861392548988245, -0.03518290735790407, -0.053841809126967975, -0.012218949156382676, -0.05412427312290058, -0.004581862129198069, -0.01156825325399125, -0.03699216500206162, -0.05932107348009824, -0.02498065161798903, 0.005971457203635526, -0.010862745418228506, 0.02699965290368782, -0.033009964186125396, -0.024467440244562426, -0.02275241314035781, -0.046648734754109016, -0.015423865987343277, 0.04348134036254086, 0.02384375488547545, 0.014635607472254964, -0.002341304090602118, -0.011887496255118249, -0.002409311409592415, 0.07065743236452848, -0.02194145705678824, 0.0012803003828349693, 0.03088342786106157, 0.03354340228047333, 0.011295261023638845, -0.03459455679037478, 0.009760630974328515, 0.012406586342603106, 0.008526654931904803, 0.0028150016470654964, -0.009155574805909004], [-0.0072968705285718525, 0.07317456937674703, -0.009485490652157185, 0.007782943388714894, 0.060581994555389124, -0.008779130167809087, 0.03802395516544077, -0.05832760545248914, 0.0608771243669476, 0.14158401564411946, -0.015951088936337943, 0.010543907609889144, 0.0339853698288968, -0.019002504292092465, -0.018989740225539852, 0.06191163642575881, -0.009176034879710464, 0.025618481686949076, 0.03943824147565013, 0.011956281475969307, -0.01289919960609532, -0.022938374207242908, -0.0028268066443233857, 0.03119492117173671, -0.029899624205318883, 0.01814001045202947, -0.06005141446304497, -0.000603607926073431, -0.06000052735689627, 0.04911789829095476, -0.03618135604483724, -0.04194355998360911, 0.031829450353915795, -0.02193505593441541, -0.014187292976842708, 0.008744442387674769, -0.058260498665449176, 0.014291990500072958, 0.03109591807482313, -0.0050419417977769125], [-0.026840467955938956, -0.02718270518536496, 0.023987762790279546, -0.004062884705007913, 0.0001402425831392502, 0.03536609750583098, 0.03957611971617813, -0.027930922858403734, 0.011662134917277111, -0.010087699915748857, 0.0021709660942097297, 0.0050172761896849025, -0.007743703373578471, -0.01743309297120348, -0.007922404095402152, -0.0034076076988002846, -0.03501890735985028, -0.036409565696313005, -0.004507489665700378, -0.031558758346096, -0.06184838435675526, 0.054960843062740974, -0.031942402907689724, 0.01596108356737699, 0.05718583709934954, 0.03583783204576242, 0.005794351631205837, 0.05181204949997222, 0.0022259494438651222, -0.07340082266413574, -0.014182565693347214, -0.011513238921958113, -0.03719346576463242, 0.052479000858521065, -0.002797065929750582, 0.03800680852812299, -0.04258894374271228, -0.06796665341414714, -0.03387005138543636, 0.01340634863086113], [0.015094049854282391, -0.026751693238450336, 0.002608203362352843, -0.05503903729196971, 0.0022110800103637973, 0.02278510767551919, 0.0410908208583977, -0.039518323923046245, -0.03383869149524666, -0.008031118547187785, 0.053164956100925954, -0.0275936649561694, -0.025800832682680044, 0.02711078925503919, 0.02353145807915713, 0.06694543969418254, 0.05132298991623714, 0.014046807202333454, 0.01027928910042826, 0.007743139925212, -0.03906482709759032, 0.01251673856898428, -0.0030084394120497354, 0.016837675429362514, 0.056570704640827585, -0.0741859833361325, -0.00927182041382892, 0.03345401234187676, -0.03326016823314062, -0.03401867529842081, -0.0004114054378090531, 0.0008816366992571675, -0.010065233856276732, 0.03065938311073395, -0.0030891771214177446, 0.03618586950129464, 0.005592065596398082, 0.011267850581215443, -0.06246269833492614, -0.04187686703068707], [0.015654693938297253, 0.059988876883440845, 0.03894812813504467, 0.03943099858044665, 0.06343110876904458, -0.010841008864246682, -0.07057397395150042, 0.02621919793889822, 0.05354765272334694, 0.07759041696778039, -0.0313770131419183, -0.012274986508040093, 0.03265720977409163, 0.021693717589131828, -0.05165125098941878, -0.002435652187883131, -0.04156799502403473, -0.032330819331743685, 0.01196356301746709, 0.05919143764003072, 0.03966334477029111, 0.018367762706638296, 0.04179929292307396, 0.052330262058522536, -0.017140852937761204, 0.051599075930446374, 0.010558449567199715, -0.008814170635156094, 0.009494849026436533, 0.03017068602881739, -0.051888393251292984, -0.04243947773869713, -0.06122535210355948, -0.006489530613206276, -0.025992006557635183, 0.05860491886597327, -0.05031162284653246, 0.016334649797510443, 0.018328758863077953, 0.011667417724405384], [-0.05570518151892387, 0.010085760326196866, 0.016521020209863922, 0.030968867197334698, -0.013809546634956878, 0.045535475189115326, -0.016364588924245433, 0.007387633014310181, -0.012760095030860227, 0.01798275854177155, -0.03916247689386172, 0.013514859818519744, -0.040128138689196825, -0.05356093856288151, -0.04213208741481075, 0.07763892589988954, 0.024061036404452518, 0.020635259309128497, -0.029307777665315178, -0.03126895476249813, 0.03168494742263756, 0.027829010789394315, -0.0017773102069313746, 0.014091851532174808, -0.05561973204691911, 0.0369703111795043, 0.01820219535645296, -0.018544034913606285, 0.03371671508545596, 0.020162516104070778, 0.04641282918531681, 0.018280023838300054, -0.048701948136692895, -0.04609130576077428, 0.031221023580942992, -0.024125362844314498, 0.014982710819338914, 0.04550913624641687, 0.04163867981122571, 0.03384872679040821], [0.010494427840454476, -0.02193491070443158, 0.010838157260522065, -0.0034085209382923353, -0.03653604166366327, -0.004729258863713382, -0.061501617448948005, -0.013897179148929326, 0.029053234015767787, 0.008700102297220838, -0.050089547497944906, 0.04211750458056762, 0.0380028565470587, -0.02254241458332254, 0.04720556163536483, -0.03204224312092795, -0.016542454030479332, -0.004398680766679402, 0.017055700580243083, 0.045450986150943604, 0.02343918894699307, -0.04802743167881709, -0.01888479632915016, 0.05001162809937279, -0.03284118370688297, 0.006537895672508298, 0.017513325414229418, 0.04340319555275383, -0.012073710142019136, -0.007209980185677737, -0.02860717620128665, 0.009334432647864674, -0.007724243401833036, 0.018614975151829315, -0.012339764201989574, -0.0037024695016530168, 0.021936956685659353, 0.03572474754688138, -0.06156975749868674, -0.026822286511228338], [-0.057426998358034866, -0.052498974573250215, 0.03043479289998855, -0.007556363341512887, -0.011990243580086699, -0.025696463543943858, -0.0033036509677653405, 0.00614900622614362, -0.05690338719736307, 0.041747187827352074, 0.032444916654437495, -0.044018560069907856, -0.05838778444601113, 0.008736222350706093, -0.012227020919440104, -0.003855792540844101, -0.062357434728234365, -0.0018758447518356029, 0.018887493046484086, 0.0029271377859324942, -0.012628255140846591, 0.007442174837478907, 0.011003270585045367, -0.0220936107320842, -0.008600192950099844, 0.08241339952055822, -0.023758280001056602, -0.049004545817063774, 0.0009196113449946679, 0.032433984491140995, 0.013029458967443052, 0.025054574131319188, 0.03623733012791471, -0.04300605620570859, 0.058215519376133285, -0.015647294364537417, 0.011570161547052774, 0.004728143094461382, -0.0340365839388855, 0.015431485672262815], [-0.015527120921808987, 0.012151539363206712, 0.061999495709266314, -0.013767114590314228, -0.006142268095155355, -0.026735322587174787, -0.0557120020417779, 0.004014357045866512, -0.030161447373455347, -0.026140376066270527, 0.058386430961304234, -0.04789565105188829, 0.008080089692317612, 0.0035224459018734933, 0.014837547201104266, -0.023491717499959913, 0.011526546851088703, -0.03372637192470674, 0.06216931705966684, -0.08396757794931892, -0.004371505751795582, -0.026584364333910503, 0.018415201187033388, 0.0406888748916562, 0.009916620080882796, 0.038400809703758414, 0.0006428529979761343, 0.02268742445463805, -0.0009813658669369318, -0.06477369026074062, -0.007911534125859966, -0.027953013894677747, -0.025688874864031208, -0.01485777850585151, -0.002560032771152016, 0.00350922512273536, 0.013009845463570379, 0.02234298175868159, 0.01974884580503083, -0.04243270450235043], [0.0727242470659535, 0.04148644507914181, 0.009429186964245873, -0.036035256365495864, -0.002129815243689587, -0.005460437283383614, 0.03941040126173694, 0.0006112823051668315, -0.037318156680321804, -0.010068117395962762, 0.011289991105894345, 0.0009186965989540932, 0.029698809563447125, 0.010691553291293267, 0.015184291924778442, 0.022567132337586993, 0.04958420273776223, 0.0021804105465411034, 0.013966759026154575, -0.005219549235046914, -0.07754058515504215, -0.03488373311187095, 0.0029325552695858444, -0.004799287562677052, -0.005322292272792707, -0.013654802014444292, -0.003972121085926324, -0.019695776719272463, -0.05578740988470056, 0.007810911884728343, 0.01604830792686136, -0.01150510645881026, -0.039725049906486315, -0.00702015256860347, 0.02020668513982925, 0.013848434126332874, -0.001593069869810143, -0.026236074867456348, 0.04149171480072584, -0.013556375252892501], [-0.02857507309403622, -0.01731280204186889, -0.008115268151728411, -0.010517992995080095, -0.04282681147000226, 0.03016026678064632, -0.003051601896719445, 0.013770889434566185, -0.0025928461596276, 0.045408575247463154, -0.0019406081433024302, -0.012840463858759234, -0.03800895805094993, 0.04547293994445407, -0.04172723806604356, -0.048161710625486596, -0.06538958821811312, 0.022361192297582273, -0.022589690481049418, 0.0877582138291317, 0.023857666135643527, 0.013174773000326842, 0.00330696019539318, -0.03743812550149147, 0.0901531423525582, 0.02355880979517088, 0.037999105929154744, 0.06724229276890252, -0.0025441589560055316, -0.06931975397581408, 0.013507684086910568, 0.029625696178514415, 0.04418810662029509, 0.016356360498961376, 0.055272100362472966, -0.0031355687468226793, -0.009817324975021463, -0.020791380643981106, -0.07909951493951933, 0.029299002255164998], [0.019934538562080953, 0.05303956499577164, 0.05272160376351831, -0.010468984347930275, 0.005337698141618558, -0.029142483481435697, -0.03016534221600158, -0.0411938094271998, -0.06994282725213256, 0.013914199970201354, 0.03342635412928821, -0.03486303512167528, 0.008141223979778267, -0.007894212038661351, -0.026133102090378252, 0.02984358704943403, 0.061109049568139034, 0.010626048486538964, -0.03274907212784712, -0.01530641771644354, -0.01428983013782226, -0.07721291136829604, -0.02599538860134616, -0.008702418378786483, -0.036087016162358786, -0.0191656525484323, -0.049010825987875886, -0.06000256761640045, -0.026718652365092035, -0.028654716755992272, 0.06927746583275013, -0.002799772259363492, -0.048058426139011956, -0.02711311461069717, -0.0017660496871286843, -0.005601980637098776, -0.001538183909276067, 0.053822308420299156, 0.01537161904214482, -0.028968194202022665], [-0.02780223654372697, -0.020728894584882092, -0.02205659351323261, -0.0022000618470188276, 0.02565797245206088, -0.01304507363281305, 0.0617474542028752, -0.016732268077549524, -0.024110194834455794, -0.022907431137612982, -0.009607909769564275, -0.08197665952036987, 0.013270967362002981, -0.007195848695764073, -0.00024239157689943909, -0.002559038667688566, 0.06041995087444399, 0.003502692989303978, 0.027415269310556493, 0.022814243527826496, -0.003065788214130073, 0.033945538500674576, 0.0752760544316352, 0.0886488007174912, -0.02661142793012824, -0.013977886368427814, 0.03203598412664754, -0.010338478486726886, -0.06516661712225236, -0.015526645700156824, 0.0014325928122050334, 0.030897574750516372, -0.010964701365663328, 0.048329988743269464, -0.0010376466414249651, -0.04598008206267085, -0.06307472723160486, 0.01346682679630933, 0.015328642945850204, 0.009364837347196722], [-0.059763916317646, -0.04182459703962735, -0.01274287802391922, -0.01659836672444756, -0.04586900507036311, -0.0371334940412473, -0.0007937072322867266, 0.10257800162848614, 0.011398859123211804, -0.01745573454618087, -0.05358125624884914, -0.05294711672958597, -0.04503203311779062, -0.05418600675884958, 0.0008108417273122792, 0.05570570782789561, -0.003992888723855035, -0.022805842398392662, -0.06626243950860851, 0.01969736304259088, 0.028673888170600723, -0.06172198743135954, 0.01896294063953558, 0.042308190772422115, 0.0022573304342116416, -0.03254896498331147, 0.07009151601408872, -0.05398501775175893, -0.06192034376982916, -0.006816825733786822, -0.010802792783242721, 0.006979013000668379, -0.007025400249682862, -0.049629580044473987, 0.03673790277327484, 0.03690013541124191, -0.0029813403953707603, 0.0032716489683295414, -0.07216363225869096, -0.018613901550259104], [-0.006921150213886435, 0.0027230263937849395, 0.019046022885022523, 0.0007907011065179351, -0.033655341662275975, -0.03714590872031537, -0.08805885889322786, -0.0160355368692796, 0.016537229364847885, -0.0068375976943377565, -0.024356931057521694, -0.02557206428915615, 0.03772348682946398, 0.059736493838719214, -0.01064795167367885, 0.026595687643068595, -0.008110984977422964, 0.005380717458747535, -0.05609543968464715, 0.02627313668849375, 0.0314484226895483, 0.026789421873913897, -0.04585333731478183, 0.006685603045675826, 0.013687004125628212, -0.03607543136989814, 0.01749336443576451, -0.040316967290598575, -0.051995973391463855, -0.028144684499073605, -0.013969293663651933, -0.028640641827562197, -0.0034642879162856076, -0.026753304803367937, 0.006743534336865207, -0.030644487228362063, -0.003812867950464276, 0.03170297644683306, 0.03534161480644572, -0.06828949126250912], [-0.05614915172230957, -0.009327346860939308, 0.027019122401638465, 0.020185143391481208, -0.05274686988199769, -0.040507744367207305, -0.00795347829937064, 0.044241822673355365, 0.022108167819152237, 0.03652860269911298, 0.02197444402655522, -0.029012466270744757, 0.012610975163770622, -0.032729171721908784, 0.05772333574853326, -0.02866039915875735, 0.01050081343428057, -0.019177215089729166, -0.015325892955584614, 0.040609352735613974, 0.00347391851180649, -0.05601862294771582, 0.01258947730575704, 0.017871577706612348, 0.042791963875287865, 0.005179210136211144, 0.015330187101294504, -0.03382861567998191, 0.013744513903341842, -0.052080268530816896, -0.026620766791996712, 0.049618904152058864, -0.059271004271311975, 0.057977635958404175, -0.010613712441626762, -0.006033858091500674, -0.011543692488204346, -0.035669699451011505, 0.02299165520136131, -0.048698309376224824], [-0.0010493102755480016, 0.0008342573000238233, 0.01158148994080557, -0.017068428571870915, -0.012256085270385752, -0.030119151843305672, -0.027224489397666612, 0.050507517894308185, -0.001511919411212955, -0.08090515407067393, -0.011134768654392486, 0.05034031932387402, -0.007032029377763879, -0.02561007603416635, 0.03378838599323397, -0.03954771833849014, 0.0038273791071360037, -0.026307321796011956, 0.019366146972841183, -0.01696656718742518, -0.012291408980681222, 0.016081723918884357, -0.03412306061108496, 0.05292358050310833, 0.028495366689550758, -0.04049774086177785, 0.010717058730558077, 0.007313905994920579, -0.031398806720391276, -0.04248480738457263, -0.05203921960269524, 0.02131440770419313, 0.003198124783141655, 0.004970185089600379, -0.022830302040899808, -0.06012548042234486, -0.028431309066830925, -0.040511133461578266, 0.05347859814044703, 0.03419288749861017], [0.0003658864360271573, 0.04439468431417847, 0.0029158604452474983, -0.02123988120875603, -0.05108829767806108, 0.0027686334598760512, -0.004316337820505355, 0.01561935750055641, 0.09455667894800172, -0.02799275160654885, 0.029653125126645558, -0.010504106873189731, 0.011788615687862627, 0.03467993026351848, -0.005072567005544207, -0.048291081101516295, -0.05425303266301502, -0.032152764531258406, -0.004502373876470575, -0.012131720905830633, -0.03980067218659877, -0.05964633114043731, -0.012234222017472993, 0.024758588227047934, -0.03774343685713132, -0.007429636765700215, 0.0792419694175747, -0.004940815628061212, -0.024547768812626547, -0.03509610839329616, -0.002067182231553425, 0.01539242654233124, -0.04793405690428813, -0.026747068659688164, -0.025601948688537546, 0.019482667455416082, -0.010131139518776859, -0.04307104448426962, 0.003347182979304345, -0.008558111639721167], [-0.01619904210110039, -0.01548422234302229, -0.002319272815166925, 0.03448714250307003, 0.09538001523572437, -0.037962279050054, 0.09041305096072358, 0.04106458604896339, -0.06907729608116045, 0.027505367930319474, 0.027485006953390425, 0.007191903882050967, 0.02511311605935584, 0.029170478794146252, -0.01134455604556102, -0.012533959429311512, -0.03951002665765735, 0.05363706441231744, -0.03875000840388715, -0.018907287013710635, -0.03599607173350747, -0.0012923419432728477, 0.015848821952086364, -0.023692905806472944, -0.02612318539234258, 0.05082235738208886, -0.05858139377518507, -0.03589483671225524, 0.027152092310791916, 0.014769832792303877, 0.02315073336711615, 0.02355073892391214, -0.026993197908117092, -0.009400501234720917, 0.04208958135292675, 0.002712683821784607, -0.053246129899131266, -0.035511638171379964, -0.01466145011148035, 0.026352172704613798], [-0.038848420811851574, 0.028929709324834605, -0.05367049743516079, -0.04167372786763071, 0.030974201809964443, -0.018439354263890522, -0.04435337159713612, -0.06400354604655017, 0.05463509113213706, -0.01568196422070649, 0.0052079824238012405, -0.01902093266817467, -0.04616102712503558, -0.0035931100241571746, -0.014091461016143208, 0.03379008047984458, -0.0036788126525813445, 0.0014271986888767074, 0.03748115537036332, 0.0313830700074158, -0.022914400696227376, 0.023751709511005446, 0.02828412078899926, -0.03661199686047715, -0.05865444417400213, -0.07371682009741347, 0.003437366300051843, 0.06245144984440213, 0.05520894488825625, -0.008747851094045899, -0.030227757651222858, 0.0516242095147489, -0.006329078413834258, -0.012471877683583092, -0.09599771571432236, 0.03702460306320191, -0.055584463942409665, 0.07871072694988353, -0.0343905969402116, 0.02467436791082466], [0.09411105718549989, 0.05161000857048002, 0.04754609546438394, -0.0006986383564672237, 0.07589513396306352, -0.010959200977926551, 0.04502497939861329, -0.0762963105527461, 0.043928380515833435, -0.006015689926942879, 0.03268963646326023, -0.06395835409866475, -0.006211815234966131, -0.03353283283806624, -0.02837220908825456, -0.02283149004123653, -0.008362149739558115, 0.00391956363104015, 0.029236733305568505, -0.039553707537509766, 0.025204637783760777, -0.014416205117349885, -0.02542710435705363, -0.03796366127177751, -0.012451124943624912, -0.04990870998529074, -0.055090840234542575, -0.0046855727316381995, -0.02960248387506583, 0.005204304839190793, 0.009468843091303794, -0.015815573511759693, -0.014695245864350242, 0.031062788083329806, 0.01746617674023689, 0.032939360804103736, 0.02933304900029772, -0.007213071653227921, 0.00236580335693764, 0.0032461382627792133], [0.0010324229516295727, -0.002847175790261853, -0.023298800501918016, -0.004978456281655803, 0.02448419151635155, 0.04686133088892981, 0.02539283587277008, -0.03282082252833682, -0.006375259271786012, -0.02906807529215114, 0.033850419163479764, 0.03171461192469057, -0.009721035735758237, -6.391576238496229e-05, 0.028159323527357446, -0.01807598705558554, 0.03583548983957903, -0.0069384692298520125, -0.05549091760840506, -0.0014242279920443101, 0.03204955671123274, -0.008101446743324477, 0.012469504043434691, -0.06611476022314626, -0.01459498970849403, 0.025952846231414275, -0.011514829305451736, -0.016676484595242548, -0.020953375997115466, -0.008060850622388307, 0.04589459022542402, 0.04449009461648797, -0.022160438305041108, -0.014026844913403622, -0.044591388724136774, 0.005016836508464903, -0.006871012225457947, -0.01712858115360069, -0.004200417072002845, -0.030612051612928154], [-0.032639868403346525, -0.014662710802911096, 0.028517460200934187, 0.03087814555740396, 0.033935449467946514, 0.003558042688176791, 0.017178466021688318, 0.028419607795398795, 0.004553560113077661, -0.04473701923185287, 0.02871785810706901, 0.03629982735910026, 0.030132564057099787, -0.036333437615874875, 0.020059076413723353, -0.054734056830151596, 0.030863229282543776, 0.036024088077670297, -0.0010440719881455141, 0.008757503750885362, 3.528945622471985e-05, -0.0014190162722912782, -0.029638922949691792, -0.03472601088360581, 0.015184446295452477, -0.01335585818658444, 0.005847543684667517, -0.004372575481279492, 0.016977815216312666, 0.016724225834214092, -0.022076725582274057, 0.024609250366135076, 0.03127739906219439, -0.0051292497751154005, -0.0324242189318122, -0.005784906179695896, 0.02127306548275992, 0.037523395584531924, -0.05037001302107662, 0.040460738291387875], [-0.01292792309798405, -0.010872374078281137, 0.014656113471035261, 0.010328604932562862, -0.00205766113559545, -0.03511446977281163, 0.006948906030223561, 0.09199183814259358, -0.07989505545383052, -0.03357777148647314, -0.004822641654208184, 0.04074774543205437, -0.022900453806749117, 0.0180990100596021, -0.021310056050447813, 0.06110423730556875, -0.021093643984098572, -0.035337323055640045, 0.0009918353769565254, 0.006767796054663513, -0.006448396003221, 0.01151038668979914, -0.014427512269189112, -0.027732433648043002, 0.0451183262319577, 0.016992319036519724, -0.05298659783499936, -0.015830432119681617, -0.011442051325405331, -0.030840999820198847, -0.01635838629828301, 0.02511165683015935, 0.046716179587647094, 0.0009534638141815738, -0.058800289208663245, -0.009445653714538028, 0.019327392608942236, 0.044441452273386854, 0.016909630852775123, -0.06630370191041109], [0.0012587854030936252, 0.001664475474688195, -0.024701184909839233, 0.05281699334609078, -0.03353106937048884, -0.005311457026623542, 0.0257620183446738, 0.04543846040756117, 0.009455655649547003, 0.04129015349677345, 0.017800804014608047, -0.05435764775247284, 0.0006648458866559628, -0.014511455176157475, -0.048716624380431624, -0.04083128307357959, -0.047288413036684095, -0.04901372768706688, 0.004761719127268657, -0.05348311457820535, 0.02411735089306645, -0.015181071440980767, 0.008858540033390701, 0.007254937826307464, -0.032326826148719796, 0.05601399404382967, 0.043669699407873595, 0.024043598978966164, -0.007499122758394, -0.004014399754456326, -0.05963775817747592, -0.09677644653884766, -0.01679673397251781, -0.0024882257101994524, 0.038268748337791564, 0.09935183378972606, -0.01681560561115474, -0.014555840517068512, -0.029827648814228058, 0.019725063892901015], [-0.006981322732465392, -0.01337930582665168, -0.06531387444894485, -0.013744545808789234, -0.08211271233623575, 0.02880891431091356, -0.04925584869246645, 0.0015226429823408745, 0.016577860083564974, -0.04703304189060988, 0.019882300657557035, 0.02710422757139978, 0.03422440433222015, -0.004776403688841529, 0.08192907529431481, 0.015868590646074307, 0.03969134735935951, -0.04520187253825314, 0.03946207300032902, 0.05579010662906887, -0.054097934021681844, 0.012861391799757036, 0.04056319831485971, 0.013902695549944681, 0.06768933922527649, -0.05303440738809288, 0.023188485363135797, -0.001220342866058051, 0.03875319490825463, -0.03041491666520199, 0.04130550608855228, -0.04873997178046882, 0.0024285770414415927, 0.02573046125737549, -0.00899595823584133, 0.05189127861918928, 0.01637944004271119, -0.0030763825329294535, -0.052065707928564305, -0.020997161887390644], [0.0016019743235839955, -0.00023559081107655215, 0.07309219368322795, 0.008473168153859307, 0.0011249366620629685, -0.01989373296380603, -0.002039935566741862, 0.025295250034357692, -0.03229246050508249, -0.010967096414914652, 0.005292399840678387, -0.01770810668831688, 0.05463995817124449, 0.029056528199056606, 0.05872018507350865, -0.03417619551122972, -0.037239273671932235, -0.0031719568377656464, -0.0177325066757828, -0.019867611856937386, -0.025187826268548458, 0.036967109674542455, 0.05509675267624971, 0.006020391223359303, -0.038653484045235824, -0.004984400606775727, -0.024324285946182918, 0.003214197674184844, -0.04614347478833689, -0.014397678514418344, -0.01198161603017134, 0.0723019020683199, 0.0679083412862778, -0.012004510583643246, -0.09585922264107873, 0.013931033772652215, -0.04577110839794899, 0.03864271873004845, 0.003303544552660042, 0.03377112788119609], [-0.0462814314082182, 0.02845500400943673, 0.07828337975100473, 0.005466300708541448, -0.06098744631897067, -0.0016248688911008045, 0.012701103857680479, -0.021418220109696903, 0.05281264595535499, 0.09474273188251833, -0.020375387997698034, 0.04600577960991589, 0.019310105932315493, 0.006678478014646638, -0.043867368534873115, -0.06791558977867598, 0.03438286641691057, -0.08603502927636723, 0.007003128139231243, -0.0002105321068853968, -0.00243195787039819, 0.022270752263500115, -0.037405400954243426, -0.0164606596168113, 0.0276325345040999, -0.003177474281998595, -0.05579501668575175, -0.013608192559564079, 0.056231106041744486, -0.020071650069656524, -0.0506439700675817, 0.017119150171040265, -0.040356010640190176, 0.00792215925888246, 0.011904482592933393, -0.021926066813879565, 0.02895949186561913, 0.05136343366571445, -0.059326562212489, -0.0772227144793079], [-0.02972343502564968, -0.0358279205568885, 0.010402010595345552, -0.008692548810621158, 0.043236864311644134, -0.008038690760904438, 0.005289756865542337, 0.004741877132332416, -0.06954625905721663, -0.0034058759402714684, 0.01870191815290743, 0.005313608108635226, -0.04020309949514156, -0.007089988818924856, 0.01377249619790281, 0.022059836405596542, -0.01084042940169418, 0.008805546148515827, -0.01198713840902178, 0.016280745476605133, 0.04083494445964024, 0.0170396182525686, -0.007557530874781991, -0.028129888690422763, 0.003038968238085027, 0.03224932714673628, 0.02624879498474898, -0.002699399874298726, 0.0019605695585436325, -0.028297633260207584, -0.024771455516740447, 0.02276467127271741, 0.006879842564148198, 0.06718307232149257, -0.04932272760579006, 0.021319713585308132, -0.02673980826223846, 0.011682505297655044, 0.024422546028156845, -0.009561299587257583], [-0.006819092053643653, -0.02664951229569166, -0.018457026977307375, 0.03586978825566187, -0.017674688819871845, 0.012417164685068358, 0.014049360523431937, 0.014198456913519059, 0.03799091072953185, -0.021891938031681338, 0.0013478237005655196, 0.029322094281541363, -0.03880949813287998, -0.07122569056588587, 0.016581862739897365, -0.05379273596538638, 0.02069830807400082, -0.0015989061444678257, -0.021317658794691142, 0.021593196782963054, 0.012690381384679485, 0.016089014046794116, -0.03525528082078137, -0.03921225636987795, -0.0009235372677217182, -0.018574557614529946, -0.024235964051702405, -0.015726867121106828, 0.003575739471099749, 0.0006670421518806858, -0.00525571502598331, -0.004498466115114208, -0.06241080711415649, -2.1605290905298325e-05, 0.060935207619041545, 0.018224513008049073, 0.061191225053925456, -0.03927753341345662, -0.04147560767416504, -0.0431800777993217], [-0.031643820650301344, -0.014048200232431324, -0.009242546825266252, -0.059173212434180646, -0.07668648740723591, -0.005848096224116975, -0.040719613776802145, 0.040657500263889264, 0.046266892918081205, -0.005032789994255377, -0.04644083460142169, 0.06023473751043581, -0.02770430917952265, 0.01365871285830207, -0.04259050209957292, -0.003350359225806826, -0.01426718484570287, 0.05040906862024681, 0.016988310878359246, 0.004710150613723667, 0.018067605605112304, 0.04313873850999406, -0.004973965279510105, 0.019338969713844335, -0.0400080456260829, 0.003395548564380169, 0.03917951579897102, 0.02231832237307989, -0.04470995450624931, 0.02135863169150846, 0.00041154343977818994, -0.0063512991617293586, -0.007333006891376171, -0.05890129647677561, 0.031119366127879782, 0.06836785757929716, -0.041503623237900716, -0.02086444618857041, 0.00020624009284234823, 0.01579997330055589], [-0.02899549694922375, -0.043766273681770024, -0.04281535107450648, 0.00996012895732033, 0.05538380901188366, -0.012989202575700253, -0.05716054494646249, 0.013199427485725572, 0.041710822512871296, 0.00635240221578291, 0.06343908002492141, 0.006622872830404197, -0.01819444161195864, 0.03447907662773955, -0.005037208713291955, 0.009346485822085823, -0.052714078938722986, -0.011727168455740903, -0.013124275417943022, -0.014490189634534786, -0.05149714049021117, -0.022027809841489807, -0.0064038454371720035, -0.005255428807905472, 0.0825082006853467, -0.020412950246277716, -0.037221226464704396, 0.005369420323145702, -0.03702618503109959, 0.03727373842598032, -0.06889580993912074, 0.02205876504311225, 0.0012269719704798543, 0.036298074636064805, -0.056476104373782414, -0.053715702575922765, -0.02251254886597596, -0.040933291556934835, -0.030135679283602657, -0.005372746975840106], [-0.06679104651394603, -0.012836123552073263, 0.014618757811873734, -0.008303371116422318, -0.037916688468890535, -0.001958899718073436, -0.05778432855029964, 0.007978784495370119, 0.013489784540633978, 0.010779522737398428, 0.028943575587818023, 0.02806331687685154, -0.0063239976615406205, 0.056850776899849305, -0.010581453744629415, 0.01978357412935663, -0.08571850361043495, -0.005653574657482912, -0.007962736822625726, -0.025069955685812852, 0.040661940053985206, -0.0014328309627187638, 0.019619236026290246, 0.02607657828267261, 0.029197478774063385, -0.018467127673685725, 0.015076901934448128, -0.022872702984891136, -0.03288678350889278, -0.061493140561339366, 0.02341570063523677, 0.0008700271824941446, -0.03740310957443759, -0.004818416203941954, -0.07610895156731202, -0.05752413089243702, -0.04823102499706988, -0.005552140272903713, -0.03412433086415284, 0.03613597869918384], [-0.025543358039789778, 0.03187652475106057, -0.05887854380051937, -0.012853987059383447, 0.03325584000123684, 0.054423264231030034, 0.028951776019119576, 0.0042966199452956115, 0.03744640964994597, 0.0015547513817464004, 0.03931755338996744, 0.0010919702096623077, -0.023852126421239496, -0.024012269670742534, 0.016975059647394174, -0.015227852039447192, 0.0010101268315220809, 0.06321096807955592, -0.03099857195580931, 0.007752536295498923, -0.022518384100358526, -0.06434081449501286, 0.09152416229350974, -0.06603692136746425, 0.012754335246130887, 0.02534627192861534, 0.046100283430484446, -0.05514197996061724, -0.010820337764856398, 0.07129609405202775, -0.020709067727776132, -0.028414775477506475, -0.03993919012756807, -0.012411603477999847, -0.03248303385640479, -0.004484982855917384, -0.007331859969265053, 0.019196119610947124, 0.03700131051947211, 0.014519410835376613], [-0.061570762292357584, 0.028586894449437242, 0.027811050368240994, 0.04251179298522799, 0.050079543055130224, 0.03001346702381989, -0.08096737026685043, 0.013646826461472476, 0.00014745032493702713, -0.023765045487679406, -0.04654096419687274, 0.003204009818556571, -0.0299139404509482, 0.06686805257748894, 0.022063212108533417, 0.019216957201444795, -0.0430640125559853, 0.021346119485543887, 0.03505945877556835, -0.057276744378693, -0.021618967817057765, -0.033447943347743085, 0.009113243825453528, -0.0024897899332983102, 0.0252005965505517, -0.03916934882626597, 0.00029663737972658664, 0.005872747075253504, 0.007831040940157456, 0.030843231238382736, -0.03283375384989675, 0.0044617033059853465, -0.041028813575109825, -0.016235232911267463, -0.00873889399803783, 0.04845310947503231, 0.041888592653211744, 0.0509367795297231, -0.01652379224716991, 0.06110413145918778], [0.006771474719939598, 0.06588635196979357, -0.014834912127196034, -0.02039453714177725, 0.019080824435146717, 0.0020692735676087494, -0.002373674304810991, 0.006757506861811499, 0.024142211061524803, 0.008754693499038495, 0.050401575018766895, -0.002121677383298516, 0.029406109309813265, 0.0031232695381038927, 0.03365291182252952, -0.0017137659341347235, -0.021895959914266867, 0.010654519087569987, -0.029028973354328396, 0.0729899948337636, -0.007692337519599489, 0.052210063098529845, -0.06676351653038799, 0.013371612326657827, 0.011000153496629661, 0.02566891396874319, 0.003299645261092695, 0.02125886013231087, -0.04432974685649559, -0.041747756443280985, 0.009666162936960966, 0.003079712896585259, 0.0045069046006789015, 0.04618926751767829, -0.007396849705773301, 0.021035550885776105, -0.0003868774215644271, -0.007998788427328936, 0.0008839171199731088, -0.004127987234914771], [0.018043829011888616, 0.0024794099699263035, -0.013392946144779988, -0.03622885133163588, -0.04256975133447638, -0.005628205416891761, -0.06310493002921728, 0.04284144529325259, 0.05544557283496359, 0.002754049424595277, -0.02055802141775587, 0.013077096550501469, 0.0042332893972012045, -0.07118994030302979, -0.050254204584152744, 0.06006744467535492, 5.752497495280057e-05, -0.006493611367306843, -0.01622663731595403, 0.05232679215787967, 0.01558805256613884, -0.003056570839488535, 0.07778697814815917, -0.04052819162996507, 0.013952872369707872, 0.01314470042647664, 0.03629262437651311, 0.02588348115726589, -0.020919692485678428, -0.0117212874295929, -0.023408287023678385, -0.008475990832939156, 0.00608248952173416, -0.021486348524794852, 0.02588502652919966, 0.012953766216139544, 0.050369989272221374, -0.029622462639680942, -0.009648158967715186, 0.03295234318851758], [-0.024301273951179356, -0.03186659949808063, 0.05550976286465621, 0.12520708188048543, 0.00384938533788217, 0.023920798734191843, -0.002292960900541703, 0.030675944687108186, 0.014709027779810322, -0.022036293120845107, 0.017558275277954914, -0.01949654452182123, 0.040240344775945236, -0.02945974378417861, 0.012001211505419388, 0.012722173237140616, 0.01940921376167923, 0.07421502012904713, 0.06753199213575095, -0.028578139289943696, 0.05724333457940923, 0.05557935776421894, -0.01571611621858097, 0.027527557118182992, -0.029719135243970594, -0.01372052685277865, -0.05143280726999371, 0.016376065830935482, 0.055491868142425446, 0.004491093801439486, 0.020951815341223815, -0.007760266225070684, -0.024177313402351668, -0.04786451428340324, -0.011550889620725882, 0.031111601989343752, 0.017201353951217753, 0.0681238948328675, 0.013446583579839393, -0.010506246872400437], [-0.029596068286511863, 0.014158964115695987, 0.02968476252197173, -0.03728738424527516, 0.07457732744637718, -0.0021997791350966667, 0.009616591346449582, 0.005799131838352288, -0.027745557998251708, 0.0015125329538898385, 0.047452092321540094, 0.009693640609357072, -0.018406051454876376, 0.048801961527326854, -0.037991843885404705, 0.020830249850736744, -0.011962776238631265, -0.027185169711069837, 0.00037541172836245073, 0.05868486601161199, 0.024472906072208554, 0.04358152984433056, 0.0523761356578736, -0.06975501597200316, -0.004019534711919365, -0.02827586768605204, -0.09495456425299713, -0.025123218898256427, -0.016830774759989137, -0.005412623080631515, 0.08874981468469947, -0.038654584672532494, 0.09635694097881503, 0.0052615537369618635, 0.016219047055875492, 0.0029229847596478364, -0.016754863906140765, 0.015330966978026718, -0.015452520069501362, -0.05858823949131866], [-0.0022494284466101425, -0.04523961963175757, 0.014365959953556925, 0.014442482994499812, 0.0888371841981762, 0.022813390987096185, 0.05489253124503597, 0.0262886140279613, 0.06373582795721545, -0.023622842356565102, 0.0032987232688947853, 0.022308928761396382, 0.009900833733449719, 0.05690540543076925, 0.003989333671588247, 0.03176243787261271, -0.0382906821720658, -0.0002073911639931649, 0.03383788103396357, 0.006466865562614514, -0.0005770673103749607, -0.032873494452118616, -0.07652660635459717, -0.018181597418043788, -0.006547629635926919, 0.010479143618119914, 0.03979741201370164, 0.04900684027509791, -0.002454333714572115, -0.05647081789937217, 0.0060685728216148685, 0.021932376978348937, 0.01727091580544173, -0.03129306324938642, -0.06673583998325835, -0.06902438929765677, -0.07498540654304381, -0.040066653898180836, 0.03016020587043152, -0.04718850734699996], [0.007596923958317146, -0.026244602066725815, 0.003427388363666503, -0.03642313719464794, 0.05785967142453769, 0.009383941227358016, -0.0050398264645601576, 0.007122015697737539, -0.03323997596584056, -0.02766111884847211, 0.0348373327124262, 0.032283745951538025, -0.003291686506645364, 0.06167562068802319, 0.021776663962745458, -0.001278611455704368, 0.004861415285314422, 0.013516465824360651, -0.034342620413520174, -0.022943634173311682, 0.033696685752130556, 0.08228798777849043, -0.009242114056257114, -0.010016818329180157, -0.04964757230140025, 0.03976346630569577, -0.04708357481275484, 0.055856726900702675, 0.012965495173377405, -0.07929898810365958, 0.0010595917233346551, -0.001311453228707281, -0.020323811764771535, -0.045975373055963095, 0.024631903237947266, 0.007355435691843879, -0.007132178977780446, 0.0842750094382354, 0.049157123063333544, 0.06180854055366698], [0.017099707659846523, 0.019712511796855254, 0.024727108188314893, -0.026055611293667236, -0.03849664292997358, -0.052223572466664675, 0.022650974671832007, -0.02310379815802744, 0.016243940608528844, 0.03929560402900268, -0.0629276082696473, -0.04238530823403328, 0.03559822137038559, 0.0005277147506566266, 0.010501669523648114, -0.010886049533141363, 0.017903795495062377, -0.0013819984573548044, 0.014579179664003138, -0.01648462647507172, -0.03524476411263591, 0.0020350139108914604, -0.03319008056295418, 0.00770219195170731, 0.036693159708696375, -0.027170350509689783, -0.02333427300659698, -0.03163470729071107, 0.01899204183852947, -0.029514333573506968, 0.05282336402411818, 0.003942357959658337, 0.007635059655418391, 0.04219821097284722, 0.039851191940986345, 0.06335881132441204, 0.022457692337062476, 0.060481201685228726, 0.016368743794315948, -0.009748710316456894], [0.007474102806388557, -0.009345119931484973, 0.04881361021236942, -0.0021020185082413086, -0.045170415631742754, -0.01890170721234018, 0.011646995196758467, -0.015001395074027995, -0.0036753621103764304, 0.024056068365498635, 0.03412100172325447, -0.048826775924356754, -0.041150314105458045, 0.06034447725944345, 0.00555429286679788, -0.0714346357314441, 0.009915247510856776, -0.06584946236947105, 0.01396860360692562, 0.02715989875795592, 0.04326807640116124, -0.07988589404529274, -0.055147193501204436, 0.0075704113624247525, 0.05824316356597381, 0.08046360125870058, 0.008643408341706038, 0.014776277091503854, -0.031189909837902503, -0.00569510063861209, -0.04512868780769653, -0.033374799252975956, -0.08670386553346705, -0.0213664598137106, -0.053154802021538626, 0.03793373590007624, -0.04513527738858657, 0.05334074404468398, 0.022767213785652066, 0.06508018316271531], [0.032946254003835725, 0.030792654859806652, -0.014666588307243322, -0.016152975647240497, 0.03488246929089653, -0.04208147457528067, 0.007448651260970092, 0.046762687962956115, 0.008763412380530912, 0.054328145891671266, -0.021003874019095998, 0.02337891394882617, -0.006899001016041691, 0.020382673519693306, -0.055339853668144395, -0.03709194802470428, -0.008600764180097309, 0.03686301511691235, -0.008986751500347195, -0.012576708378265532, -0.08663441900412364, 0.02573957915328909, 0.00596065475441829, -0.006762616237958088, 0.02457141816549858, -0.020314367584680693, 0.04399709744519851, -0.028796427043045796, 0.02460990820136831, -0.03494268638944265, 0.024381936975801398, 0.008428153554954899, 0.04139138707931548, -0.03875497176008876, 0.004000259352477126, -0.05437875443212016, 0.029095390499765266, 0.053016803513718985, 0.01010424654101963, -0.06233276447815586], [0.011365654870045157, 0.026565841119797234, -0.00548478016578538, -0.007747696971671154, -0.015121212797314501, 0.014945487510254976, -0.04031486724412887, 0.04042723831953959, 0.08665376738446333, 0.06166501540499159, -0.039579605958622484, 0.00814700680741861, 0.04362613506243098, 0.017619421142642654, 0.015337143960572976, -0.058200914464834476, 0.01581296566495373, -0.035071607884544664, 0.005526068695379817, 0.03318924110482221, -0.004622568857501822, -0.07819520936758122, -0.02880044796631113, -0.024152622689523617, 0.03322441300009866, 0.024468866782946273, 0.03745263878057755, -0.031022923835192593, 0.020653933992336396, -0.027248654059705616, 0.018879933046390383, -0.004012590831495073, 0.04281283501480405, 0.03219175452637594, 0.006884914759302994, 0.036931446893228026, -0.09192542989798308, 0.029825074089792295, 0.02196453515714561, -0.002115329092777936], [-0.020363969284650976, -0.01729058509784172, -0.04265636306087008, 0.002856904721546816, 0.015775882255028437, -0.04366966532472961, -0.01729485258074327, -0.0010788547237267948, -0.033508773871546674, 0.06867705240641947, 0.014564398536883285, -0.023783324409769584, -0.020957310868072867, 0.0013983682146016681, -0.031136346211326386, -0.006074376858122636, 0.07925425491198591, -0.04386223800702456, 0.07549232227208999, 0.012554197856295442, -0.003618827071538823, 0.028047850258777065, 0.018491009175449102, 0.041950719080787555, -0.02533916580193818, -0.0014147575431444684, -0.027519957372883756, 0.03369014395993982, 0.00599482219543449, -0.030752156690935718, 0.05746132611002492, -0.026733090778735223, 0.02920574700832021, -0.021765087050904464, 0.032435826851302224, 0.06704634781463976, -0.07164980753676918, 0.061877894583368474, -0.0556375528265202, 0.004260229915614665], [0.024680041228606973, 0.006550107662963455, 0.03628853496383817, 0.06757555952320718, -0.02668340371077981, 0.004467979178600951, 0.00203886721978617, -0.04379448338974393, -0.008965442959775678, 0.0259132245935272, 0.023281758669003866, 0.02150908221437902, -0.006748684866524179, -0.030417641429395997, -0.032537951950834205, 0.06687746758663594, -0.03138268600868694, -0.08392046669159198, 0.03135096241975171, 0.07647571337536885, 0.028330030883637933, -0.04089342745312018, -0.0043946845347349805, 0.007766458115334564, 0.031220912049603818, 0.0092544853544403, 0.004259206706723083, -0.045760975711513815, -0.015597712601828672, 0.009716355568150032, 0.05057592206224907, -0.014380147001299661, -0.008040267896898816, 0.011746868162986604, -0.03570476779359994, 0.03625265189120217, 0.044011891484505274, -0.008096565240873323, -0.02440377420115459, -0.031737033578395], [-0.04986933158171479, 0.007010720248317405, 0.04538825804968805, -0.04987016793733715, 0.00616236959826895, -0.08225184425859543, 0.003121040811185623, -0.006416435645687662, 0.014527415676771028, -0.004145300319625389, -0.025345084223255987, 0.006991127523744642, -0.049986275847182314, 0.02731506731235414, -0.014443389398632578, 0.02294176088577076, 0.05639086363974744, 0.011391218112284733, -0.007125690362380192, 0.04705498525704023, -0.003796419207821414, 0.036317715058528176, -0.05220875788354764, -0.03039882633739221, 0.03640905934885963, -0.030745735926496057, -0.0027839996093224108, -0.05245117738684201, 0.03682509945667752, 0.03230055053527095, 0.012197706705987726, -0.0679891489739014, -0.016149082860125005, -0.00020791995138500071, 0.006760273335128709, 0.058519581278470345, 0.01832706886737518, 0.020059932270911986, 0.02607235082998135, -0.06744773367041018], [0.026631786894291996, -0.05585438711957778, -0.025762720859687928, -0.02314869111543053, -0.04277296865646351, 0.01352781814770263, -0.00777621172139703, -0.013798993128794828, -0.014760094618510994, -0.01769154257660489, 0.02543315590415104, -0.030871123760252327, 0.005343063817667282, 0.04658187490490573, 0.029566510104025747, 0.042294770007038275, 0.018471271953593608, -0.024530902768454176, -0.0018414180387170416, 0.10576402924004269, 0.0050330767222931975, 0.03417494861332573, -0.029208536623272875, -0.018202999324753725, -0.006114412642569084, 0.01856565510289654, -0.012181159399414162, 0.0417759919994695, -0.006523529675636493, 0.0015477757454758123, 0.0004673667555386317, -0.041762227667511885, -0.0023970847999958697, -0.01314977048910864, -0.007100062150417266, 0.025230058636182363, 0.02186122348853136, 0.02054039706595729, 0.06656771772047063, -0.03938223980476054], [0.014152903947153524, 0.024754806154220165, -0.010069888404365257, 0.027767061237443227, -0.041675631336894614, -0.018987868789249168, -0.0343755295539396, -0.029094059811189937, 0.0018187594892995313, 0.028816087704373747, -0.0030934390987158306, 0.006822105357285898, -0.024156281862606793, 0.04434441568052623, 0.023020404722034416, -0.01862502184015146, -0.01796070576182217, -0.015178502582213874, -0.004475687493099034, 0.021994218112440112, 0.044991595524622834, -0.005470761014262219, -0.003139549141537817, -0.002155700836323864, 0.05167214994074845, -0.00547034562901669, 0.007129667828408429, 0.048971683154180747, 0.01786375877576716, -0.045558287038486994, -0.05049186615777171, 0.02887532254147988, -0.008140989565634986, 0.014444269336115633, 0.016292722186099614, 0.0037074105780209032, 0.010388641578017867, -0.02455410279965681, -0.0047329022310471655, 0.0315978662927234], [0.03405534805554553, 0.05753970061806533, -0.0029624460419952264, -0.023929438928648468, -0.0011091770994946508, 0.04880902354957627, -0.001821805841289031, 0.05118078792563346, 0.0038630150179466403, 0.07418423390516173, 0.016891838844291126, 0.0195733088461905, 0.008253435119347348, -0.00682175082271984, 0.032779799112321394, 0.02400357303683358, 0.03904920258454381, -0.040515115197111505, 0.01817479510316243, -0.04151766903775423, 0.07493314787995217, 0.018615506634072708, -0.0036170319863939896, -0.02315931252878264, 0.028782846133424037, -0.054752385858474896, 0.015321773431321834, -0.000752515851239006, 0.03417473782134648, 0.07881000064320558, -0.02124705644665195, 0.009259439303984346, -0.035031399901918545, 0.04274139852863436, -0.013230076673215848, 0.024717268614609558, 0.01500068503786271, 0.0013185052650469674, 0.02125222947723776, 0.02823071798244794], [-0.024535682003081778, -0.010916837533487437, -0.005231620733025956, -0.032313713999535254, 0.023165112598306545, -0.0013695847808654538, -0.03921566208612579, 0.0005375029571888119, -0.0943723781278552, 0.015460151910944079, 0.03375693473095135, -0.024104894440739842, -0.02245177107839451, -0.01861078563936467, -0.02563965534991007, -0.003311537899494538, -0.03651993893313747, 0.015362272343690376, 0.013006804281968692, 0.051564050797229574, 0.012196551327748571, 0.0016312498134268324, 0.04454214127393315, 0.07836211604786601, -0.007638496193411664, 0.025777086092655964, 0.07133791946032725, -0.07421030608323091, 0.017329513148925602, -0.03973118879507434, 0.020310748633692813, -0.006213446240266393, 0.025847831023563188, -0.02790712339251422, -0.005053533935856034, -0.026142530435055725, -0.03639469795284765, 0.020038381133575443, -0.005453737729119607, 0.04471403205822719], [-0.008321370752621737, -0.08948343318594193, 0.010241286955546687, 0.0019381149540865603, 0.040240961216194464, -0.028273925074543956, -0.06605068315979512, 0.03916177546779749, 0.007744357084706848, 0.055517035447295526, 0.02092212488758306, 0.009331708226946013, -0.030280661731689036, 0.06548377141375408, -0.045963749546904686, -0.06530790964709784, 0.02884641595773602, -0.022278418683285794, 0.00012485514508773433, 0.02240882999747642, 0.020536247140841134, 0.07642332601406325, -0.05725288665299788, -0.049457961922338915, -0.0842606094217581, 0.09870601710583918, -0.006988542237956308, 0.04561280809179574, -0.015736718664530205, 0.0036327880142177325, 0.011155492975871484, 0.026591521416949575, -0.007163062203478961, -0.046220989980852466, 0.03801122297276246, -0.013774382277485574, -0.004143479629207402, 0.039536757785216564, -0.03079712862961765, -0.0422013776224188], [-0.047806505245347616, -0.03203265349234109, -0.00357196163156203, -0.04122247529466086, -0.032780180202678186, -0.02143308512222804, 0.05268818417323218, -0.022593410090495723, -0.040266281407788, -0.006614567493089251, -0.012120597082122745, 0.01847915821170057, -0.0241007779367061, 0.02822863655990847, -0.008177124451824409, -0.006546915471692203, -0.03545384420915619, -0.04521181893455238, -0.03765818797647789, -0.05281584310808617, -0.023668161400704952, -0.004125961148325918, -0.022347460996859934, -0.0048947732418645265, 0.025144876063357573, 0.013507803893773497, -0.009242286315845965, 0.031180909593285122, -0.021004578158246245, 0.015441490302989504, -0.03284539048848992, -0.014590324499067197, 0.03356911501291895, -0.05175180582937886, -0.08923378709188938, 0.01756442301556375, 5.318477890477343e-05, 0.022000939687058196, 0.08641329004234957, -0.04636488987059733], [0.059478822390207964, -0.0064066295048119835, 0.03002510265839819, -0.0028892213909268473, -0.03462448507602473, 0.08110033837425608, 0.015251794039342747, 0.035606156174502655, -0.0010392140047203677, 0.005294811458883918, -0.021308748834424903, 0.01858113066850819, -0.023363625569834637, -0.03401154923429981, -0.007992982190005746, -0.012474500998135558, -0.021968542711162022, -0.016610880938671278, 0.01183595762650358, 0.013173572027093404, -0.031020015297804914, -0.05530227720492869, -0.007897610532245912, -0.044071749572753054, -0.0014943199169682839, 0.018410631227328503, 0.009507281204893036, -0.032858834682395595, 0.00884841367941588, -0.03482186015837194, 0.04556293930138229, -0.02996545549265041, 0.047922411527696204, 0.018273540263279354, 0.10516988807977111, 0.024598993496750814, -0.02700783309816944, 0.010636795535453169, 0.005826059344901757, 0.059196870325447716], [0.01487390422185205, -0.06799485710482364, 0.020257908637190934, -0.017989911795685647, 0.05898978613419674, 0.04247945030802154, -0.014223179534170015, 0.04601784539121274, -0.05319693566437787, 0.03445584885629962, -0.06153833436195543, -0.030733800288593092, 0.03528093842500752, 0.047131546373435994, 0.05795633451150364, 0.02919192015076318, 0.012884821155132552, 0.030856069569110075, 0.011767081431435074, -0.06795394843634608, 0.044995098082721174, -0.033557137256262026, -0.023668707448734616, -0.024225589594022493, 0.04698061157339993, 0.018386748571026523, -0.04016777069021337, 0.022444553413841824, 0.0047120008859138154, -0.051430234549654, 0.02210804911300116, -0.011652668110429238, 0.03332789394852933, 0.016567470688274685, 0.011075528040790737, 0.06286022346660658, -0.00475112745653588, -0.07057962291528444, 0.004368228199900388, -0.033447017991296055], [0.004337132360402071, -0.003997115356346706, 0.03898559439537028, 8.076596583456425e-05, 0.008142035818272065, -0.042290194719184465, 0.011166141347930814, 0.017498060474606652, -0.026107065073873194, -0.05081198584057243, -0.02449777134742486, -0.008551468845069311, -0.0060409669504414435, -0.018154562512517167, 0.07298519562948813, -0.011403695165273535, -0.004159588667651263, -0.03299321749729113, 0.008770819820839883, -0.0012457872369409594, 0.021125619215581797, 0.011821660027547946, 0.008205802750892888, -0.035579496723932534, -0.007905614381488422, -0.03994704626471181, 0.029639723524328802, -0.03799966619641532, 0.0338134856044518, 0.037630511093841405, -0.06142020256179266, 0.02600134572390226, -0.06232406171165229, 0.018876227114652772, -0.053788301432934324, 0.04049282500629861, -0.040951221053920905, -0.011079736226093196, 0.04003883117829175, 0.022180848912035814], [0.03620996379529832, 0.008843094123666743, -0.07964111539862069, 0.0026412840974628458, 0.03773748972341529, -0.01699932357363273, -0.001939799603838562, 0.015785969763299094, -0.01786360619774939, -0.0854449242832516, 0.024953820365196857, 0.02637334136304197, -0.0007738414036876497, 0.02370365385773772, 0.0015449179129148562, -0.019582858809029303, 0.042931807677662956, -0.03979000805798584, -0.016000027299696972, 0.03445458743675225, -0.007552472975556095, 0.0502490651003642, 0.016154533712987917, -0.01766021975880068, 0.022500402914177244, 0.005468489820004643, -0.0010693244194794741, 0.03840025546330697, 0.016451917947871, 0.008437248057031924, -0.0076267834140752505, -0.0612785195230007, 0.045319425646932046, 0.038897582831098086, -0.037620554148817154, -0.03998954547512642, 0.03320927516039792, 0.013709768755116506, -0.017437090050960977, -0.006440623581123627], [-0.09158029758997538, -0.09086529598225289, 0.02529167442233818, -0.005554494607490343, -0.034903855457769334, 0.02967934993850249, 0.043213882756252965, -0.06070275783359338, 0.016676532444565663, -0.05774260140053899, 0.00036351987765347434, 0.061556243635784255, 0.053229702612667934, 0.02983765788444377, -0.04030230306531669, 0.003029316861334923, -0.03602458992489214, -0.06787800304108253, 0.027696629161363538, -0.027163488535617838, 0.05835704910575143, -0.0076498805180353355, 0.031243164272921703, -0.01348912896899611, 0.02354316224446442, -0.012475098679027609, 0.041579154279194744, -0.016042329548280842, -0.016250008434057724, 0.021822430586519562, -0.07903216789740382, -0.0041659593895779015, 0.03563027683633955, 0.037505068312653864, 0.017496415316090433, 0.015320186139252484, -0.038448228378937264, 0.02925535989675332, 0.002076561841009505, 0.09964893818367714], [-0.04404895622020199, 0.012386757803460654, 0.03661110811672964, 0.009492658601832833, -0.030696400048886466, -0.0326090875659916, 0.02446011295876795, 0.052869980172969344, -0.006174906507324461, 0.006565102626692202, 0.04932745846418012, 0.046355119648842306, -0.06750338107423955, -0.005744978323555795, -0.057032124856228404, -0.0349324236246708, -0.017200352775540852, 0.02099719179425845, -0.00957924278883287, 0.006191902229937095, 0.06537810063830633, -0.0007212302890846666, 0.009080432284612088, 0.0062771695009797976, -0.09149996267794677, -0.0373097026160094, 0.03932270630073945, -0.0555659730713942, -0.007799239610982273, 0.02978964571258832, 0.020540490886952794, 0.012458198276607756, -0.017662019673578958, 0.015842080337743165, -0.03300147224236162, 0.012807385426606852, -0.053498309297417196, -0.009525763160370921, 0.02834386459047701, -0.027284739439356175], [-0.0007605111543245643, 0.07002173770726332, -0.03869946562677507, 0.0434105611738238, -0.037073656414071635, 0.005626573088464445, -0.02303741549926231, -0.016717684365035984, 0.008045121764319105, 0.042837930974785374, 0.0039307263627182286, 0.025883822470447303, 0.006760585003488729, 0.00374529752727618, -0.08181690324768263, -0.026015460158581492, 0.042195732813911056, 0.045606777361982646, 0.004480419692714829, 0.09446946586188827, 0.06042247159262691, -0.045140924428693316, 0.016272339845663248, -0.007542050508638587, -0.025130670796626946, -0.032256566346371744, -0.047236016373332246, -0.0033785985194210314, 0.01362805559112531, 0.036048978801799234, -0.03186286653624079, 0.0201462891841155, -0.029355842346316833, 0.019432505146738548, -0.017417935978232334, -0.040027512871969886, 0.035138528328053316, -0.0018162438740981005, 0.049211825002868845, 0.03319666266358163], [-0.021932741103436685, -0.02930892282907341, -0.08796100255339688, -0.024003511511117934, 0.052523317966368215, -0.12288001379295375, 0.031165833139797202, -0.043755449115306745, 0.007458924454342082, 0.0683777709063146, 0.03772741217616209, -0.007633079589043882, -0.0027925318161802584, 0.024252569260434165, -0.01209603785790419, -0.004226956995709086, -0.025408488137840874, 0.02013357201820684, -0.043992500980150104, -0.05766405970640732, 0.024564334039121175, -0.00028067164193369644, 0.017763275914780385, 0.01367091364093589, -0.04419525876836261, 0.023111967469153293, 0.061706866314595266, -0.002795048519185849, 0.017223386872987828, -0.0058245074597859745, -0.028338233983179726, -0.018659168485102958, 0.010942638251507599, -0.001909111042188769, 0.01405264417163025, 0.01532425702061803, 0.03100830493591004, -0.01360013897125827, 0.024001136105630132, -0.10214612788266693], [0.008364839838474478, -0.06438409207510057, -0.03028663434935164, 0.013164167740183494, 0.027876179200414963, -0.003919104460627266, 0.02673525914149673, 0.022018164136343596, -0.022650274608436046, 0.04170723174073478, 0.04578144165218537, 0.03272095269505357, -0.00294260134525183, -0.021233149583806163, 0.05492150704520428, -0.015518401847785135, 0.0468086984604471, -0.04273072493069995, 0.0115884633152726, -0.07523394643683987, 0.0362247532306713, 0.044273543285231656, 0.02460189165136065, 0.0011038671143090448, -0.010180634021195772, 0.02966252977093253, 0.010813273870412239, 0.06811043871323386, 0.0018620258766019124, -0.000564122445111404, 0.0008003553040936461, -0.01905048253565782, -0.024779052425350383, 0.040175663493187914, 0.023216256934402796, 0.0434013401982519, 0.030132583829291845, -0.008490787461261987, -0.020892435446242596, -0.019668167784360726], [-0.05091144962784017, 0.030432882258819183, 0.07163816357432927, -0.031914798115734194, -0.010300334021494103, -0.025393207144270024, -0.0077401778522691745, -0.010626120330483277, -0.024417220556808894, 0.02075473154647156, -0.018683591708961667, -0.036436544615032714, 0.03192404417406455, -0.016017183744161577, -0.0014749769466220939, 0.013243272843899144, -0.035102570155783136, 0.0053856265292905724, -0.013434411953008912, -0.006656108447294382, -0.00044917608527899553, -0.01962190467095242, -0.04488563467514611, 0.04667674983447245, -0.05262323305039403, -0.06580403170039127, -0.036878381060823674, -0.018963207646325253, -0.01724794438688803, -0.05865488055938919, -0.037193246406710234, 0.017894161367981304, 0.012395323243680348, 0.03309240998487471, 0.005237516894553858, -0.007080640039504689, -0.05638415064005547, -0.00031853753286339867, -0.031190852775175974, 0.0032161031930032767], [-0.03321693899843227, -0.009631074165327614, -0.004061683157603856, -0.0293504443669583, -0.03923928152713598, 0.043793535070184735, -0.008739348750213384, -0.10363338157989802, -0.007398244527590018, -0.05716773295629127, 0.025213914214999456, -0.021178504331739092, -0.0329995965459437, 0.027473244092189042, 0.05537167735285896, -0.040926323618873314, 0.014816486245571085, 0.08078320671921153, 0.036051406121546385, -0.02453772048573642, -0.029859534054854725, -0.0066517196678494706, -0.03257310962935222, 0.06358371918580581, -0.007277955700710597, -0.007435502578129475, 0.03675824870346984, -0.008769801507835568, -0.017301803841334756, 0.00331399696929066, -0.02955834548656714, 0.03224374830544806, -0.0713641641160906, 0.020174106042129658, -0.012864775797761251, 0.025703626852585038, 0.002207942825258288, 0.04526621099068796, -0.04834326787035224, -0.022016056313205138], [-0.08184442852525804, 0.026605241194864977, -0.04562949704196335, -0.017095474780545378, -0.0018702330901257513, 0.028996378115048002, 0.013687652470676381, 0.005834987644364299, -0.02292181176271352, -0.026538756989873555, 0.00083452692044435, 0.017190919779599627, 0.027772687291804897, 0.0141472106219957, 0.0484332316008476, 0.026100459303124997, -0.046836867724357995, 0.007927567193512258, 0.023557209364103424, 0.02055220049695773, 0.0034227530477484516, -0.011932282440677521, -0.037877054892817424, -0.06425890125467652, -0.01301220000774908, 0.014936685652354604, -0.0625466011220055, -0.01477832524647527, -0.02128632122066731, 0.0460336768885277, 0.005059903956123788, -0.05749686914944918, -0.03313563618560433, -0.0604383025771588, -0.02104130141295051, 0.06305518214482428, 0.046485433936215126, -0.028588765326911472, -0.006483331896703384, 0.0006522376653812889], [0.04418932870425153, -0.029254823028255016, 0.0016159647900436257, -0.02153624289745869, 0.056759106128837424, 0.034819495000903034, -0.06640578505916543, -0.015201646414133138, -0.006202415421251367, 0.02131450733002706, 0.05450052241819183, -0.0317580253356575, 0.020293727972715822, -0.0416332525469456, 0.00531594809573341, -0.0006881660428938441, -0.034438340962425346, 0.003109097526817831, 0.018143615542738495, 0.07132324936500904, -0.09387016574804764, -0.027662271993941626, -0.02465438156709942, 0.015617217128870656, -0.01454864960987651, -0.039755498282865655, 0.00529189630915263, -0.009645624945606888, -0.009388862208590414, 0.038422166749381384, -0.0016666673102081232, -0.02137769274359319, 0.010183006857099917, 0.0016353433246203753, -0.09341500110201956, 0.03400397597305063, -0.07599749466197529, -0.04401407476623849, 0.03519665858630566, -0.014693824321534234], [-0.04433838042350583, 0.0020373098418953587, -0.04501570824877873, -0.045623858740047235, 0.03407838708814457, 0.03554014786184963, 0.031097349831435698, 0.046629478413182913, -0.0010845460575465028, -0.050872446948563986, 0.016997533761902498, 0.0026945072057865385, 0.02084980400272517, -0.027635974062925353, -0.04272644042591367, -0.034568616800498185, -0.017991991312937796, 0.025335575473374273, 0.014835520044179226, 0.03843855716368256, 0.009221038556516407, 0.037107803164620055, -0.024275648460390143, 0.0646682125000635, 0.01305792523724649, 0.010845052940891225, -0.025701922817912164, -0.050737732916506746, 0.02822498396676568, 0.06742007446667286, -0.016411598208019403, -0.021333794653678573, 0.0020821904575039113, -0.004481550147761089, 0.02527659570947575, -0.004012195446178525, -0.016478419917300285, -0.014368088334510927, -0.031577740659372355, -0.04216275495621005], [-0.012549874553845585, -0.058567856174855194, 0.05095789274045637, 0.01572315760704061, 0.040658330954625094, 0.03538363604768736, 0.041105665133951114, 0.009142892250661403, 0.03129794863701275, -0.021897817845761596, -0.05774568382097097, -0.009804526723218672, -0.020604204032352313, -0.009202345304487995, -0.012442631422175325, 0.026869399249498205, 0.010141004051830932, 0.004329326862102358, -0.012268633420844218, 0.018369042054613146, 0.030945683979497356, 0.005780614029206847, 0.026135187088079728, 0.03835643036951817, -0.07427604944458487, 0.03862688522417008, -0.018928091859253232, 0.029711408564960937, -0.029140478696891126, -0.040997186607847645, -0.001158160702267062, 0.01280749156720182, -0.04398063500470347, 0.00820110851084773, -0.004618246463224972, 0.050508504881151293, -0.002633289518618315, -0.011753680285398072, -0.03272559694417967, 0.037603066416763996], [-0.004366259794794634, 0.06793616725661326, -0.006131915907003632, -0.036578804195334276, 0.061591000478694605, 0.007124632566205752, -0.040516828977100496, 0.006276960895280543, -0.02347362356759656, -0.00527553724155341, -0.0007996297679998994, -0.023649658967071916, 0.0038254985866723783, -0.04209874338541173, 0.027838402872401784, 0.009224416976294048, 0.008413393039107321, -0.009393439881639794, 0.009343416861315165, 0.029674302075471285, 0.007248981930763726, -0.043749218053066856, -0.009143306038857208, 0.010816814090508707, -0.06529891988345057, 0.02698367000345797, 0.0110324449654104, -0.025959498130307443, 0.033864988521622924, -0.053045195117815164, 0.06164414359058348, 0.029263689524201615, 0.028481357358821586, 0.04247594589500322, 0.042080096929683064, -0.023886065596821007, -0.017686035407656387, 0.09409524003126343, -0.02490173476372398, 0.003375211960796772], [0.041027335681196285, 0.0012281096551017643, 0.015862431827036623, -0.008208427837404483, -0.011726034134480992, -0.008083097170689044, -0.0006897182247171141, -0.048693627451429355, -0.01586717499800143, 0.009181141519498089, -0.0010460196394514716, 0.0034814976613809895, -0.0412269844088314, 