{"model_name": "Sequential", "layers_count": 6, "input_dims": [28, 28], "loss_func": "CrossEntropyLoss", "layers": [{"layer_name": "flatten0 (Flatten)", "layer_type": "Flatten", "layer_args": {}, "layer_params": {}}, {"layer_name": "linear0 (Linear)", "layer_type": "Linear", "layer_args": {"out_dims": 40, "in_dims": 784, "activation": null}, "layer_params": {"W": [[-0.0030516977132230842, 0.06031820188895355, 0.05135405305523623, -0.008294559182559424, 0.032946792117931535, -0.027350570577087726, -0.06387407833893458, 0.012619963989717835, 0.0241124605505081, -0.037975206549927684, 0.010736242235627323, -0.011823066232700734, -0.07163545079636367, -0.0645245930021804, 0.027669635467765855, 0.0006778079738237418, -0.03801234231020458, 0.04294169460304844, 0.08645927378494771, -0.006707744658987286, 0.03156348055125458, 0.022739651809219122, -0.015634200783504432, 0.016049998766217106, -0.03380297156114402, -0.058474502203827654, -0.06199901300307967, -0.07041064145480912, 0.024254915027957714, 0.03428369716568731, 0.13259498956357985, 0.01209901599711299, 0.02362791468066398, -0.015974830192915093, -0.0881098051196745, 0.07643152724338136, 0.06389879406566272, -0.04815216523578407, -0.10105257650678952, -0.01812142294495152], [-0.039950445479298616, 0.01484642763691097, -0.0033556784822362695, 0.03621660988213048, -0.046749356551231185, -0.06928121314885612, 0.01861423055751164, 0.017653203776811555, -0.043939770703363995, -0.06082123570832568, 0.0069512942840819205, 0.046960960462669205, 0.06858640388906978, 0.023351151450981378, 0.09085986701327517, 0.06092969425174513, -0.06970383117051826, -0.029143262965133497, -0.03883482105922894, 0.04152396865416647, -0.03198655395489916, -0.02711823045047371, 0.004095793991592943, 0.031076542529268853, -0.05845165117513942, -0.031526300018146027, -0.03600035543689974, 0.04586964940840088, 0.01562222431723468, 0.0030156569654135666, 0.016741981732107586, 0.026908030026477205, -0.020188431818144257, -0.014608017312256538, 0.048700861277430896, -0.09042153714197478, -0.020686310681845003, 0.05678833551931045, 0.01859314391017992, -0.004140571725323754], [0.013468102796374228, 0.028881603981116825, 0.04658435121648742, -0.004918675797906834, 0.022853620828091618, -0.021458336828230302, 0.04411132695765065, -0.09418773211281577, -0.03515214851441946, 0.02651904012721487, -0.1163928068052336, -0.07083256291442944, -0.008306545477007793, 0.054905874819772604, -0.0578997338575593, -0.007222606805418939, 0.003688155913914449, 0.054895396847705356, 0.1030974306245076, 0.0209215133953382, -0.00010964158390478755, 0.09061394497151273, -0.0731235827612787, -0.026788117561901793, -0.03607068362776464, -0.02587215839642056, -0.041265543001132395, -0.03927748772721006, 0.014530366857677503, 0.010713146129827144, -0.020880227115542736, -0.01798271232098807, -0.05709590922462667, 0.006414747980303835, 0.03913655439143265, -0.010293557082085928, 0.09528240453105379, -0.010377228640843734, 0.028820955463694255, 0.04029066234054627], [0.037343701210077324, 0.002638757777737169, -0.02861260336073839, 0.008371239023544731, 0.015144381056818139, -0.07866304063242642, 0.028445132747718038, 0.01074283786404137, -0.03217819234051665, -0.03170945045568675, 0.03783710095448137, 0.04396405229514686, 0.11333058304457902, -0.023529978760447, 0.008596104227219709, 0.06400885146942074, 0.04875822968837353, 0.026280325438269588, -0.026248176231477766, 0.0044239206278726476, -0.016442108084067576, 0.004876057619536337, -0.02416321394480384, 0.0699374764548768, 0.01481035791820405, 0.028283916411163998, 0.04597951355630966, 0.041710117826502933, 0.014212807573340397, -0.05016713863355439, 0.03401196168724682, -0.0754368824373774, 0.14907572032574157, 0.08846501783411734, 0.1016284924954475, 0.009702704878671631, -0.03176255742075914, -0.067848561086751, 0.012767544473324883, -0.007257845709702472], [-0.056436622600895506, -0.06591583731771963, -0.004761758438809942, -0.00034593806057619045, -0.01703417947332952, -0.06772160646110943, 0.013508046422249285, -0.033204153324583034, 0.013811561695924674, 0.0022802397787204543, -0.029612408051281937, 0.05080164476686056, -0.11057292377828867, 0.029677822638933496, -0.013696793346476742, -0.018510874422526004, -0.06167276754998599, 0.02718315679572056, 0.012747656523578375, -0.06049788351504612, -0.0656436225204499, -0.0034819166324584114, -0.030215827361425408, -0.07607682141309938, 0.049722845746266085, -0.02447087047757477, 0.009896664608095585, 0.05353154214522756, 0.06924908588870778, -0.0038454243428993834, 0.07427996008314637, 0.04419620241061308, 0.03980643278664785, -0.015908167199238814, 0.07277244736186268, 0.1254794182800108, 0.04627732130228776, 0.011891242646293184, 0.014515617358223494, 0.09893356999948096], [0.022534685176252036, -0.015767261407587285, 0.005328924470493562, 0.020254780997543253, 0.09139446723414184, -0.0528883094587443, -0.025535872354508566, -0.03310833472919669, 0.10369029033861774, -0.021319871580501408, -0.09720024803844104, 0.02825548551692865, -0.035481375025157094, -0.0592594752429085, -0.0397372815120469, -0.10623495061813638, -0.017280127457777083, 0.05521121756468614, -0.048456673471439, 0.04240825413204978, 0.018773595987067907, -0.0038236549392325343, -0.055251882137511386, -0.01974555401265709, 0.015736817603069254, -0.019079117034821, -0.03457708708065402, -0.030871632434197615, -0.004688523566068353, -0.015562334298524699, -0.04349199607946535, 0.008419928321744957, 0.03140023452548382, 0.03425536655475255, 0.07955723220744265, -0.07413580684270674, -0.020257123963189027, 0.015418630159673987, -0.003666282563820987, 0.01920877571241529], [0.0011530006509876223, 0.0361318353055862, 0.03844211530394284, -0.08019494575373093, 0.05749975698265429, -0.005026835786971513, 0.04805995049164196, 0.04195943025429099, -0.028011095913685446, 0.042693812488517446, -0.025224214335121172, 0.06870920961050742, 0.008505463384510489, -0.0176881247695055, -0.10625964090118165, -0.043231019357945065, -0.04254597133074781, -0.036812857560608966, 0.06149672395106237, 0.055477879400476326, 0.02113727535880555, 0.02968173916467844, 0.06321616167374586, 0.014872253609111718, 0.10539726714032802, 0.05952644002804228, -0.04815734509665933, 0.0581021440800614, -0.10349052346989797, -0.01935181403679684, -0.03701012464527643, 0.01219665663538462, 0.08914210067393312, 0.009384757263435883, -0.07407722476591613, 0.05809678572535508, 0.02315146382909592, 0.0037941598860961835, 0.002655057062354823, 0.08854654997563995], [-0.018184401469009032, -0.013812431261926175, -0.03319159281615639, -0.036654045158040605, 0.007450070147541614, 0.003514008996232502, -0.02894501339180851, -0.11885966985816532, 0.012661150965678476, 0.0849678854935735, -0.02648192602273011, 0.14605264894264045, -0.0026098558682658398, -0.02151896551612466, -0.0009592199694131843, 0.04689793492689166, 0.058547058235964886, 0.05312684530893342, -0.005781500141437171, -0.05395479025832531, 0.06024881361702531, -0.04466173335172746, 0.06469145460373713, 0.09954130000165447, 0.07027997959056746, 0.018939310060664252, 0.0063304383161428895, -0.06043914749333863, 0.020829602107351814, -0.028635938213073538, 0.11724933551172703, 0.018921212888069597, 0.04693570845721836, 0.05453856274692183, -0.02986219621494179, -0.032051111716227376, 0.03384423968253346, 0.04618875295083878, 0.028275629110350115, 0.08193634542726444], [-0.04602628380810942, -0.051507501167245416, 0.05808629245994882, -0.02240982540239098, -0.01833544010730241, -0.010948794698364798, -0.02198106628156694, 0.05110068425035573, 0.02911247215975789, 0.007774752227533178, 0.044113479299894114, -0.03566333637327049, -0.03313532183098723, -0.0717730234533535, -0.03143063215979775, 0.019916152395252632, 0.026490562473896632, 0.001129210129279268, 0.007110681789473041, 0.013331585451284869, -0.00931956980536006, 0.03408866689023305, -0.18987905528665291, -0.011710257640017128, -0.0019259905035081126, -0.03363865496997573, -0.1502953786830894, 0.0218343990502425, -0.11207140870282284, 0.05404013759654129, 0.011095227286686887, -0.06061151457224738, -0.044715575952722846, 0.02922584936668183, -0.07520423384698391, 0.07133840010235201, -0.0015493511656341724, 0.08881374234980269, 0.041442180873075704, 0.05517684070449503], [-0.037313624366698044, 0.025119740153498136, 0.005535228413891276, 0.038406772727334844, 0.07804564056057384, 0.056863475077569246, 0.04417695658350617, -0.06578910308500999, -0.08437402176965368, -0.04155222490020543, 0.04363004215916195, -0.05964836460445217, -0.03185197329271209, -0.03405459536089849, -0.03396649668307527, -0.057839577710693195, -0.029925282951337555, -0.09321576605117321, 0.00401834513011185, 0.06457727822174004, 0.06896389814345841, -0.08895624856688537, 0.0641561051112551, 0.008545281530799783, -0.08895069283601933, 0.05497330933197508, -0.012911341366280152, 0.047327028916214875, 0.018112760711894278, -0.02194640415056361, 0.01297201624885193, 0.024711552278518262, 0.02832852778100251, -0.11336820340629414, 0.03658433369712114, -0.015814105265748595, -0.10499046225544623, 0.023308622406336525, -0.05261953505079295, 0.004494766354909412], [-0.06344647421724443, -0.07132092353521015, -0.005865571581561564, -0.018366060643719997, 0.061083097048542666, 0.0019894857872738117, -0.014434290300265305, -0.06973332937794112, 0.02140784922981836, 0.012380923429416438, -0.08101754901400213, 0.04857788384077536, -0.04281235502295688, -0.0792730416916505, 0.01398193194866531, -0.031674400484103915, -0.0647640326287046, 0.02299094477483313, 0.040284788490685355, 0.01485727625147527, -0.002094913316099041, -0.12181952052348324, 0.09543902052570294, -0.06335248136330204, -0.11821712369345834, 0.014135078460011852, 0.05335093926751987, 0.023836652837663817, -0.06774465922178022, -0.0003195253568351203, -0.03514235629961647, -0.005157506266627629, -0.000835228982369988, 0.01920515749791054, -0.06601071483569391, -0.061228587300658215, -0.0034269586205554177, -0.04643280826520234, 0.01745396052868178, -0.0320888531351977], [0.009446789088261309, -0.07184157621592129, 0.038526665349163734, 3.443675227427156e-05, -0.04674593906781999, 0.03896268981960249, 0.0036344354495762227, 0.012472093745975932, -0.05684294741195196, 0.11779304121677386, -0.008512175736230145, 0.0446089555523035, 0.025271753684406404, -0.09078509921357246, -0.008697453220199993, 0.09194459629804043, 0.018539681704807156, -0.033524149838627094, -0.04151750804391844, -0.024314540684422258, -0.07441187108238592, 0.06829522955755551, -0.05916874425582637, 0.13160123056330914, 0.031165804390213152, -0.04126420796055256, 0.0441352595804432, -0.052253200932654155, 0.09846073135659149, -0.007763143844631659, 0.0047928949094348805, 0.035166508001219475, -0.00554310649729423, 0.01671934107917558, 0.04667181082282578, -0.024579618203339045, 0.09626998665982714, -0.11439778609422735, 0.01156580474358946, 0.0561570381162064], [0.00021139744540967195, 0.007159999230185052, 0.010409790196167557, -0.019568161862767126, 0.008286953648895763, 0.06940711234566406, 0.026210274734672682, 0.07744029208563805, 0.0120095146608971, -0.060910121381976434, -0.06382795491818774, -0.04093996201575033, -0.04052584341179945, 0.0008481370197168327, 0.03140625362489458, 0.04550986725632509, 0.03056052678514194, 0.04735966958180236, -0.019222315558825708, -0.08492747231250848, -0.030217995245505065, -0.0579385183854791, 0.012686164366168647, -0.05069523863367355, 0.04566707024085062, -0.001454293324053304, 0.019860413357899304, 0.013268507539675732, 0.04960656393748101, -0.03661835176778064, 0.020954355071347158, -0.025753054414804247, -0.026660721057906938, -0.08121387683674601, 0.004307189086278922, -0.03509210192664372, 0.055440790913927215, 0.028135281258477782, -0.017303416867084975, -0.018285284471327722], [0.0152536187620864, 0.021252057817327627, 0.04086244126987535, -0.03947819730875684, -0.020216695459564046, 0.04775508427034074, 0.017362313118696557, -0.031927011768305306, -0.06272789642324489, 0.05072706984641949, 0.07479546623777335, 0.02908850175547282, 0.11888589557929038, 0.03816795369913009, 0.011970452686217173, -0.020560290440753512, 0.018138911184059765, -0.04732694176965522, 0.03705064926927815, -0.11812977426248351, -0.022065531658561878, 0.08012357192392677, -0.026007239135348532, -0.024531319334040937, 0.015410415702236908, 0.05627568849610228, 0.026721676499361705, -0.016903149050540526, 0.02306716877645376, -0.0604447579978129, -0.04151841316669099, 0.008241955132269257, -0.014129407472385981, 0.006765524969058341, 0.04227847902064614, -0.06457795337915657, 0.08483068658212214, 0.026712072185490543, 0.0397818904731261, -0.05614661649099451], [-0.03128287252175423, -0.014018031401404807, -0.01846286359123956, -0.0340233828493457, 0.005657404846231466, -0.05115150725637039, 0.0520086681635783, -0.07160899070579844, 0.008426445219990867, -0.04373625397764165, -0.03685194988665834, -0.08079764643374367, 0.0023344944205174935, -0.03303051124548235, -0.018850618741233716, -0.03527554993149331, -0.09659705230609315, 0.12196336942726438, 0.01607208110336349, 0.006140858965106917, 0.04012518262332518, -0.08624339943407461, 0.014203381738428838, -0.009490509035062784, -0.05480163483181992, -0.017176687971525207, -0.021806913234074507, 0.12790789830746635, 0.028649961382435862, 0.04103425277439089, -0.01874240953869906, -0.01949290300689823, 0.06506700203585161, -0.018808805539045292, 0.03144359608776848, -0.00017739473756611492, 0.04633293500964401, 0.048041190215836534, 0.09309312291201823, -0.0776293054938343], [0.01291361231397844, -0.033675590297458605, -0.013503435422981058, 0.0796845986477535, 0.02270487085342389, 0.07856172902059773, 0.06539567014688162, -0.032710389716957576, 0.007457774197423833, -0.02683527465025123, 0.062436143513881236, -0.03598784484729184, -0.06066619963246764, 0.052288308172381545, -0.025762790179275255, -0.05612858994434597, 0.04653037896870691, -0.06060551409127073, -0.03985375856431078, 0.0008411980829213402, 0.03657257422782163, -0.02456199370441506, -0.03178523618239569, -0.04426076034576359, 0.030971319934805945, -0.014993412459862021, 0.033690047791290756, -0.03280266450949347, 0.0030460731659713606, 0.02981179240333608, 0.0009696363999156145, -0.028721379610030268, -0.003125966404316886, -0.00379797060860248, -0.024166553840976605, -0.009435447747273291, -0.027067198057869574, 0.045101661258573, -0.0761725261930157, -0.006005357245548735], [0.030007802143704628, -0.002695179924310212, -0.045209764373091606, 0.10672776519498796, -0.039275501006173406, -0.03104996544953468, -0.017072691988050715, -0.008921858260993632, -0.0732515053109538, 0.08079728080337616, -0.007158475234520912, 0.031191164314434902, -0.015475814190914627, -0.054632939109413275, -0.0054265986085426324, -0.06661668127649219, 0.006631911424690439, -0.02092724914214314, 0.03808360895199235, 0.05329932772704114, 0.04185457177092738, -0.053589563435917635, -0.02170678147530733, -0.03941713036861579, -0.028574364984886524, -0.0002473771403787977, -0.030205881829079927, 0.07239148739759804, -0.06072413197678582, -0.07672915739527943, -0.018561655868395442, -0.01860748362953201, 0.05671458969558482, -0.10008932834897352, 0.03465390506719368, 0.020264209583920216, 0.0712113247837912, 0.048204960462396265, 0.02092740481273898, -0.0321155717809154], [0.039738404718877414, -0.016096923534697657, 0.04154619400479879, 0.0013741760222283597, -0.026575068346646642, -0.02392815945468788, -0.021431638057776106, -0.08294674699999914, 0.048294876464951134, 0.033797014909476585, 0.030048114890986178, -0.03474542329949695, -0.028171765797352748, 0.00917343147021283, -0.031162042855194312, 0.05255378206259902, -0.04008144709998486, -0.025971715624334847, 0.015858156374681822, 0.010519599095444209, -0.01642122751907286, 0.0011708704459953857, 0.05996726586948565, -0.04626731834307236, 0.08991316175928651, -0.05630979913197021, 0.06245228663684025, 0.019620308875321527, 0.024794139095579315, 0.033542091217975904, -0.001076649974789751, 0.053552595373716046, 0.08066436909582522, -0.02288591255043461, -0.13459419498519395, 0.05387106717069255, 0.0720535757890852, -0.0964139518748882, 0.0013006535070220356, 0.024303432100470316], [0.07105819533040043, -0.07517530087299462, 0.017708710125328982, -0.0001742183612021342, -0.01882674667118833, -0.07110101916771486, 0.024245060383466754, 0.09124085021403106, 0.06866644080328645, -0.001202372994030124, -0.05369263206935337, -0.08475187120077587, 0.0882088698845311, -0.02665760904752884, 0.03388217041807443, -0.08639347647908233, 0.04097924178205441, -0.05042837825228601, -0.011208414192742835, -0.07529652358500347, 0.016762054120829293, -0.015987168421851886, 0.11046991620219394, 0.06485740999060047, -0.06152432894449214, 0.005555919916151794, -0.006612659716923236, -0.04355667532339721, -0.05237090659283516, -0.07916437790344881, -0.005731936112838931, -0.01409940831513285, -0.05952196757342564, 0.06649794639997939, 0.020317260566039223, -0.019145021514316102, 0.10902391148156967, -0.022847752754575536, 0.02323597743199362, -0.01914581672586385], [-0.055056798266740904, 0.017192233977876167, -0.051008913877894496, -0.12208713019801301, 0.023663817151132065, -0.05280837808885194, 0.013546448732453677, 0.05450038694226392, 0.03796295581164681, -0.0619152104263197, -0.06696575984248085, 0.016888984008602836, -0.06192540500838122, -0.02024119808162443, -0.10733053606987056, 0.046374479440093465, 0.040830381536771605, -0.021224634496327582, 0.020652471685772014, 0.017162588820288326, -0.014995768101611424, -0.010939906141138642, -0.02462252142046461, 0.05058836858624348, 0.009442791393383226, 0.10149860226840382, 0.03626511074359126, 0.06092988053325175, -0.01643689724121302, 0.08715216147695339, -0.020208696132301425, 0.002282335219302473, 0.08550565665338802, 0.024701353175527397, -0.0432678512189603, 0.011039787546777537, 0.0041638403868317535, -0.01647677692780583, -0.0680514522141539, 0.03226533246645075], [-0.022246249690208667, -0.10469303500965586, 0.03829586593288224, 0.057382827497064894, 0.06836256180530911, -0.03600620284462723, 0.04755910168664648, -0.08183587204460924, -0.0788692910675454, -0.016072343481733555, -0.032079464114221294, 0.061219180585605326, 0.051278838020444396, -0.025949556323934104, -0.0021836031751472, -0.0046857723514405715, -0.028487295622952498, 0.08436487387522495, -0.019846556370488228, 0.05461067261306778, -0.05554487578635265, -0.06652629773690426, -0.008370521055855899, 0.013112504977782826, -0.027535853375005463, -0.034201288779569, 0.1608934672826405, 0.10962948633959876, -0.06832805713230167, -0.025697127704968195, -0.04682233098029322, 0.006059627033784475, 0.10698483030403083, -0.014818377674590865, 0.027072040130684392, 0.054553040749111256, -0.047211544296727095, 0.014299012829093686, -0.07915496982042104, 0.06069573743929779], [0.03742941837917791, 0.051784532038994045, -0.0395603145740864, 0.038462611838337005, 0.007573334927010258, 0.019374848928697085, -0.013033796175664435, -0.06490432880398571, 0.02968614177180084, -0.009357369802983751, -0.04964587903253635, -0.003568201505522811, 0.05464511500041453, -0.0013460621656549612, 0.035319221794696425, -0.010757832364506706, -0.022458935056132997, -0.0430297511853204, 0.057311613552624506, -0.02978951180023045, -0.05262659971308825, -0.06147784684564334, 0.0025093512092182113, -0.03900998047944997, -0.025382425600699695, -0.046985470550826365, -0.042938369598196025, -0.04992115819427713, 0.008091946560322643, -0.05883125384838837, -0.008575624700920308, 0.08063193849457936, 0.024495379343614884, 0.02632600364428842, 0.043490372840319425, -0.00360604376283618, 0.038171189479243056, 0.0046135519771072385, -0.025720055574004492, -0.08404393694490794], [0.022800394721223742, 0.024984867210674125, -0.07589164937049815, 0.05719165693584776, 0.027362319056571074, -0.038085964094370414, -0.035289531827034176, 0.0026941189018368423, -0.045845878463742544, 0.031067752058969684, 0.02124501027338839, 0.059550949651702996, 0.07045397079443191, 0.038568866887771544, -0.03638859070735076, 0.08606608031875597, -0.009121562278588161, -0.06556775383138959, -0.02678558174660504, 0.03649805152412127, 0.11868718142699315, -0.015597394746178645, -0.03573820721799587, 0.07560416875578195, -0.04493639480069576, 0.02418123983407222, 0.08193023479183689, -0.0005246921658691065, 0.04771184581341962, 0.042702784432982754, -0.002161910645717106, -0.0010146191727923868, -0.021606361136157614, -0.06940544568292961, -0.029951856760903443, -0.002362634920828632, 0.016055128920087394, -0.011685780246524358, 0.023308551839041246, -0.021010958711452695], [-0.035864216173428935, 0.05923630584876364, -0.003886272817910749, 0.05129034314964918, -0.06561453436802103, 0.10135496427481015, 0.03358283762642242, 0.0198462658865241, -0.014490164584760483, -0.005036171660885719, 0.13526393756692692, 0.013514032985727861, 0.030906329057145167, -0.05177988095666759, 0.021634594979665498, -0.0654165369979085, -0.04375445032942416, -0.0007607193606914756, -0.07794720430581195, 0.08435490607371222, -0.0006673894975032148, -0.0961365949501096, -0.04762362485450164, -0.06614035625927027, -0.048732245642627944, -0.1425101939241265, -0.07107649784155587, 0.010629044226472198, -0.0022392115362859467, 0.049211795348125316, 0.03755116672203645, 0.0017523825870727604, -0.0065080349480383685, 0.0002530563122955277, -0.06376932890928082, 0.03142066986121712, -0.0006993355933913204, 0.012907423101542076, 0.027139661220102144, 0.08773799692217547], [0.09812313654278185, 0.012933124451315852, -0.02752000658981762, 0.02024263812039628, -0.09197024102247456, -0.020582023250558645, 0.08416951109675744, -0.08535286753254602, 0.02047986342791642, 0.08590752117465228, 0.016951481113698257, -0.013652030092983764, 0.08579512271889975, -0.029438336755316614, -0.024006734879537507, 1.7565429603907575e-05, -0.018355410946318533, 0.027212299102945262, -0.026786029917493112, -0.13627038492506266, -0.006811983389883352, -0.044846316045296535, 0.06187975852988296, -0.04763699482954747, -0.09772386228164807, 0.045404509255543006, 0.03979311799864711, 0.034418590539277795, 0.03049096090108685, 0.03922498474630608, -0.017342723386869627, -0.04515268596889591, -0.002905761560863711, 0.02175150622454572, -0.0357079784380442, 0.06726628069639799, 0.029866421507606333, 0.0063249809565191235, 0.07231067252993392, -0.07595145727537592], [0.0027728967914678326, 0.05427183630622821, 0.004511965909670719, 0.08219343693943046, -0.019537147820171054, 0.030200736819400918, 0.05489546665818284, -0.0036648540202546347, -0.11914462300578176, -0.023854702394186612, 0.023937184522614337, 0.055900716286490036, -0.014795008845247351, -0.015566251689532934, -0.03908781947950376, 0.0778377320921813, 0.02265603447966218, -0.07267992561795068, -0.05120761076179397, 0.014003183212402263, 0.002522017145140165, -0.06149265688455069, -0.01832160941723567, 0.003658323840520507, -0.05465879861634296, -0.027740435259496016, -0.0638125123239765, 0.00564560168460358, -0.026982119371121077, 0.011178172473285728, -0.08263282452861272, 0.024475757408906545, -0.033362509480867684, 0.07556738334804086, 0.016433794797806066, 0.014764485119768479, -0.043787135722871705, 0.07544954313461484, -0.06421123342691994, -0.06145023942985092], [0.008695411523497043, 0.09152907596596709, 0.11082822901197671, -0.05851274723795763, -0.03711328265266913, 0.005673401239004879, -0.02642826899552088, -0.0563009612197809, -0.04631671635356878, -0.01671634698853291, -0.03913010378920103, -0.02687435341515685, -0.060385112239808525, 0.054241818856742945, 0.02826724548924338, 0.07373747618675759, -0.06045143554677607, -0.005163058831104355, 0.029955187818978785, -0.026672662310081807, 0.005917313849477616, 0.021169680609294993, 0.10533324001473844, 0.02865988890535807, -0.02364689401298668, 0.04920835076965768, 0.03990786780579906, 0.036984462614990964, 0.06145643738177865, 0.04897737241307154, 0.0671358454988138, 0.028638859307600677, -0.12075924980034596, 0.020431788629762013, 0.004514058629970984, 0.0007897765063296324, 0.019372274043401024, 0.021117836172456394, 0.009078304095055797, 0.0570833791820285], [-0.12766028462992102, 0.00802322416116167, 0.011162962000146746, -0.017297874127525117, 0.07045412179951141, 0.05037827904364687, 0.006496951585850569, 0.07082980608462697, 0.017870522412698337, -0.036528999687382054, -0.019802489930529625, -0.010010011797739448, -0.05114337816783109, -0.023658891955693102, 0.03021187112233852, 0.04191322049018362, -0.03874315820329149, -0.003610243257165244, -0.04800366187773329, -0.06857541653286844, -0.09087734483196973, -0.01233730055585476, 0.08054996874816536, -0.007314488725927371, -0.012196919755364547, -0.0846193580270877, -0.013305834918243404, 0.024119328367033906, -0.0028612213075267508, 0.02782611019757211, -0.09412101923378606, 0.05804463571783634, 0.06252121954935042, -0.027423041354872647, 0.054429946531857815, 0.014618570854681339, -0.031121288952901224, -0.014939044056978963, -0.007726311291171351, 0.003033425583450785], [0.032898534412042775, -0.12363985962711484, 0.039447824063849064, -0.1173089794951461, -0.005773005720436094, -0.013741420358784468, 0.0008864395660317469, -0.018173513403428623, 0.0887153866128094, -0.019639982545586573, -0.028174374069669154, 0.02209588179601463, -0.03239246166848412, 0.03580609465935815, 0.01363189840459819, -0.01166268633929216, 0.07609411904638966, 0.015000169969436808, -0.06272700106763902, 0.080504227561343, -0.03603434576238677, 0.0027428529386336886, 0.0563568704862962, -0.1128498117350656, 0.008032636752398488, -0.0367506705924692, -0.039385854895597164, 0.030761157924384774, 0.024104868835922114, 0.10151145208027178, 0.015880488064343147, 0.08716515037837501, -0.06886825583286374, -0.10017077126781422, -0.013995499699119732, -0.03410970051742073, -0.01942166015376736, 0.058963409040681015, -0.1016613380076128, 0.016117428981067126], [-0.1128136312836133, -0.020925927152882544, -0.03161401376137032, 0.0002097275721687734, 0.040695253755741, 0.04054805366615516, -0.05272401665291834, 0.0021376158941886366, 0.025457178916461723, 0.02400233539436494, 0.02565450672150879, -0.06712938899539383, 0.059185759713316945, 0.057103705154617344, 0.01755265475245319, 0.058312074599753405, -0.020058936148272276, -0.07266951771937348, -0.006784929826454174, 0.06045128606770242, -0.07620901593863402, 0.04572270547539928, 0.02067314445084414, 0.10583153170922036, -0.03317689210392572, 0.022248689329050723, -0.03025037470473438, 0.015964551326356047, 0.07316048441938033, 0.018471482102918053, -0.06541349303593735, 3.950163555395156e-05, 0.026929508674297498, 0.05919710546400838, 0.05488183185399078, 0.04096225492500487, 0.004471705626319794, 0.017337517792854473, 0.030377325920052253, 0.018861639312609025], [0.09504107542981226, 0.015749092256292507, 0.039671097515550494, -0.004917824239575301, 0.018268343251754054, -0.031211752160446016, -0.0024909902115139966, 0.016324458981721437, -0.036646316879992376, 0.012728032891359407, 0.13106726107505295, -0.09529166683052183, -0.04564785371608671, 0.03027905033879216, -0.04152541644471257, -0.05504164094693891, -0.05715945475807432, -0.01845770118900626, -0.0472529283084482, -0.056228053548551295, 0.007266217998323217, 0.06296406411042199, 0.0339520656501515, -0.08067693044902642, 0.012531579788308484, 0.010307487462522979, -0.0027560676593211208, -0.004305046532523252, 0.01069469296522789, 0.0010482274694870162, 0.006052231912261399, -0.10427696143289186, -0.05039086122824757, -0.049556271554234525, 0.028877419486581308, 0.05965453410013828, -0.03463673018088029, 0.02961855917377651, 0.02295322559839377, -0.06999058166258737], [-0.08996739171768277, 0.0389246200324881, -0.03324984191487577, -0.030126527956261997, 0.010067847287558393, 0.07564401352747278, 0.05556939726792072, -0.06925435937562763, -0.0030029583979834817, -0.054658231384082046, -0.03859006567094531, -0.005726468355135172, -0.0372490099268888, -0.04532357669765968, -0.09233010905196062, -0.0474444049073814, -0.053763835406877326, 0.013086067878919564, 0.07366326583441661, 0.09526853333006846, -0.043080731353780516, 0.0119034192953055, -0.048528169330412395, 0.05711735579755403, -0.061046061406407476, 0.035558914987703395, -0.09487725357453625, -0.013756575024068199, 0.006646821284310242, -0.07779162088529659, 0.014872673507594171, -0.05882194808981529, -0.03490240613184604, 0.038403428324507174, -0.03317424302844209, -0.13228315456534653, -0.02009284793589, -0.08635071524606894, -0.06924470282495043, 0.03953125986492004], [-0.024517251554848546, -0.03627010981497589, 0.030042077870401605, 0.056619333971139614, -0.0010034932770926041, 0.03605274989419528, 0.14777900443214387, 0.0031578758412228775, 0.029706225730484426, 0.03787743762190039, 0.05575767162001226, -0.061704766646653954, 0.059504015782116004, -0.04949222442813033, 0.0009580822866046187, 0.03546281718899826, -0.08277876953762549, 0.011016673858436061, -0.08469948271158188, 0.006746815878091315, -0.04963873628394289, -0.04216136503672388, -0.06876385736486312, 0.021859449957247423, 0.07442034389252429, 0.017457956450046743, -0.07981459492944769, -0.008031936527046934, 0.09232895781063981, 0.07460997926625314, 0.01758602539100562, -0.027179208134574317, 0.06123448161984546, -0.04453846125148032, -0.03911043123523292, -0.038676170807352354, -0.03391999407108563, 0.014283859402888125, -0.11539201276721021, 0.03795995610034246], [-0.10617532044420681, -0.041638248014623604, -0.094458607376131, -0.0770506669104075, -0.008230977218921298, -0.02731912625366184, -0.07756199668647587, -0.052729431866046866, 0.0699672274769894, 0.03679194454177568, -0.023431567350252303, -0.0031822572630728087, -0.05059345031948999, -0.05478729597613141, 0.011520539201033742, -0.008566280975556994, 0.02594269700438458, -0.09249755544439484, -0.002682887840405638, 0.006681518982400033, -0.029195087111470255, 0.002729535065496917, -0.057256263470674355, 0.029453722678547407, 0.126174640313762, -0.046903752954618225, 0.08847847158723857, 0.01203534825189659, -0.019698976344867808, -0.04537478125150308, -0.030423062100629585, -0.018525350328537832, 0.02760839266555234, 0.10212683023723841, 0.01897943772911701, -0.034118168359492065, -0.040941137315641744, -0.10690218914809026, 0.06687602296604017, -0.028761915217696887], [-0.04015258517428978, -0.01765507740315239, -0.025565556557524245, -0.03545679592119319, 0.018162620123153502, -0.023144037961317667, 0.057812317578300694, 0.08186302511611468, -0.018771819676156126, -0.011590903589868716, -0.059654958008981566, -0.0077608790507581096, 0.028860621707980497, -0.033508590377615666, -0.006967636455250574, -0.02045161937734033, -0.08050500530723521, 0.00986768282361604, 0.014103859591657707, -0.04968489985748251, -0.03199391124542771, 0.018003473201763424, -0.007434821820080838, 0.033035298899135396, -0.03927578548721249, -0.04484040998493455, 0.007741964277882275, 0.025832975604375266, -0.03366096013389967, -0.07843544315180154, -0.052298631909955484, 0.06419165006014656, -0.010425848322562114, -0.11948278036750147, -0.05722629602549148, -0.06889280521440762, 0.06901409638347435, 0.032270939104065005, 0.03495520020885948, -0.03804364277197637], [0.007793746992278787, 0.009919661323722401, -0.02048357118393223, 0.0050040829303855455, -0.06371238508642242, 0.009256345115098888, 0.031498565159834825, -0.04684207320801995, -0.04515697784854585, 0.0028638141054779815, -0.005018557993752181, 0.01591480506369659, -0.022625078781274826, 0.0654856121742283, 0.004984965141840819, 0.02283956626674507, -0.01930776064234107, -0.04815892707609188, -0.08032584713087158, -0.07784066260803539, 0.03883551263326291, 0.028369571494937407, -0.01146496372184464, -0.07305770213348992, 0.039166713828643285, -0.023592570949112976, 0.005835637517708476, -0.005298676887590942, 0.03256926252653727, -0.052129183684788166, 0.03394243585432147, -0.0002124550566578032, -0.003444109095852785, -0.016822558406003947, 0.014011037763402288, -0.04999022425105026, -0.010569925238559263, -0.035542093898583156, 0.1082689528815985, 0.10385541142164702], [-0.029840617296652033, 0.04143419558242273, 0.06589791820588789, 0.015228852115387728, 0.04578463152689419, 0.024161353236244663, 0.03947916984732325, 0.04470176074775296, 0.12525434560115992, 0.02045397194346607, 0.06997923342685929, 0.012442270180253703, -0.011769571045360243, -0.07377502174491356, 0.10614273369715777, 0.09593599447863448, -0.04507492504779985, -0.0032560299842382574, -0.057044842343742706, -0.04518016442187075, 0.0009703139513864137, 0.01955358480655364, -0.03587157204789676, -0.011650973499938813, -0.017278814663820585, 0.01916914148193655, -0.06724231635958032, -0.08163897035998793, -0.0763006700325177, 0.05608409879789081, 0.01686105151072018, 0.09138263305033488, -0.05892892323595119, 0.07970302347903017, -0.01744133291243032, -0.06331857154344578, 0.035479120213089695, -0.022865281670045694, 0.005641770669784665, -0.010869368406389418], [0.06118717307928211, -0.06730135091689382, -0.06742959669368392, -0.026618398931296763, -0.032883788471230656, -0.02629748247189772, 0.030966567592791695, 0.06002918790137923, -0.04515485961172047, -0.02098332268313635, -0.026860954191341876, 0.015480157828591447, 0.1251570889394941, -0.04141144271367525, 0.040870956933139524, 0.09885571634740281, 0.01560786028558216, -0.00042656477618464075, 0.009049769722403758, -0.10306115680605867, -0.016730754421934644, 0.004615037152074494, 0.035040537502022184, 0.03791617293487256, 0.0707522929977373, 0.11955768409106232, 0.04772510507313153, 0.02614018732048392, -0.005679931390694583, -0.06360997124713852, -0.018247683959339688, -0.0696925929677892, 0.009925457645724473, 0.05288852575757604, 0.09585685892808993, -0.014567128665088648, 0.08820227465183203, -0.0698405434352745, -0.009225203965322245, -0.0107552219097375], [-0.0036644961308100036, -0.008792583596663779, -0.03544488092997776, -0.07063740665149737, 0.037182220885539914, -0.020335343404551173, -0.023955255603268895, -0.07856257559869968, -0.03752099740880827, -0.06655445034073501, 0.016300695668865224, 0.038200110490202284, -0.10133916451287331, -0.04821570223625071, -0.06603267372837036, -0.027963095835427353, -0.022557979400152136, 0.06074477272505938, -0.08444127580174562, 0.025732236889338997, -0.009104559032955387, -0.00575367864535752, 0.059005560288488634, -0.12252850703143214, 0.06804692307059372, -0.059062709806432696, 0.02234906256822243, -0.010724016122831366, 0.00012742550053983874, -0.04321845924431161, 0.09096763947955527, -0.023949220365923694, -0.11573316808718236, 0.04214180440335073, 0.08053134251544893, 0.04360186319120411, -0.011324521296052747, 0.08573019126653735, 0.012137769575079385, -0.04924216465134259], [0.040296317133163735, 0.08960688439243669, 0.004611923367155721, -0.03598137487771082, 0.07161372714496952, -0.021275631241074067, 0.023672170111665357, -0.03576670764378311, -0.03379099898899248, -0.0009443855887289175, -0.02521940314578481, -0.030563223563013855, 0.002896545156305482, -0.031941291842914776, 0.00266225806039741, -0.05102203617001913, 0.07441921018619886, 0.044223843010046796, 0.07565347662973461, -0.023850962448179403, 0.05326889352715572, -0.003251214802247565, -0.050029874782186595, -0.07179909179181461, -0.053824846040742926, -0.046882963987578144, -0.029154471912859185, -0.01769690958841349, 0.02646661580129793, 0.02377004690056529, -0.027695904511818387, -0.004974540812582185, 0.01521811788352913, -0.004964074874154026, -0.13958873891749823, -0.0037199124891082527, -0.04076523096057266, -0.05764250109447233, 0.004095301200637436, 0.010258826718906862], [-0.043501211083325525, 0.013814709731893101, 0.009807790288122483, 0.029953088671007277, -0.054526835031564344, 0.009034233569142987, 0.0415092325076384, 0.01818517840053351, -0.018207305827208323, -0.04070863485001806, -0.014045525083994244, 0.00899576413343982, 0.05195026412162823, 0.06577989671905707, -0.03926157344064005, 0.019674294162702364, 0.1846773229321399, -0.026560995332517635, -0.06558215370032193, -0.02390352113397666, 0.004904701992695761, -0.04194787193748959, -0.022366129416137557, -0.06466617713721444, 0.01603188928312587, -0.006998590945640717, -0.07364912224355177, -0.01601246524906283, -0.030009013035078105, -0.07946255197254377, 0.03531726369201663, 0.049074451041822446, 0.08426120196155071, -0.005747662973642639, -0.023593854844673523, 0.05533379278061036, -0.06455253953569204, -0.046733803817300565, 0.004615815975339777, -0.0016029119565721516], [0.04784991679587661, 0.0621543939245816, -0.11201763903521485, 0.055449799994316186, 0.006081874181056059, 0.029108543388333265, 0.10602082722358054, -0.06941254406078343, 0.12626953048852776, -0.008582141500665073, 0.040947288273848526, 0.00958851610787352, -0.06725439303494578, -0.07221292896050865, 0.026781693047245255, 0.021433630014381946, -0.006335715297022721, -0.02971867657790689, -0.02044293575153169, 0.018286445740824057, 0.061089859997708766, 0.052340626643151596, 0.02319657342893865, -0.05607184581788716, -0.04534847809311968, -0.004510438442946329, -0.02300948999607708, -0.0031554334100193917, -0.04725593637015241, -0.06409713742014513, 0.11862153636680112, -0.001197680176697555, 0.030910825688247552, 0.009438983806771058, 0.015270951557174827, -0.022652336374861446, -0.05945670247167773, -0.004257412940567021, 0.029415643205939205, -0.0891744074230675], [0.08914606080836156, -0.05618824426896441, 0.018303927604840498, 0.028860941999321633, 0.063713267157884, 0.007752831178288752, -0.012105469199731421, -0.0116625805617014, -0.01770013520933602, 0.005336135422710391, 0.03722629859598169, 2.9439916973391113e-05, -0.005984772491875134, -0.06639749155038015, -0.04296443615189605, -0.03000475314297758, 0.013924187642411138, 0.019012287832846343, -0.0084305223526248, -0.007604016431037125, 0.002814417097487601, -0.06625101299498794, 0.01957935828065507, -0.04925184263850565, -0.02343028126898361, 0.011581546082264079, -0.0051956842237974275, -0.07365612571993875, 0.003250244738367519, 0.10557936995890804, 0.01156150859222793, -0.007057144259170942, -0.01838263493170581, -0.05116232665118849, 0.005209501364431391, 0.026299243458249487, -0.06386872525096528, -0.034731931192747055, -0.03164984025582291, -0.04327533755964083], [0.0060992824279657255, 0.06435027096088503, 0.03941805630401353, -0.02226301459218483, 0.07167909772893194, -0.0011839288482836602, 0.01843104636360499, -0.06773199723186861, -0.08497585893502271, -0.055002106555094916, 0.06004866169111949, 0.02062756789302657, -0.03446939258278555, -0.03642281151316344, 0.03287433239045292, -0.015693790598783272, 0.06956754800366892, -0.015722555120296047, 0.0953805673807981, 0.001465998354879793, -0.05437865147771067, 0.016829535310316876, 0.08156431115028298, -0.07109262776137854, 0.050605147531078344, 0.06033427029793586, -0.09901302561554688, -0.06708490940830696, -0.023619692677599946, -0.02177010735536138, -0.04666220630961802, -0.07242186057066535, -0.06292272810231811, -0.012358589553227474, 0.10927348493360267, 0.06887685284490924, -0.003244754413109412, -0.052294156478206046, -0.052393677395874735, 0.014846326853081496], [0.10271237599878809, -0.014722147083085925, 0.09143155274262964, -0.029427046415947525, 0.028907120849938104, 0.023156705065297614, -0.03205087222763029, -0.008491201881749722, 0.06659884793096066, 0.05867746836049168, -0.08980324044425465, -0.09844048851677177, 0.03088505616651891, -0.07009442558299124, 0.039034464899400795, -0.08026594023779353, 0.025118705210696587, -0.06387271310683545, 0.014718610835402553, -0.067212331472392, 0.11036180394473794, 0.07541130905148397, 0.0206400598869676, -0.0014212847966129259, -0.032804451583948895, -0.01831110636348318, 0.038320041013935116, -0.0116945377492681, 0.04892080384406156, -0.07044043364876608, -0.023696875732599865, -0.025837883243978912, 0.026371155307815582, 0.007872771444667933, 0.0173355049968783, 0.043197447428343354, 0.023684194165273082, 0.08075092004965373, -0.01830448136251612, 0.07280854743812253], [0.02553028139045944, 0.03512557460972275, 0.03521103388712184, -0.007782192331861309, 0.07986029604560142, 0.04014431739442581, 0.12131007693670964, 0.019315661975875874, 0.05573400501466508, -0.0818103535354947, 0.0840888624761097, 0.09361920059885055, 0.019884383037648945, -0.06436218262145864, -0.10281032950090957, 0.0958794018074067, -0.015441929977544695, 0.0320706546280258, 0.04244052467242471, -0.1264679910206985, -0.030157041728868315, 0.0012902523280773558, 0.013476690969121173, -0.04201733657727848, 0.07152695286840166, -0.05274804969091421, -0.06392082576147777, -0.07621217420567249, 0.07869024122627778, 0.027753883864973076, -0.028549652151377336, 0.05497072070051249, 0.0219349398936144, 0.01868659020226692, -0.005626085699125767, -0.04323617516109546, 0.10036065828461822, -0.03579814191073976, 0.05849800894932209, 0.02708932669230407], [-0.006521150979780181, 0.026058020675590148, -0.01334315581869769, -0.04558213300757681, -0.02418345813984528, -0.0021227164867025656, 0.07074847818177976, -0.003972529632927064, -0.026006032266569244, 0.001080036920612272, 0.09195425872267605, 0.028532346680571103, -0.09712851465924831, -0.09655770797045282, -0.009828120002442785, 0.020858266537515602, -0.017974383889926275, 0.04874084207715173, 0.03832209493526927, -0.01080355902721453, -0.022971136200286978, 0.04718924527197387, -0.006356442433275761, 0.0018786433525326228, 0.060298813670867805, -0.02271404861062443, 0.009354368475211039, -0.023669311675376548, -0.07671337784595472, 0.012006949390691996, 0.04316225516949776, -0.053765826530435025, -0.024797234669066526, 0.00793173532435213, -0.02650970280847797, 0.04985454981791265, 0.025598448392593006, -0.009817680268020835, -0.03638171357988721, 0.03521535923309044], [0.012044157691279617, -0.048620620241542886, 0.0009714539454142667, 0.004104142716708102, 0.03760602665299659, 0.04641506043861008, -0.04099701777674119, -0.012362735358989243, -0.07097598140448388, -0.0018827222125361114, -0.04966945334195724, 0.07837306102116505, -0.05413865333702955, 0.09559805537797168, -0.13301263222884785, -0.007447510017792387, 0.05287363370209015, 0.0589140624411613, 0.013112854450687484, 0.13530062421869216, 0.08958502423592792, -0.08791645778798282, -0.016107046086875004, -0.03216824437875491, 0.05911395638379772, -0.04542711811944713, -0.02058436140969058, 0.02324469930712319, -0.034366693168089324, -0.022150648918179208, -0.0025376998375403743, -0.015904924165652357, 0.047244783848073985, 0.0025251967491545712, -0.004899146954247657, 0.009791408294865824, 0.03161527333159091, -0.019128786011998352, -0.005338188034151968, 0.02775672906205117], [-0.03848819878462166, 0.10439518746620029, 0.013252946501660211, 0.09836291226770195, -0.03140601118800969, -0.06520263376931529, 0.001193884690189614, 0.02689328697295801, 0.034573819065949314, -0.04220628758677077, -0.012502786264937572, -0.018023602089387043, -0.0210648554668569, 0.0019900814690093503, -0.019644346860432423, 0.01029599483699589, 0.045335332049878004, 0.048900809248566796, -0.015440191609792831, 0.0632071140257503, 0.016971319647791205, -0.07593889280603591, 0.03193508738813098, -0.08104250190253683, -0.014963860984499273, -0.05543589053809781, -0.019794734611566552, -0.03357855983652226, 0.07869758099368214, 0.03334746304984089, -0.016477466941516927, 0.10587086842802419, 0.022715560688807517, 0.065564013849649, 0.013226467217879703, -0.05075897885261174, 0.06980538373382904, 0.0902645945131095, 0.05746391560352363, -0.019683905176714398], [-0.11362952031328197, 0.016075839964301952, 0.0777840790640117, 0.07592736275499742, 0.010930051438835775, 0.04355728169002146, -0.0743045484788369, 0.022723970627075887, -0.03290030696345503, -0.06187098792164831, 0.11133912764721869, -0.014686763553030722, 0.024164670916115464, 0.1047568701612223, 0.02422991645111385, 0.007601300622766999, 0.048274971229125094, 0.04664564845384735, -0.03156156220955565, 0.02772548319614364, -0.032063675863004265, 0.020251336906764464, -0.012394049998240215, -0.06279424298566456, 0.008417010793803586, -0.02970330664347136, 0.04305080420107227, 0.08436958773580606, 0.077259388727145, 0.04468149311059147, -0.062191176781198426, 0.030626082558707683, 0.028457667283531097, 0.01710811511050672, -0.04549718898630395, -0.004413572874659303, -0.03643046960113405, -0.013072781813487056, -0.07334200084242175, 0.053614553283785206], [-0.03468151369248051, -0.02217759046539694, 0.11509231194473257, 0.07076175874682385, -0.020576923442023838, 0.06820605121049808, -0.00625647715753638, 0.011040583959688738, -0.058458855386690156, -0.06097948993598944, -0.006391423993961344, 0.009849774717899534, -0.010834806463447701, -0.062025438881554505, -0.00023204562678733168, -0.03171822188212275, 0.07213533860286143, -0.02545247347966316, 0.011685943302943206, 0.013912543498670292, -0.026375419719699037, 0.01981850042554139, -0.09157524602620686, -0.09139342109568509, -0.08148198651554885, -0.0160012956053372, 0.06975777356591897, 0.017177399059952428, -0.043710892914926254, 0.09236506831243017, -0.025068179480076884, 0.0551422238829646, 0.001431925919296321, -0.07787956388872178, -0.007449494747969722, -0.055349374195452036, 0.004622149779813043, -0.030877779409295196, -0.0502652636164346, -0.02754837426266159], [-0.03769061199058156, -0.013349766021815122, -0.026543206685171038, -0.01563397817918239, 0.022108195842584076, -0.030885090191315034, -0.04316320107626187, -0.021063671750028233, 0.07750625290563601, 0.012528783371005957, 0.04671428761777188, 0.038192615899263614, -0.10471430568941852, 0.000686185859614151, -0.052938478583356194, 0.004524966206996923, -0.021222888126463477, -0.0011170500560610196, -0.08240552120177512, -0.008097742541479177, 0.03247109065050187, -0.01956670711372099, -0.03538721183117848, -0.014650164960041791, 0.028247466261674795, 0.05918917645670564, -0.07974966679871925, 0.03190411967908683, 0.0020942714714475047, 0.043415362053913754, 0.03168114115270796, 0.06327071581353122, -0.010817385848413913, -0.0283790291200822, -0.022963806686501043, -0.025486890476756348, 0.014191996786640087, -0.049982827995921214, -0.008962953910556003, -0.03188961055631528], [0.05088747088694765, 0.04185899277104597, 0.048518372987547, -0.02406211462507822, -0.012778110187688832, 0.006537655946966447, -0.019222608814019933, -0.016999502195221432, 0.07066008219406954, -0.03295261717372202, 0.03596174754908036, 0.05973318292899627, 0.005186843929781873, 0.005430007852974996, 0.017651948645955807, 0.03400331124692033, 0.05161449399176905, -0.008757506425059694, -0.03260147586719121, -0.0177919666024429, -0.042425553271175136, 0.013671264510280109, -0.04807228875661359, 0.007521644587572754, -0.045561870158852893, 0.057638546368813943, 0.07414767202407029, -0.05720406657133959, -0.032227977488692446, 0.02484587175387485, -0.005370185531766963, 0.03240233845719, 0.02248947098243635, 0.039664149831604885, 0.05615977001339598, -0.10538561108381989, -0.009562391611076295, -0.010205886183425446, -0.08348946883567501, -0.08644856051268913], [0.09358054854776465, 0.024923885374082667, 0.023902812998417268, 0.05221338674189618, 0.03002611450410055, -0.02502070488840276, 0.04506778503027532, 0.004815687478378966, 0.031413234621168316, 0.021049957873661068, 0.007017454102628239, -0.00041748006485947876, 0.02521589292654705, 0.07851554694303607, -0.10720434376258993, -0.055696145978678176, 0.011572880361297881, -0.0289088793000569, 0.025107213445664363, -0.09958657604295985, 0.03515966882245975, 0.030992260054584678, -0.0601049357401398, -0.006944916274696731, 0.07243015909236868, -0.05861032082989042, 0.04794595154014769, 0.0554521169696892, -0.016068846242840242, -0.03176752450909854, 0.07278425903288838, 0.07217992845982377, -0.0409143273491604, -0.0852712403923651, 0.06287898772261193, 0.03236132600286423, 0.0022580667139700705, 0.017121056685400197, -0.06851302888882256, 0.01243755162261117], [-0.016200273041226624, 0.03552926111654998, 0.05587786129306742, 0.006782253872440051, 0.033700499687592846, 0.04896237559031351, 0.02386554028553608, -0.0008750858576161562, -0.04360005328858701, 0.059482722204349525, -0.1078382002042632, -0.062422099507928576, -0.045858732219922864, 0.06143926559440923, 0.03010810672811204, -0.010018881430011966, 0.021631298711229086, -0.08641741945103473, -0.028451445800390253, 0.05444688290089362, 0.041200093489943905, -0.07358369475949027, -0.0018233574520328138, 0.06379489677467728, 0.024680290877965604, 0.07151547792288827, -0.040786934108597975, 0.03779981704494461, -0.07147818211106369, -0.08598975503982019, -0.007673897204881251, -0.059476012186648684, 0.0403470012475482, -0.06951433769135201, -0.06994260605604709, -0.04400942098170093, 0.08104252797389905, 0.04792008850657139, -0.04571947371106005, -0.031401002235636244], [0.05308532666493632, 0.10032911733472577, 0.055111147000462324, 0.029053366721773506, -0.00855802217111487, -0.03809983434255235, 0.06406234325002506, 0.017612231619522252, 0.07692488822667091, -0.00821933761921433, -0.049634239299236486, 0.012453885942594398, -0.013738776444530922, 0.06278516788286813, -0.006512729983533788, -0.005350802763657722, 0.002497043985070233, 0.043829666022141105, -0.0063716969087190545, 0.04296760495091998, 0.06750727311534205, 0.0142860748221185, 0.0758100568547923, 0.04532364217852332, 0.03941613338492265, 0.011312425517886988, -0.0615403728745569, -0.0002242730637824373, -0.04821407401270666, 0.00018965270369586312, 0.06050988774201622, 0.05973706432765962, -0.039190152073226445, 0.029133727013939036, -0.07399079112425859, -0.010244268858359759, 0.03462171635872033, 0.03559046979269169, -0.014187107144856546, -0.007302952564298132], [0.004471005998433995, 0.0013629449997468973, -0.03063431580908428, -0.09996506161032866, 0.005129907045882605, -0.09225813840324484, -0.06976264846266848, -0.032594428663433726, 0.0644742623254564, 0.0764925322059371, 0.05414506458335186, 0.014544791672350232, 0.012616049191237837, 0.04913838356146531, 0.06868106345593454, -0.03270630072974111, -0.0498102807436028, -0.0005624078139729524, -0.0061003086776593735, -0.019720849284183054, 0.09757324939243757, -0.014249149435478631, 0.05666581256441522, -0.036936231358383836, 0.032660491015972314, 0.04050433383833177, -0.046497868681548434, 0.031449719689778784, -0.05997189609581129, 0.000759156925847759, 0.005690700269476697, -0.068586733558762, 0.020848790855462693, -0.007431797349737028, 0.03831977835053326, 0.0001729377675640055, 0.038698876189545546, -0.013745359797098409, -0.0772319096057463, 0.04034625268444382], [0.023861955017184952, 0.011989499775532791, 0.00871968268272583, -0.06156203057413491, -0.0320354530923084, -0.010175882938889335, -0.044203097199804, 0.04827039867523586, 0.007597990801258442, 0.08547793689628325, -0.061526255014117286, 0.002782365338747089, -0.0669739724918469, 0.046759324240060164, -0.007239971473488394, 0.03941846640667575, -0.0794799821866008, -0.009380477884051866, 0.032091468688295585, -0.037671362151950626, -0.04249889645930203, -0.015878994754045066, -0.004334680266764363, 0.10175098018771349, 0.08963120435590961, 0.06668112510696775, -0.07037889067747333, 0.06605683790798915, 0.06311494962629068, 0.06374467553915528, -0.0635209938008824, -0.033196514957381205, 0.047835404704422754, 0.012511659400784114, -0.010601639123696606, 0.009444057490254133, 0.03388002751814131, 0.03178759654656205, 0.0681469578575666, -0.03945182048109603], [0.1115376045960024, -0.044464857050750844, 0.05852940669296004, 0.04891432218990484, -0.038547284466262516, -0.03654585296345988, 0.008764299562510933, 0.011274556111068399, -0.07383109636078324, -0.03869561661492823, -0.00753301759244429, 0.053270333356163976, 0.045282426673899076, -0.025227864665926858, 0.02156992928637086, 0.06988680389974831, 0.07372279824286293, 0.05341578967721035, -0.00498127930566125, -0.043806722812150097, 0.027344506038620226, -0.0430848121851694, -0.01581208002629344, 0.03421491684663189, 0.041828791567238184, 0.035186496843503466, -0.012074507596808249, -0.034956603315266364, -0.01136205556473946, 0.01748731499837767, 0.017035383482652194, 0.0783782290789182, -0.1051540740401137, 0.08856669093907309, -0.05672042308797003, 0.015446432653868794, -0.036331378237228054, 0.051915797943565156, -0.07642117731614419, 0.031688503764404], [0.04058160696494384, -0.14602915390778864, -0.07410188336591543, 0.004837404679896741, -0.06520803264234744, -0.0030186031128442404, 0.02286629212832282, 0.07052154153855263, 0.07339451770818074, -0.03283027338356961, 0.0009129418590410534, 0.045256511235154576, 0.07151777487930641, -0.008801586488155464, -0.012424077728107226, -0.04608887427895063, -0.10318680170605736, -0.04295650962025953, -0.06631413489038208, 0.028155715946968054, -0.05491880520409341, 0.011756508748145534, -0.03128762186820766, -0.07585242442049364, -0.0017601307496729315, 0.004197287004189221, 0.05369213219391008, -0.0017988872241298777, -0.0460769575320099, -0.01526447606041389, 0.03614618870656075, -0.056484906594270204, 0.0469695632163977, 0.02310609827962958, -0.01105691220458795, 0.08528217501512085, -0.1274933759992514, 0.03250308487087268, -0.040453700297223415, -0.009779685000511228], [-0.013393237571012564, -0.014449755666499375, 0.06524468546352462, 0.01199675717896777, 0.06512764690585048, 0.004185435184786319, -0.03515130275122569, 0.10300730132093158, 0.005675454377917691, 0.04606131582874643, 0.05512561472184475, 0.05250354760673482, 0.002818327417088002, -0.05482621969812394, 0.03637212885627072, 0.004668522214841268, -0.00674553856795511, 0.0014767073517351881, 0.046671080559526845, -0.041703178707661874, 0.012084571740879808, -0.05989073268855987, -0.018560166954914706, -0.10387996841458398, 0.024942380710499153, 0.017202871108357318, 0.02517037567021285, 0.06502448377169308, -0.11785276997820039, 0.0804238401898188, -0.10416298206978093, 0.070131821218291, 0.05434732039350754, -0.03061957375856875, -0.04859184194633965, 0.05296117971004003, -0.06820531177790345, -0.04042707204886151, -0.006433973106310054, 0.033025017056716635], [0.0745058081076612, -0.08612454742125632, -0.059804999141219395, -0.12787364421966307, 0.04694982600604788, 0.004233514492335097, -0.05926125992336431, -0.040132135539195, 0.0001090728061051526, 0.052935737500489445, -0.0844566453176422, -0.041866114461877706, 0.0719279612076859, 0.02627824295202493, -0.019089099379850302, 0.04584227856624005, -0.017782451272216445, -0.0013224314971965205, 0.007173474206651191, 0.04534716391674385, -0.05052446766108725, 0.13327998059652932, 0.030667937417511743, 0.005347822755398786, 0.03492441964933316, 0.07811067971501177, 0.03129454856031162, 0.08308727279544076, -0.01465294446095955, -0.005596660785978509, -0.0545980218515462, 0.055982763609646366, 0.05921359051111521, 0.0627943011637129, 0.004291915250168215, 0.04718192814437339, -0.10527172890255074, -0.03468112812815892, -0.04694570452981266, -0.003561871513347022], [-0.00030093028409380884, -0.0729651147454847, 0.024654456920132274, 0.03073686610004118, 0.02863536800728215, -0.061815883438846086, 0.043552146679624, -0.024503816427193223, 0.02166419092006519, -0.039628502059858656, 0.08185455424421896, -0.005177030669727213, -0.015892777616291046, -0.009103124140185815, 0.03165786985711975, -0.019922171099284416, -0.02690889172967984, -0.047236448733069, -0.026071623633367787, -0.0485627450268887, 0.03961505728610891, 0.02494393157563343, 0.026766026320582576, -0.03957416401587636, -0.021306587512568538, 0.016670873092754085, 0.04153204744979317, -0.020031787275294408, -0.003684192314641201, 0.04117677563590104, 0.02858504576041003, 0.10976715189049571, -0.13859895977621903, -0.0795800316573735, 0.03142164589573383, 0.02962832479682315, 0.022202260370919914, 0.08798330373136305, 0.0275645420168604, -0.05069364158343523], [-0.07731547493730158, 0.07168997315841515, -0.00177304112803989, 0.07037730631222523, 0.038362113891168975, 0.06068790194970127, 0.016413399572587254, 0.08869537655427177, -0.012640146107157876, 0.056923152302522505, -0.0663030685963108, -0.029706615161574374, -0.009285972003980446, 0.022137529405524856, 0.00874575929496535, -0.01604644298858312, 0.02663374848725597, 0.04703614766363542, 0.05271674687294587, 0.0007893864561170725, -0.06822821394004373, 0.0835518678583316, -0.07408524288967386, -0.08023862329538874, 0.0027477431676957037, 0.020019775412647545, 0.03813552609148362, 0.06287675067263895, 0.05926579764035832, 0.03220130232612733, -0.08448151153448256, 0.006990571890722951, 0.004819797988062701, 0.01620822967767821, 0.06340027800195125, 0.056533211358908736, -0.07279353042170648, -0.05266768178723647, -0.00987658570469813, -0.011274111252793893], [-0.10100214982074819, 0.060000296375663745, 0.08768776183881637, -0.03312410819834014, -0.0744323148153917, -0.06569510525252327, 0.05799302536439479, 0.10854550841492301, 0.024470655631077715, -0.017122482967475944, -0.03901754242782219, 0.05328741776796076, 0.03946134655797114, 0.0057204707036219654, -0.14009448915786293, 0.09521546152336836, 0.07800398143870042, -0.05882981423872193, 0.06835790320029496, -0.022896371938466224, -0.05923113906953855, 0.04162757447703854, -0.007088901543867119, -0.03903418396404756, -0.04073784074593025, -0.0023070534937071297, 0.006807095099191765, 0.03397149575239532, -0.03435231255873201, -0.01592436458039192, -0.015499964335044112, -0.025847903655138966, 0.010778320652530184, -0.041234056782463405, -0.08412631199377293, 0.03674609096873861, 0.040311827754370776, 0.04912687917983677, -0.009759174966369057, -0.0488363131930274], [0.011468854301818024, -0.01896023050029, 0.06842732537028225, -0.03058155652742155, 0.03148001570757956, 0.01075321073215675, 0.021367646358221203, -0.00987689290095457, -0.0606641770540979, 0.01623882053907499, 0.020032925071284666, 0.12048366812756821, -0.0237131985988733, 0.027707999379944736, -0.06368485444187312, 0.09808061123470525, -0.11753585256186097, -0.038204825662868265, 0.05755340172038648, 0.0009159109549470108, 0.015175114943298856, -0.0022449639437470766, -0.003431471718906914, -0.01499576102748761, -0.015668752954674674, -0.009496423940133914, -0.0944309400804291, 0.1514690876189517, -0.030204412203648306, -0.06354911923048634, 0.01183099194376567, 0.09496150123479948, -0.009464794652090283, 0.07587676226036924, -0.06071943871880579, 0.0027235628744870055, -0.014017977656446799, 0.015072292301069637, 0.055617433468872234, -0.09403133116293201], [-0.011927259589581912, 0.012661148527202293, 0.03990000179507309, -0.0657094130996609, 0.04773823920001813, 0.04966971161069175, 0.06420761417165145, 0.040161344799876805, -0.0014341121510525593, 0.06754326327649118, -0.004815991416776235, 0.03950195728051078, 0.06672041629349001, -0.0025753207271345855, 0.008523223763797503, -0.10452806341505307, -0.05000377925622104, -0.013159115980118355, 0.09781112840340477, -0.014926073250719464, -0.007229235055111389, 0.0069576870548200675, -0.030745173660192207, 0.02223754562535289, -0.010169562640842835, 0.012580225548548561, 0.07174655287973859, -0.09389416692305018, 0.012135831711415131, 0.12399485261902529, 0.025837953498013082, 0.06316680910729632, -0.07744416172901482, -0.016263952455551955, -0.045390755553747775, 0.014927420914536357, 0.003532781958860493, 0.024076967319725917, 0.07925532840591361, -0.05868349676316157], [0.04587621192946164, -0.003878197657354791, -0.04262682723830961, -0.018370716248753843, 0.03158870212502537, -0.02243164865727838, -0.02558457116986076, 0.03635773133620176, 0.05907622751659947, -0.0284299045586397, -0.02837393695575621, -0.028398288173197197, 0.04312749475461172, -0.03201011279820248, 0.01613493056769315, 0.011074876657196728, -0.002227754151257897, -0.07425376538294269, 0.007273727666556802, 0.028963130463606573, 0.006180257005613476, 0.07424008158894396, 0.06311422050426418, -0.026883743552270464, 0.03502199254190523, -0.021676024959066, 0.09491358416313217, 0.022190644294512396, -0.027608626487153315, 0.040145468276699375, -0.02998906729681914, 0.03643021317587749, -0.03243469374298451, -0.0716412610979151, -0.050667771495896026, -0.07755081509263594, -0.01822661820274849, -0.06910559105093143, -0.02215125202227976, 0.03104854090576349], [0.01435217412195156, 0.0239863238736392, -0.10658322921387851, -0.0018995284915198345, 0.033720318841214784, 0.02373763222276538, 0.024053727659259092, -0.025579386335727997, 0.06954435491989397, -0.024989642510112074, 0.08005699301250382, 0.10279488810990779, 0.07456014986133153, 0.003294987389052393, -0.038178824982304585, 0.011157333783769562, 0.05866927902332902, 0.00938785797840367, 0.014393039174434866, 0.027608455874139834, 0.021104083332270457, 0.020681301421278126, 0.005933122579710437, -0.1230200431002541, -0.0031875830305077065, 0.06785732568685185, 0.02434525204596476, 0.0010569245724596375, -0.04101646991651815, 0.01113538098250956, 0.003322710301347971, 0.059164424209291216, 0.04423907603616232, -0.02342854196074293, -0.01993213988449498, -0.05564733977169359, 0.07228389841870311, 0.010319316605876911, 0.027368155734713663, -0.043342166324537204], [0.028458676910584037, 0.031245518418528052, -0.04580349694826527, -0.052773413704877946, 0.06499672080689378, -0.017445879642123723, 0.019316644138155717, -0.052355639762514235, 0.037604098798166376, -0.002953951278184523, -0.05187909406057026, 0.05377439843588342, 0.1193566258661641, 0.10417912031761181, 0.028457560609764423, 0.003199450532638623, -0.08496589362320818, 0.025860691359229665, -0.05300816334230066, 0.08916746588258945, 0.014958661554937365, -0.032741871144756345, -0.0034343138670021966, 0.004948879061072389, -0.061757802892602125, 0.05770438579316989, -0.00650845169210432, -0.023997766662816382, 0.029711329981980058, -0.0002759138506033379, -0.0054344988546769285, 0.047133857303552816, -0.05700149233110194, 0.07111048129844035, -0.07429239673832372, 0.06812752206769356, -0.0020259843005116245, -0.006142245754028814, -0.008773149408247265, 0.0014032092086542582], [-0.05948428218504687, -0.034928838204856746, -0.04374653154872266, 0.02170429729412282, -0.0134597136240408, -0.10312337208730045, -0.03477328254322477, 0.017108282510142625, -0.02329487530458348, -0.020572575197799415, -0.04670808195972231, -0.07232581824785904, 0.03864475654616003, 0.1122106447944435, 0.010874146279007381, 0.008937334564630237, -0.047953555899767186, 0.009299136123227397, 0.06477850348700492, -0.07830423830497803, 0.049127899789416805, 0.020413422471913394, 0.04191699514447245, 0.0378319420897819, -0.00036938449556804705, -0.0012275773208845985, 0.03601129943904017, 0.0004176618805728693, -0.043266928595596436, 0.048757126650612985, -0.030376300514444426, 0.1167409913269331, -0.12098490138355329, -0.050928379170246986, -0.03384225476936735, 0.02110142637423442, 0.06571301461854173, 0.002065845286404149, -0.05475636442030707, 0.02735197807162447], [0.09264413258766581, 0.04705767698078173, 0.06840039359082672, 0.04903636239043287, -0.012296124620572012, 0.02782367491911966, 0.018549332446290742, 0.12004163022443912, 0.006665148052295065, 0.011861711943319303, -0.09886767639355633, -0.02997076164252386, 0.009056187330379972, -0.042851053331466535, 0.03444749225485823, 0.10127912822430858, -0.05687745131941287, 0.030045165853723764, -0.03346450623974719, -0.0092995481374244, 0.031145046532679826, 0.022536821222768694, -0.01111213284341308, 0.00908346949145868, 0.005013811471518774, 0.02381540098929149, 0.03402152313557233, -0.02522193897517949, 0.031521028364281396, -0.08081859728793409, 0.004047572134861866, -0.021007979743626243, -0.01276086522943393, -0.006058591300482784, -0.015320188933708906, 0.014835350103663724, 0.013091294968816017, -0.031308128380214024, -0.05156685560424185, -0.23342721063107916], [-0.0391781731075359, 0.05283267931917265, 0.02657185641253927, 0.08271692766144179, 0.07602924906274441, 0.07723673300755313, -0.044640443975837975, -0.001367299936064436, 0.03590416907160299, -0.0008038987348073197, 0.044493592673324915, 0.09669165182938104, 0.05846626677018131, 0.02541373166213357, 0.002168481678171901, -0.016068938292863755, -0.045655231671050796, -0.0714390851053812, -0.024300727310572208, -0.01938108070456717, 0.09067955464366721, 0.0166413705632865, -0.05872059424779513, -0.09649717444648359, -0.10113637194693442, 0.04874018582090467, -0.012462329061769268, 0.02030601372531524, -0.020989434991979056, -0.04828903164266777, -0.06823392394386472, -0.05734146350472778, -0.05400884743003754, 0.06070786197304695, -0.008415283016615377, 0.055659219058553276, -0.1540006066612578, -0.01886713236375633, -0.0804103520085814, -0.02014967857707198], [-0.03664078120230018, -0.0013290561535184524, -0.03169413187949786, -0.008969177204853278, 0.008049280695405779, -0.05649329774845269, -0.006325776487869262, 0.0019765628538242885, -0.0375418132932093, -0.03364472463311006, 0.012570380623360017, 0.045190694873939535, 0.03457439593272543, 0.11668441056195882, -0.06480611458143175, -0.03354192610213546, -0.05163395930196673, 0.04680005033591617, -0.02911723056370649, 0.07348490003529452, 0.016949778797774016, -0.08696232024504602, -0.05396752168602625, 0.0007751371891208526, 0.01678656323527929, 0.05678450873195214, 0.012573014709476445, 0.038266217533573246, -0.0032568184757945364, 0.04830701846267382, -0.07713389984372528, -0.01489835691223051, -0.13120803955210644, 0.034781520832096194, -0.009110933084525695, 0.05104923639143535, -0.07944517389008283, -0.0013423893501296063, -0.011903494099162465, 0.04631933892263347], [-0.010728201139378623, 0.058356740673899385, -0.026591506347435775, -0.004938475993688492, 0.035988965104040406, 0.02593701473593953, 0.0049798782159037125, 0.02998106747402836, 0.0163624187079538, -0.012712255423938898, -0.06887344910350984, -0.047858259233402194, -0.029706326308371292, -0.04944123294301464, 0.0034771000538363754, 0.014319218175583027, 0.024297354657548585, -0.039903934646615784, -0.008613686265764656, -0.029129995137141682, -0.018834382544865427, 0.005603050069410311, 0.03573275310381936, 0.014447557370331935, -0.0015783272760521853, 0.029423078365256473, 0.062165958929075955, 0.06837355925147656, -0.02727674099568581, 0.05217564863076435, -0.006996382043275959, -0.0386807266716578, 0.03422010132157411, -0.013197203043540343, -0.0678679029124574, -0.06432023250676312, -0.02563887112356857, -0.07424129864144985, -0.04065023992087901, -0.08907462239411262], [-0.016749067367233018, -0.040861436385250555, -0.055979658671147334, -0.06097105617081647, -0.004454469017398313, 0.06789591821745225, -0.058062010566805856, -0.003724371445220097, 0.012681812317761335, -0.02041394729824959, -0.02979583241894094, 0.018320485612041536, 0.06464149956670157, 0.08300918066637514, -0.008421225065839, -0.056873613698993124, 0.015071134560216932, 0.050278362202786156, 0.006909403396654326, -0.037978568499932905, -0.047340286847800825, 0.023167633618616595, 0.02912539877188538, -0.05307451450354247, -0.039760789839207285, 0.059502605777544224, 0.0730031199511957, 0.0373716617641997, -0.024116725837730852, 0.01633596843567024, 0.00928747036874244, 0.06937112490790787, -0.024080866686517467, -0.0002066056366418321, 0.06924952718448615, -0.015288911224002775, -0.07026682680999578, -0.009172724054081115, -0.11571333384591773, -0.07785052466034886], [-0.0037607533900374714, -0.05434652525543418, 0.07865533161339038, -0.009730097376109898, -0.04450986730074929, 0.03077843228515666, 0.039131344203121796, 0.04408887493588475, 0.06532425706011262, -0.03496360947666127, 0.043927330442629885, -0.04383495289248142, -0.050944579817820045, -0.01506124490742559, -0.021789927734083763, -0.01120576314364615, 0.003232100039057111, 0.02055723255795892, -0.016707142177111126, -0.020459964938326233, 0.09872627172998275, 0.009179481423016266, -0.0633018945628335, 0.028118419166360105, -0.0006726286690480097, -0.0038598420052672723, -0.050432924726145606, -0.0060629886363967305, -0.004080386821217418, 0.05012666204039474, -0.03766354008575202, 0.020643525547761023, -0.031151159928318465, 0.017022948673156953, -0.05228310530782902, -0.021967841881802855, 0.025670223114395135, -0.06301740410424969, 0.024968696751222284, -0.0609127669104685], [0.0005676959588078379, 0.08687555480227256, -0.08799024104518006, 0.005164568529334759, 0.01281461759111398, 0.007244990194605534, 0.02479878205260874, 0.04272189173846429, -0.016328954305274687, 0.04942403523492879, -0.07121864844796681, -0.07577324110297326, -0.012899030352978024, -0.06764639087162382, 0.05059616566005726, 0.020782484852522518, 0.09478706464189267, 0.10550353852308626, 0.0013846813138114285, 0.04660373640077988, 0.013846971344999065, 0.011401048815428996, -0.0022966228607677903, 0.008828262621808853, -0.017797790554197477, -0.10587556851317996, 0.005770569675623013, -0.051933278240729554, -0.0695375103793145, -0.03246855090883857, 0.02376482702952102, -0.05688657952505875, 0.07610808196984041, 0.04900306649023266, 0.0774294424828757, 0.02254481897467952, -0.005628175273576949, 0.01336903408205121, -0.06650037216400802, 0.03745567853725856], [0.03943380643294524, 0.014418831444399812, -0.030188569506632394, -0.040175027971939885, 0.04288355492819561, 0.03770118594583791, 0.004492939394547829, 0.012659748730583224, 0.023144243531328566, 0.026062923367417647, 0.054766400480754845, 0.08572475475357613, -0.0324384987291938, -0.07628360274812612, -0.010916604753668391, 0.03193375249087967, 0.04122042264226576, -0.04721296416175779, 0.06170578536898908, 0.028672030862602657, -0.057110482968726776, -0.05071847785523584, 0.04000503290225587, -0.03836935794889574, -0.040729830561629016, 0.01827921535087274, 0.006915877208779664, 0.09292379439204324, -0.019928380870245895, 0.05603997437014356, -0.008588384805541341, 0.008248970353825638, 0.075232410858318, 0.0035890694540087055, -0.020622700710387118, 0.007914635970841613, -0.05415335762363691, -0.05544559343346173, 0.06801183498685193, -0.034847653671608976], [0.03442918924181554, 0.06594753153837185, 0.0056822228465058106, -0.0593885609113229, 0.045838156773035044, 0.019339067430792712, -0.05721324648769586, 0.0038054217373183962, 0.005891090272118329, -0.054679693392296225, -0.01246372511028265, 0.08169890867112406, 0.049296696849426606, -0.014000876655587795, -0.0545282420880258, 0.04441313945582275, 0.011118458766100991, 0.040095173759320174, 0.011109170552622486, -0.009076483733157894, -0.050553868681233786, -0.060465801914491794, 0.015477968278129067, -0.03415937156762082, -0.006860360100433225, 0.06280598072720255, -0.07928195710674703, 0.03102699672145987, -0.05569216814249522, 0.07768365646388789, -0.058308080136407585, 0.04018756213626454, 0.05459627857959848, 0.039134221678255206, -0.012146231821056347, 0.02206996554835448, 0.01816250535613813, 0.020911125163107634, -0.03317634005024782, -0.03141319521762105], [0.02388923361368323, 0.02753027717206592, -0.062090785155129606, -0.0025762006014097114, 0.04145775515624948, 0.13006017014052063, 0.03157669552359378, -0.045413585932004605, 0.07771081238838, -0.03269118322687594, -0.07932304918229145, -0.014513814527851332, 0.0022222349447516086, -0.052242693988715797, 0.03308255497964925, 0.011371661439865307, 0.074939792987195, 0.0022684192647546638, 0.1061005335043638, 0.02691673494948449, 0.06684591040668533, -0.06452675495991778, -0.009346087925043, -0.005279783313580966, -0.05305806150109956, -0.10297173094513724, 0.05645929225718567, -0.06369216599845648, -0.08168771840297986, -0.0291944258396408, -0.037586020496158105, 0.03271796713778166, 0.05667145378413287, -0.03500686399702672, 0.08092312903004065, 0.0839997825856356, -0.04529171138953731, -0.09013118016203575, 0.07461580363872575, -0.03175950228696608], [0.029610643267085825, 0.016121063923521636, 0.04283760260761572, 0.018154412829201282, 0.06892718000758871, 0.033307834610815774, -0.03329341295695125, -0.010084480266016934, 0.043419133881186844, -0.08705032146682129, 0.02103942203721395, 0.02211014831333791, 0.026703380407973182, -0.03638776861910777, 0.053422540290251945, -0.02306883474224689, -0.04375363858498268, 0.06176477530625853, 0.03829736933058554, -0.011926988027062706, 0.04747730197940556, 0.034849939231020616, 0.033971998662651305, 0.08294212454485943, 0.02534928562963637, -0.0524382967285541, -0.044543744147156776, -0.04396629769897477, 0.019006678506923603, 0.011411194508472979, 0.04629327762433919, 0.039330960934050245, -0.008422674542324956, -0.03262459610163106, 0.030402678798620318, 0.08916406741031832, -0.03321022188896805, -0.04763609999891844, 0.02064524604559107, 0.024177651072634154], [-0.07243950334784317, -0.00924524781179334, 0.07441219273281978, -0.03623742195354124, 0.05750084694364705, -0.07809338316208465, -0.01019197235956508, 0.015054338562096797, -0.051075959840115814, -0.01677603977351484, 0.02602800891084009, 0.0339767971558431, 0.0336761049347109, -0.007081970731300622, -0.02243793523677745, 0.03361236943328003, -0.01706618067537017, -0.060353141240552036, -0.0032794093917312825, 0.04104117987993274, 0.03524631179366622, -0.03144398222424643, 0.031204575383579163, 0.038920384010019855, -0.015809473884091308, 0.0651660706130273, -0.04736164990907481, -0.019229457942237113, -0.00517744385187351, -0.007220323546402221, 0.06511139397852557, -0.013376775125018203, -0.03902280122605682, -0.003941410311570745, -0.07763171755458446, -0.025965284956267994, 0.005775070559408107, -0.012611129663922437, 0.020104491797319927, 0.04351731510359189], [0.019248669163522972, 0.08313195938109584, -0.06302980732458931, 0.05768101813414812, 0.002947902902905887, 0.04706920745100295, -0.09967439136111789, 0.03620048042593461, 0.03145840085507099, 0.0027628965895823534, -0.009396241134912688, -0.11008455475601699, 0.003007150593689449, -0.01068293267153615, 0.0999285892843625, -0.08117327190774509, -0.030093855904719725, 0.005488728291661434, -0.023920898480398453, 0.013106405288142147, -0.01126934744593707, -0.004804133405304641, -0.005423885431695726, 0.08934103177010795, -0.0690745033326512, 0.08004239213011693, 0.050729664390869324, -0.049032873105091426, 0.024352397329953576, -0.0064664779935811115, -0.0170453125179321, -0.05362629277466339, -0.03694553530289693, 0.00455567797936835, -0.03062446342174378, -0.005746816522018091, 0.051756144577201006, -0.1022334444105231, 0.051420862777436994, -0.08312453925499604], [0.043844202548194815, -0.0881055279347478, -0.05666541958464193, 0.008153224360354514, 0.013787786363979556, 0.021257662325784996, 0.031246244660566556, -0.02378889614194609, -0.04978310760082099, 0.020440664915405152, -0.013054977207056936, 0.02177779390019447, -0.08855960694948413, 0.11597571880546814, 0.02957263341034478, -0.012290190893630946, 0.0002594655139603038, -0.0032762009775929818, 0.03346397731777925, -0.0607372923952798, -0.05537163128772158, 0.054426915016270734, -0.0005010848551792446, 0.06279792883856757, 0.040406438637241554, -0.028173163829807658, -0.0033679761002386403, 0.04329837488672873, 0.09486582318407817, -0.020682757013885753, -0.060909098049406335, -0.006969967082521738, -0.08456080169467493, 0.05386235512520778, 0.015047379344781956, -0.042671551084064036, -0.040314515039570675, -0.14784281176949773, 0.05869384046248108, 0.01587173246024064], [-0.006778300594509243, 0.09288680273597817, -0.014734886377672176, -0.017071740536686496, -0.03389095223837551, -0.05071240488712798, -0.09574930365981098, -0.025476777518068015, -0.004853775870711275, -0.018927289408392303, -0.016724415704736494, -0.02673936898376356, 0.011765149022733583, -0.03556374963044836, -0.005671527548123795, -0.07704323897108815, -0.05092168942915517, 0.08270328925071523, -0.06884889004628057, -0.10054083053651865, 0.013790649535222067, 0.02227232858631761, -0.04579928724151069, -0.0573370262248449, 0.03225830205892744, -0.071797374691814, -0.0029116906568101685, 0.008629153738395453, -0.004811378199608895, 0.03271733277506452, -0.05879902111157274, -0.0569951637428908, 0.07190995675623821, -0.05222757959272623, 0.013855835824464308, 0.010687718812080381, -0.01474919506114854, -0.03273006194702723, 0.028422548551663637, -0.01966402432876314], [0.11725725049488496, -0.05905099232115431, 0.007333659429380264, -0.014890473972247882, -0.056407253054838645, -0.012920211830885861, 0.06928729334940589, 0.013015235198698223, 0.06422244432713951, 0.051185811583670776, -0.05452177833611078, -0.05179546825513962, -0.09257647907706786, 0.01933541189816681, -0.011744119785358598, -0.06236458168790256, 0.13721979014783325, 0.11021133742198398, -0.0053037495837789895, -0.10005612193545006, -0.09190375307142458, -0.019409480746360584, -0.05488036584369124, -0.020860594190471083, 0.01421188684881328, -0.000254385855218598, -0.02723060104461263, 0.05339658183846491, 0.034386048781077504, 0.003473238742346538, -0.01031069467174818, 0.016175379928974793, 0.036616306491443026, 0.07020510166270007, 0.047175461686510614, -0.019321038808284438, -0.04721586973362865, 0.0035948034428700836, 0.0114068008746771, 0.00835880843688888], [0.025082543170844435, -0.011341027870606573, 0.05294959517107293, -0.0645552742917946, -0.016299876368795964, -0.04624959518064167, 0.005820214264721665, -0.03166328941980766, -0.017351312121936465, 0.008991679164651366, 0.059334480337115095, 0.009262820417228953, -0.01183866695781727, -0.007034687378047856, -0.03296105463375776, 0.02072578809934247, -0.03398680985306129, 0.004595296209733336, -0.017072081526274402, 0.018476731602834816, 0.08764448661298843, -0.03124114713417341, 0.02133119790904488, -0.008463429798336378, -0.029463124953582383, 0.05751622922050159, 5.984369495274631e-05, -0.025111456620867795, 0.011968549104026543, 0.011234660459202583, -0.10855787255255465, 0.018589633067806973, -0.03713126206706515, 0.028029695228276474, 0.05135695058377736, 0.08037707957782804, 0.012289272860425575, -0.011631552073267102, -0.07056068334298872, 0.02029605059373191], [-0.03240857222703153, 0.1195749696372174, 0.08622854761897845, -0.03961405441312306, -0.0035957813522626615, 0.08377931352461138, -0.013562744711748146, -0.019784515612468665, -0.030251069828427905, 0.043072283390197495, -0.054394497102362584, 0.06174506821575883, -0.1176495244142157, -0.032359148431639645, 0.012614711940282766, -0.05783825140885945, 0.09910484061416862, -0.0004621340090974652, -0.11981912164288804, -0.13817684960019572, 0.012576197009701216, -0.07250930229555498, -0.07595764355250194, 0.05146790498808362, 0.03025250206870032, 0.02425127375751328, -0.05332256802978337, 0.0725707717523613, -0.041086185213356524, -0.03145179890782471, -0.04907808785560284, 0.046169367915518116, 0.04419338273548492, 0.03616011769724309, 0.01028368835829007, -0.052950985533030064, 0.06001928029898446, -0.02387951205047011, 0.016849882139786113, 0.029512357423323393], [0.12042468866252969, -0.008023648132273796, -0.03625516177894396, 0.014601098897104568, -0.07773241388608118, -0.0002535563733652481, -0.014777549639338312, 0.03887780326630507, -0.007866407849063235, -0.012164100925944154, -0.0017451297706905183, -0.03995018293018932, -0.014138489400081323, -0.001770964893229824, 0.0864308868463087, -0.013316182145883728, 0.032076367997800885, -0.028220559015180377, -0.061352379853128795, -0.014181570484951923, 0.052941424872031226, -0.039568573143167377, -0.12479615209253159, 0.020152919236123, -0.0086935097542847, 0.025037366776232996, 0.0029041949123912903, 0.014601023711703144, 0.0645434195936933, -0.014107088338801832, -0.04514205670017624, 0.08757530616117916, -0.021786131471691037, -0.030214765522404492, 0.0454517421387602, -0.08921053614045454, 0.04086390505488278, -0.06460991881394655, -0.04958423646232831, -0.08307472424072038], [0.005292146747029055, -0.0050100994591792776, 0.05196924952380783, -0.004453859333082024, -0.04505555018655478, -0.08903217551216817, -0.0771266078806908, 0.051429930517902255, -0.0017511067757505726, -0.006209118754556976, -0.09699387705459415, 0.0713062953889128, 0.02446317348774672, -0.022367223592697324, 0.07023034083065623, 0.09532747244137756, 0.038156743580919805, 0.013065039998508731, -0.058671542157761665, -0.025660232995465725, 0.013193698368392428, -0.0003811597554698466, -0.04018253789763747, -0.10108841243464176, 0.040324446398781875, 0.018693905502888818, 0.06981886751518213, 0.05001735382652833, 0.013387113243999455, 0.03453568452693486, 0.09319029021716624, -0.017339843229622915, -0.08209121602206156, -0.047681785773817556, -0.023183615324641294, -0.054035323199403, 0.01248314825201247, -0.06682675436399535, 0.0503758855070901, -0.06786136531995578], [-0.036129794321843156, -0.002412391958027515, -0.03572439941295618, -0.07223829838554062, 0.10625317895749928, -0.009095565050756435, 0.0007455924010242626, -0.0375777169055942, -0.00880772750155402, -0.02215930559990398, 0.036114604667685776, 0.07592434377350796, 0.0042060229149261195, 0.08515208508278782, -0.0913332002155214, -0.032479716589459785, -0.0014387430082891252, -0.020439936622106535, 0.06641757902588391, 0.030442416813335798, -0.023209071095472406, -0.008594770658437436, -0.0880277010152667, -0.02867724301151286, 0.040788773188659325, 0.030310826476331883, 0.012442792181396553, 0.009617730132323353, -0.03461116031421862, -0.02846050533880798, 0.007062008347537923, -0.013205908152520334, 0.024031103311025082, -0.015561446967799007, -0.012611058130926575, 0.0015836671938827135, 0.08060160526089648, 0.053333815791900045, -0.03237521161509073, 0.0009594912726282479], [0.03395523522157807, 0.011272228922516952, -0.0072131855822910405, -0.007412918042155314, -0.07523577143356154, -0.08549653620603652, -0.017466285818154636, 0.02679988260119361, 0.017152349336542586, 0.009465872578038367, -0.01166940214643367, 0.06486968792496771, 0.09901383428071331, 0.04291299810633113, -0.04896415644284613, -0.04242092542628568, -0.03228702881039727, 0.012182960949441686, 0.011214465224792351, 0.1365696442356608, -0.031549290318182516, 0.018616416780891182, 0.02574230067796488, -0.15816414322582914, 0.03297180606466878, 0.10216047269636232, 0.06547480598095505, 0.0432334650348993, 0.06968992776792575, -0.05891823931626483, -0.04681951179977919, -0.002229139365422163, -0.03604915957041689, 0.1349458142461164, -0.021486491643515997, -0.022728581608763957, -0.016406422763783575, 0.07229183637320405, 0.026711122114220956, -0.04983620071409244], [0.0023387086782388736, 0.13202872673123492, -0.07926495957281027, 0.049351791610606995, 0.07319500467217051, 0.03684003133735546, 0.060162140841605746, -0.07386390547141389, 0.019290040751115567, 0.011143293202309099, -0.0013381253293209367, -0.01497547602425038, 0.0322082941208824, -0.023408936543816202, -0.10860991552344, -0.0705760068330682, -0.07112014393722697, -0.017668968000836636, 0.006344069847771336, 0.021507479853233417, 0.02795587182526015, -0.01765040511370505, -0.10306665582074749, -0.03013599058847542, 0.07608225822790209, 0.008274292668082403, 0.04982095073149537, 0.04979871541132258, 0.03145266656357504, -0.006532627933817351, -0.01851853762298368, -0.05425945280711311, -0.04479191984929613, -0.06426719458047085, -0.024275987496154193, -0.04262527092154148, -0.05009320144802665, 0.11537243188776006, -0.009854688435452529, -0.08260497744052238], [6.120160967803263e-05, 0.008931773642669113, -0.04465916942439209, -0.027226393195305253, 0.06129269611318218, -0.0890486456129766, 0.02883046071710486, -0.01889292542865448, 0.0659391623188475, -0.11008038047030393, -0.005264612545102393, -0.07800215930653369, 0.08431212160221477, -0.009757957370413753, -0.0783782138156973, 0.07103544863319633, -0.037289199621343694, 0.025600447162740916, -0.0781358902414601, -0.024488497050104675, -0.005850600928480738, -0.09113018987533245, -0.04003014976776035, 0.05645733615073785, 0.013264231738618614, 0.038540651470739776, 0.09097246271052335, 0.027627052359871444, -0.07223411038370156, -0.013956074350449432, 0.023278793514150867, 0.0703383300664465, -0.09011052641921284, -0.029189432852162023, -0.07403013891220794, 0.04085605783502256, 0.0639811148933913, -0.015458150104272305, 0.015111598199365467, 0.0018627957538708583], [-0.06559155463102366, 0.0956039642616413, -0.01257664737842985, -0.05802747036826393, 0.12986564675018353, -0.02204226896241897, 0.09446276548042856, 0.01717020509028978, 0.04888529200342453, -0.09573323787263223, -0.04412772199614121, -0.07488966695294616, 0.08030097498463971, 0.0317884583057343, -0.104514647050282, -0.01495818750965864, -0.07148381144213178, 0.12289624734331954, 0.000564428862506698, 0.023247202225540532, 0.027289620310608487, 0.031387711903076244, 0.030715154957598776, -0.022006724333715467, 0.0648121444204375, 0.10917582957771636, 0.08375852249987831, 0.16282727397785143, -0.12399134016182391, 0.012617197721512279, -0.0003682497414367386, 0.03802689759794046, -0.048889059703134674, -0.11289665332368967, -0.08664590247244781, 0.002656831718743505, -0.00923269129593369, 0.05561681155633507, -0.016014417668033038, -0.003785031671072532], [-0.01490160714662148, 0.14147119889961654, -0.014127327594173626, -0.12540511116083494, 0.10523793494699656, -0.01296517241751922, 0.11419129288359892, -0.027353361797998077, 0.021858820824075906, -0.036176723993441615, 0.04787777109250543, -0.0744860108333053, 0.15730668708840403, -0.029273846998961493, -0.02412340765023253, -0.01440847537410681, 0.021665152738304577, 0.00014184844439667384, -0.01640191527946351, -0.029603189218467437, -0.0408173216627484, 0.049224804434750045, -0.056741675660649055, 0.015995734029006226, 0.038477997036252105, 0.05176328708138489, 0.04952517235213683, 0.012779737690384317, -0.03881586134867696, -0.06205963621679252, -0.13633406523726402, -0.018017892864997057, -0.034481219549452574, -0.08241444905573685, -0.025776433087215524, 0.03534605435527145, -0.013103439255269552, 0.007014472517580287, 0.012611299528629712, -0.054172407790793076], [-0.10573243268950212, 0.12871718837794488, -0.08979127052049156, -0.0995759828005842, 0.1773452280052563, 0.04051103264509478, 0.0821341476864984, 0.05213286255888053, 0.0831125587310284, 0.021935455018217854, -0.08971454455374145, -0.12489979470096457, 0.1170647120900317, 0.0014519000602162115, -0.023117517326530248, 0.08383410388852083, -0.037018883051781, 0.12472480798206297, -0.018644018008649815, -0.08803003116351903, 0.023441718651170517, -0.05948652605171507, -0.05388682797751491, 0.12079707993507616, -0.11107165991308682, 0.04680270412889193, 0.20214848695336735, -0.09765190579906045, 0.013085615272652106, 0.016987240037676776, -0.08419932196230485, 0.10940697486462551, 0.014941530946946802, -0.02799895433301659, -0.025628769764207027, 0.10781269881968367, 0.05114998749341056, 0.06228126739288731, -0.008790288099509077, -0.01663631824229777], [-0.02458552728858048, 0.10714305667450859, -0.07915975160454301, -0.09035846009137456, 0.012873594357983728, -0.03723021746830058, -0.0034287913096591382, 0.05067068643367853, 0.02606093604237421, -0.04139192390411299, -0.017829942269373338, -0.06275294375983442, 0.18735509017405372, 0.08558321009747774, -0.03280408175969992, 0.05306500411505389, -0.006497161849045666, -0.07963901889665838, -0.05073751350713268, -0.0512948819676843, -0.03663657626447652, 0.031053662358081133, 0.08185047520255491, -0.016151692439117758, -0.044737020366712565, 0.009009715830565732, 0.06778966134884616, 0.029293387541099135, 0.04057503364716314, 0.013027162041561758, 0.05857648765956592, 0.05198559090743211, 0.12260199443354286, 0.028425687151494565, 0.031002597606593442, 0.06287635253738737, -0.021360290485672104, -0.01712894921181071, 0.06200934881517888, -0.01934245527689135], [0.032707466415188374, 0.038319643639202206, -0.08286478878990126, -0.10720856071842023, 0.08350019522065688, -0.03736704688757942, 0.00824676102768242, 0.06663314727716732, 0.01313224134455904, -0.12854672309154747, -0.05011152115616523, 0.06392165954313762, 0.07551716154376359, -0.11391570289692773, -0.003371484504011166, 0.0026909387238975685, 0.017455117752349026, -0.051689135729778284, 0.009681518967609947, 0.010103687312103166, 0.005699608973046689, 0.029240753988862785, -0.045214357864371606, -0.027578581245876747, -0.03956055931461675, 0.12128138126979039, 0.06851355245554462, -0.012551829401814561, -0.025917297208771374, 0.047261437024844324, -0.032131304975720865, 0.024572673367137445, 0.06250116105140334, -0.059021595489992446, 0.06746455711002099, 0.025194930792972473, -0.04333372622637004, -0.025792739277255165, -0.04834025854849025, 0.024237191183007465], [-0.0038552031986995566, 0.015537882293112017, -0.15876578689955276, 0.006895773001633138, 0.19698534935594925, -0.04586522594795063, 0.1270337940625153, -0.05115513964637545, -0.02311764434879952, -0.07717874101100813, 0.023924878314875168, -0.04126330590051155, 0.02964745494446687, -0.021777821745739844, 0.029078968054507277, 0.02901366070818698, -0.042440093522652295, 0.0032791685021106207, 0.058228056926366914, 0.09840366258680584, -0.0509800833908972, 0.06420176414339551, -0.09675545297468936, 0.019833816249441406, -0.04439801461738965, 0.006579074806966825, 0.13132398938966627, -0.03100428971266981, 0.031803997042392014, -0.09635513439739107, 0.02515609241860466, 0.033569406862945364, 0.07161829131227337, 0.02476082674865406, -0.09665579659304557, -0.04463439714659586, 0.04743208585268742, -0.061245035087870596, -0.0036914644340885336, -0.08212835464753164], [-0.033762600851399316, 0.034080325968013254, -0.06683872760782754, 0.017936145124546887, -0.040722490122413635, 0.011516480986356175, 0.0757292179562939, -0.018078376677906283, 0.01517401622486785, -0.03210875798300371, -0.005482378455935005, 0.058807009553961, 0.07658907597996643, -0.019967695925402613, -0.10507501749334257, -0.01162456071984303, -0.020950769067494306, -0.03007747616500946, 0.014640983738813569, 0.026109259520476998, -0.018076297659293472, 0.06779135410772068, -0.08598122002275697, -0.055132901138814264, -0.1127378177847578, -0.04428539240330477, 0.06795470747732159, -0.03838378320072314, -0.0711306669681221, 0.10146331689651904, 0.09890863003812243, 0.00946203056061275, 0.012222517951672075, 0.0010896383885575925, 0.006665044208487302, 0.044505924522881386, 0.02702244538836197, 0.01541714564368465, 0.04664085480075852, -0.04450905655376839], [-0.016036023241564695, -0.044554569197479986, 0.059172604975707026, -0.04131908750266092, 0.03353470311225538, -0.05265784757736856, -0.005408893977229552, -0.09618980306262437, 0.07054377120367822, -0.04889306517369039, -0.007176062514768229, -0.029396747445894884, 0.1035742591506314, -0.024357042672423092, 0.021619300049939293, 0.0678272689609492, 0.05643694635831938, -0.10940150033926908, -0.023506814648733297, 0.021617755825409972, 0.03145822881910239, 0.0199439385651085, 0.09833373484216891, -0.015887403556474302, -0.06243986665498161, 0.017773182109322744, 0.2066557223600667, 0.0552684985449762, 0.04452340831145822, -0.036938031598389064, -0.019725140570138064, -0.007751110290518086, 0.06311188580479526, -0.000523710655417911, -0.03267295444009779, 0.00899847430414364, 0.007514822391820561, -0.013367167250265101, -0.01505255745796414, -0.07056834538416933], [-0.08051322008443075, 0.06704273318108707, 0.07013552157302302, -0.04164794647998109, 0.004576561117044938, 0.060016817898876494, 0.008652305667577718, 0.00557413578454553, 0.0054063475470814875, -0.07170083533778829, 0.03010875880331083, 0.03464941285565177, 0.10293943179116329, -0.017156760788110233, -0.004094068081124073, 0.024996864470718784, 0.04339696301898194, -0.013515849564896652, -0.03326699822406287, -0.02993838266077096, -0.02591690753738502, 0.007159968838112838, -0.02812252876126701, -0.059619160097092797, 0.05119769000044398, -0.11644739532152142, 0.1423027385552821, 0.048419547819016785, -0.05066075106646542, 0.07750514959630439, -0.07285743810753335, 0.025253433884274867, -9.599940986839306e-05, -0.035306289205442355, -0.011152496425942678, 0.027185216271099242, 0.0360173982499599, -0.07343730814878414, 0.0315121452985372, -0.05049126492550903], [-0.06580283571999801, -0.01917159203635673, 0.06061219450542481, -0.027075589765179143, -0.041478794736417315, 0.007355131514155164, 0.030147081006120326, -0.011559617800621216, 0.013851223152122583, -0.03312165066580738, -0.03884300822475937, 0.11787178300938674, 0.1174446135312013, 0.11308505161520903, 0.05558721157591279, -0.05871169086731842, 0.027990533782184135, 0.028839920059873642, 0.03506057499987921, 0.057217520130805125, 0.06888159305771765, 0.06368787210880451, -0.052515335823170084, 0.0010618534720083577, 0.014767708785516444, -0.025605921232915958, 0.1212438314696211, 0.010584323411477267, -0.03575991411781988, 0.04148825085940466, -0.03781150549026278, 0.03702297755850708, -0.0343886558257544, -0.0007930800784293687, -0.07368375107010298, 0.06894811412588088, 0.01752328537640036, -0.012816899541674472, 0.013692772517942231, -0.0016001983661461158], [-0.02426952779275424, 0.024104260194257127, 0.04104363615246373, -0.08583899527116945, -0.044811867680784795, 0.06649518526594402, 0.026851432089076328, -0.07829962519529177, -0.00462813612739812, 0.028798221323017834, 0.04830647979201708, 0.04722456594639907, 0.07230094717135259, 0.0809496936981073, -0.05287641509953871, -0.001363973783779223, 0.03256427893601113, -0.06799152911940677, 0.019350882115372055, 0.0754355564637701, -0.027177702698866574, 0.05176970365110603, 0.021851603963575317, -0.08545904191053612, -0.06613256649714831, -0.005768745367081452, 0.08106815596248461, -0.02990355485763555, -0.03873429629089043, 0.027605437619537883, -0.06111072336397381, -0.06815157814698877, -0.03193519193938137, -0.013805396258775715, -0.001866355457295471, 0.09144111092139978, -0.04176583603298803, -0.03620780788971086, 0.07108449201572457, -0.07794980363886257], [-0.011512631051762616, 0.004128570584124839, -0.01041623582231152, -0.18342911609818965, 0.013923166144683152, -0.03467253190877804, -0.07179119916861011, 0.007781711926574114, 0.09338890013142541, 0.06796742168667629, 0.02441893428367779, 0.054882648019550284, -0.011587337507872626, -0.0212452624885053, 0.016999254124794843, 0.020094483842052813, 0.0258851896892951, -0.06131098996454944, 0.014500532079957924, 0.04458842853461154, -0.035544830725266804, 0.014619676559693437, -0.031296427412714684, -0.025964486027768508, 0.012551562271233097, 0.0033366805725969367, 0.07077622294188608, 0.002350321923520023, -0.06486289732998633, 0.04076343403221196, 0.006457438560635665, -0.021662013881757362, 0.005232171349001957, -0.047636299130804416, 0.03901559241542266, 0.043764442981399566, -0.0119396441717626, 0.0694839799052486, -0.04687385375459228, 0.044912494056673025], [0.0018868126141333215, 0.05872809947606541, 0.024082563268031314, -0.07710104443606827, -0.004526309831235223, 0.026256016841628465, -0.041425420875084294, 0.013043979904675535, 0.0402615926217031, 0.0830056440826202, 0.004824602633371509, 0.12716312109612815, 0.0985516336941718, 0.08790173925377416, -0.04607715215811017, -0.029706749377701715, -0.002901642852177876, 0.023203457563453243, 0.01568904334763324, 0.03530301229829613, 0.10107103696806916, 0.001137532523638699, -0.04884202073342728, 0.060220688692729514, 0.049871675356722725, -0.04767458409564366, 0.09049207418518632, 0.03521162216159483, 0.008923997733709138, 0.09188834624085439, -0.11929567693754359, -0.0014558408037644163, 0.0707006235870413, -0.1241491977425958, 0.07264135908991452, 0.006019800019743732, -0.0459781874105391, 0.04831699948708576, 0.006263726655195056, -0.02333302113832707], [0.0006447593339355427, -0.004456650704395285, 0.015328437064126416, 0.007192011985815502, 0.00689884134225817, 0.02575855609992089, 0.04239778768981897, -0.08060673769354887, 0.06614788184823003, -0.09917388766216811, 0.06540906541245685, 0.04474888918703353, 0.018106499330588353, -0.01924815442441481, -0.022263642025767676, 0.041165281801488325, 0.013194450700853384, -0.03597756738552951, -0.009764239977206508, -0.039279942445452874, 0.03154240038473198, 0.013055366502754342, 0.008073725195099335, -0.03943254602192706, -0.013436335677039845, -0.10584715780421013, -0.002427493957186013, 0.11484854784014294, -0.03496165930348355, 0.07909331355051215, -0.1152764826806193, 0.014664138644237735, -0.00046692224886612247, -0.012254682525021775, -0.022130401503803094, 0.055845772355125035, 0.03869897683206624, -0.07962890100952498, -0.007971126289714794, 0.024526504127670542], [-0.038409215235044106, -0.0533902330674579, 0.006094033930656514, 0.05136147996552067, 0.019312441260303275, 0.07354430708464044, 0.018446929176773662, -0.023278554866774093, -0.03241094733546465, 0.0025546630246314978, -0.0795018770829111, -0.007897071233308395, 0.05535038582361385, 0.028440458172058636, -0.018809351110842566, 0.058959171405426204, 0.05962052233004443, -0.004176385281532953, -0.09738144734092351, -0.0952135792177848, -0.0704651025569293, -0.02727102136300405, 0.06406900385650932, -0.027811075309412733, -0.04183105199818578, -0.042969174133566504, 0.017908251409086192, 0.04161784019133858, -0.09163459099358426, 0.006984238302290187, -0.007654513883613198, -0.08678615795155699, 0.005571211890756485, 0.01510019102163701, -0.030797976774498366, -0.10947679014268812, -0.030335799583189133, -0.08578185196742526, 0.03881859427332305, 0.009661818211505488], [-0.039008522438188094, 0.026382391179608878, 0.009271867193269546, 0.05605097755516741, 0.03487050321025639, -0.03284400156606201, 0.00013659942426062096, -0.008486123562918207, 0.12085881148461489, -0.06476373805436889, -0.04521720597292149, 0.13280583561786038, -0.0005118167881178745, -0.0751724225175974, 0.008733740603945253, 0.012319583789936054, 0.04580646212190947, -0.012871202658190882, 0.053916022982712114, -0.034898108329927624, 0.08694429686684764, 0.016988949138653647, 0.078345215978122, -0.05209126131732312, -0.06138938886627755, -0.015663818309464124, 0.03292724519625856, -0.013048811142550116, -0.024652785909752888, 0.041852873374919594, 0.020222988142128657, -0.015375265420527147, -0.025028796216390706, -0.004150077624821007, -0.05697091360136698, 0.020859841752452885, 0.05941560011755093, -0.009500200386808213, -0.07942434144993658, -0.053922486595650986], [-0.06652473607330397, -0.011123815675084563, -0.00195961095503766, -0.03880693525140871, 0.014349568388944313, -0.047836685270085874, 0.07639710383431232, -0.06635796032603244, 0.02318408963034993, 0.03254898071653887, 0.1259683796099453, 0.03209777120649966, -0.06404218802340945, -0.02061709507097715, 0.014267099567025406, 0.03100787200733399, -0.002928601613366244, -0.05252739661882817, -0.02644275403948513, -0.005883145480737739, -0.037354484227269565, -0.05497273322744186, 0.020571644302744996, -0.015584702419372045, 0.02569005926200891, 0.02816160964992972, -0.06138558103699853, -0.019007211911678673, -0.030029124710313774, -0.017874483929895796, -0.0646172935002825, -0.007635038233706531, 0.015159184908077364, 0.04787298601067613, 0.08139328594952214, 0.03386451386114017, -0.022096715995087956, -0.050605899719831184, 0.07107576080746571, -0.04078535354243994], [-0.02471254406515674, 0.0017027648740159452, 0.11270778165502038, -0.030324135597485872, -0.006250848367461384, 0.10673096665553292, -0.002745763723577116, 0.13309649905806262, -0.018575157716730625, -0.047563419709075426, 0.0402887797856995, 0.028085851637162058, -0.011435032880300613, 0.005438876315902975, 0.04550028697044433, -0.05890309577925342, -0.0011711139444095969, -0.017219187324442362, -0.04958724850932417, -0.008220990443514735, 0.029442106377634548, -0.045393074796142636, -0.006398248217908455, 0.043756835310952445, -0.05830437420166559, 0.06576726521767612, -0.0035248715833120377, 0.06486222620802569, 0.1531320862876348, -0.005238880400280461, -0.029240080581741514, 0.07031696556582831, 0.10535530408602117, 0.02399629641374609, -0.051984763383342715, -0.08414046773874251, 0.014644422888379959, -0.059072571961510126, -0.019955993279199204, 0.0019765658815385006], [-0.029601047701604773, 0.10234776186112525, 0.08221584611543437, 0.04425487209986993, -0.015387353363803506, 0.09501876239013317, -0.00754085080819363, 0.058793793789203005, -0.021468087504990373, -0.014275440461458622, 0.017991488091861966, 0.03228967522928408, -0.017901984431326998, -0.09023322604231813, -0.08006434175850768, 