{"model_name": "Sequential", "layers_count": 4, "input_dims": 2, "loss_func": "CrossEntropyLoss", "layers": [{"layer_name": "linear0 (Linear)", "layer_type": "Linear", "layer_args": {"out_dims": 10, "in_dims": 2, "activation": null}, "layer_params": {"W": [[-0.7599791034549117, -0.6707507689795629, 1.5109010862576127, 0.23901406335125933, 0.7186526909286025, 1.1867089291528086, 0.29859447826085056, -0.5830096104000935, 0.2803733478651174, 0.23739296197157223], [1.4425834826127566, -0.27466355844724066, -0.10832368350936136, 0.8766692666577633, -0.5215456061759162, -1.6549190585534772, -0.6533943809251243, -0.9608048309591045, 0.30158405459842064, -0.40966429650265207]], "b": [[-0.17131188391769167, -0.0778513823539657, -0.14346151104895816, -0.1576697895855765, -0.22347949013760715, 0.4185929655564039, 0.1796024281154064, -0.12782057972430294, 0.848989400731193, 0.5888346264381455]]}}, {"layer_name": "leakyrelu0 (LeakyReLU)", "layer_type": "LeakyReLU", "layer_args": {"alpha": 0.03}, "layer_params": {}}, {"layer_name": "linear1 (Linear)", "layer_type": "Linear", "layer_args": {"out_dims": 10, "in_dims": 10, "activation": "relu"}, "layer_params": {"W": [[0.04322163738682686, 0.08757788241217172, 0.01948056534961646, -0.1322509295206017, -0.012585607714747354, 0.413851437757297, 0.010211311562573188, 0.25683588104287564, -1.1718521812659979, -0.5179753552669975], [-0.07622587059038957, 0.05773196240141047, 0.7592829237254999, -0.4922338415898181, 0.11978621499404508, -0.8855853966519661, -0.6401870409816265, 0.7488664882452108, -0.38056273545736524, -0.00711858825779982], [0.43313606788731374, 0.010010499583735373, -0.0344051115984947, -0.2248178954150379, 0.6244285886076908, -0.6131716210702465, 0.14439445290737984, 0.4969769036474862, -1.5427349503805599, -0.44057820736749675], [-0.019525781947640965, 0.8646289376173809, 0.4474718934032861, 0.8610884574480903, -0.09235724185310909, 0.408968727260975, 0.19480631744663582, 0.4801013034548583, -0.6340393836698462, -0.6728364897849674], [0.3448497753938276, -0.557998521757898, -0.8084530170732137, 0.603653316001601, 0.9700918189559972, -0.5706658469771725, 0.212399943919875, 1.2982678506405345, 0.17040776035316205, -0.1008422966221097], [0.12258565729451004, -0.19803197192071884, 0.2559118966765469, 0.906169945767855, 0.15667136541314078, -0.060740865808663516, -0.5148502081431797, -0.3665379398920812, -0.4026098327367208, 0.10178127495205418], [0.7264181140508587, -0.2773573605336741, -0.15064630334493692, -0.18808901782981016, -0.7067647062742609, -0.18829272663352276, 0.12534604095282176, 0.16655045652336212, -0.22310395224412516, -0.24566546391189964], [0.7454438243303967, 0.8150301069255595, 0.20339380735407306, -0.6104925090946014, 0.2643126999203453, -0.5793697485675992, 0.005524401272276935, 0.5892391361548985, -0.3617473920970578, -1.0462875194212193], [0.0360845456620562, -0.7300872238293669, -0.3229101679151784, 0.5261788968044729, 1.1748092975091793, -0.18741535601728943, 0.2745857516502505, -0.6846944818697379, 0.774042419539978, 0.389846410599809], [-0.04873314181985022, -0.05174226166662139, 0.10040926803867326, -0.6133694967437839, -0.2673207944999724, 0.10465396333194679, -0.1488642915158388, -0.6091324262885519, 0.15283346708706588, 0.013781519498118074]], "b": [[0.02580389752136766, -0.6815395767294041, 0.14701799331102852, -0.07114986612109767, 0.020014665702678798, 0.022061746721131037, 0.04955660679224967, -0.9582693836304055, -0.028003905054571742, -0.07730872704458068]]}}, {"layer_name": "linear2 (Linear)", "layer_type": "Linear", "layer_args": {"out_dims": 2, "in_dims": 10, "activation": "softmax"}, "layer_params": {"W": [[0.5256415561857296, -0.1235982439807437], [0.7125954289946211, -0.6843283975477232], [-0.18991480876415248, 0.2936842884411977], [-0.17219051977294272, 0.581074242496084], [0.1357984794790731, -0.3577214162636604], [-0.47513825380781594, 0.14875585546199485], [-0.09226557976417687, 0.40415328427357355], [1.5776917964020927, -0.6209608662900298], [-1.1323880180918038, 1.1826354569539521], [-0.5040928773271681, 0.44229015101103125]], "b": [[-0.41486435873634503, 0.414864358736345]]}}]}